{
  "layers": [
    {
      "grid": [
        [
          -1.600000023841858,
          -1.399999976158142,
          -1.2000000476837158,
          -1.0,
          -0.800000011920929,
          -0.6000000238418579,
          -0.3999999761581421,
          -0.19999998807907104,
          0.0,
          0.20000004768371582,
          0.3999999761581421,
          0.6000000238418579,
          0.8000000715255737,
          1.0,
          1.2000000476837158,
          1.4000000953674316,
          1.6000001430511475
        ],
        [
          -1.600000023841858,
          -1.399999976158142,
          -1.2000000476837158,
          -1.0,
          -0.800000011920929,
          -0.6000000238418579,
          -0.3999999761581421,
          -0.19999998807907104,
          0.0,
          0.20000004768371582,
          0.3999999761581421,
          0.6000000238418579,
          0.8000000715255737,
          1.0,
          1.2000000476837158,
          1.4000000953674316,
          1.6000001430511475
        ],
        [
          -1.600000023841858,
          -1.399999976158142,
          -1.2000000476837158,
          -1.0,
          -0.800000011920929,
          -0.6000000238418579,
          -0.3999999761581421,
          -0.19999998807907104,
          0.0,
          0.20000004768371582,
          0.3999999761581421,
          0.6000000238418579,
          0.8000000715255737,
          1.0,
          1.2000000476837158,
          1.4000000953674316,
          1.6000001430511475
        ],
        [
          -1.600000023841858,
          -1.399999976158142,
          -1.2000000476837158,
          -1.0,
          -0.800000011920929,
          -0.6000000238418579,
          -0.3999999761581421,
          -0.19999998807907104,
          0.0,
          0.20000004768371582,
          0.3999999761581421,
          0.6000000238418579,
          0.8000000715255737,
          1.0,
          1.2000000476837158,
          1.4000000953674316,
          1.6000001430511475
        ]
      ],
      "scaled_spline_weight": [
        [
          [
            1.6972854233188173e-09,
            8.565759799239459e-07,
            -5.191552190808579e-06,
            -1.2848257938458119e-05,
            -7.33416381990537e-05,
            -9.877521370071918e-05,
            -4.034886842418928e-06,
            2.0813109586015344e-05,
            1.9204171621822752e-05,
            -2.6795348730956903e-06,
            -4.392199116409756e-06,
            9.889108696370386e-07,
            2.0103407827321007e-09
          ],
          [
            5.815963159318364e-40,
            -8.901468234930535e-41,
            3.61829276473311e-41,
            -6.364977884656184e-41,
            2.1826905140016216e-40,
            1.3608423614641652e-05,
            -3.0353387046488933e-05,
            -0.00015713040193077177,
            -1.4062585250940174e-05,
            -2.225304115199833e-06,
            6.6089496613130905e-06,
            1.6205902966248686e-06,
            -1.5471995240545766e-08
          ],
          [
            -3.594330560993156e-41,
            3.8133535109671247e-41,
            -1.345849084091484e-40,
            -2.3688572188825665e-39,
            -4.035263135777603e-40,
            -7.983749128470663e-07,
            -4.811968028661795e-05,
            -0.0005337949260137975,
            -0.001101277768611908,
            -0.0005548308836296201,
            0.00013659293472301215,
            -1.2856280591222458e-05,
            -6.219355697112405e-08
          ],
          [
            -2.6532939955359325e-05,
            -1.4426419511437416e-05,
            -1.0636305887601338e-05,
            1.45541462188703e-05,
            3.532059054123238e-05,
            -0.00019938677723985165,
            -0.0016857902519404888,
            -0.0008782217046245933,
            -0.00011033954797312617,
            -8.481777331326157e-05,
            -5.768980554421432e-05,
            -2.103727456415072e-05,
            2.823450449795928e-05
          ]
        ],
        [
          [
            -4.379565439194266e-07,
            0.00013775707338936627,
            0.0013362995814532042,
            0.0017540812259539962,
            0.0030785505659878254,
            0.002664986066520214,
            0.000612027826718986,
            -0.0009147427626885474,
            -0.0018279460491612554,
            0.00011541115964064375,
            0.000518488057423383,
            3.1393927201861516e-05,
            -4.7570107852834553e-08
          ],
          [
            -2.2119992319023608e-38,
            -2.1352173246272254e-39,
            -5.212314609453448e-39,
            -2.495474344223564e-39,
            1.928280573908058e-39,
            -0.020763728767633438,
            0.017184216529130936,
            0.030260564759373665,
            0.013505498878657818,
            0.003427045652642846,
            -0.004663307219743729,
            -0.0007987411809153855,
            5.593121841229731e-06
          ],
          [
            -2.4481510937848506e-39,
            -1.8493216093387476e-40,
            2.8125545555371263e-39,
            8.56585024623242e-39,
            7.02248393969896e-39,
            2.8500235202955082e-05,
            0.003947785589843988,
            0.007428362965583801,
            0.0066018132492899895,
            0.007706883829087019,
            -0.0026997823733836412,
            0.0008101737475953996,
            -3.0603353025071556e-06
          ],
          [
            0.0009624926606193185,
            0.00040534482104703784,
            0.00024966761702671647,
            -0.0007990796584635973,
            -0.002430567517876625,
            -0.0026030202861875296,
            0.008331706747412682,
            0.009776142425835133,
            0.007407102733850479,
            0.004856334067881107,
            0.0025741583667695522,
            0.0006333675119094551,
            -0.0018121975008398294
          ]
        ],
        [
          [
            -4.853659874015648e-08,
            1.711622076072672e-06,
            0.00014824485697317868,
            0.000316217599902302,
            0.001085316645912826,
            0.0010944274254143238,
            0.0001719930733088404,
            -0.00034107532701455057,
            -0.0004801481554750353,
            6.532987754326314e-05,
            0.00014767002721782774,
            5.295033588481601e-06,
            -1.3792633701825707e-08
          ],
          [
            7.222292285130107e-42,
            -3.2086511846570364e-40,
            2.488075488331929e-40,
            -1.1188163120954345e-39,
            -1.118119866758665e-39,
            -0.0006324764108285308,
            0.0011061744298785925,
            0.0027849532198160887,
            0.0006197417969815433,
            7.076709880493581e-05,
            -0.0002106541214743629,
            -6.659829523414373e-05,
            -4.3359162305023347e-07
          ],
          [
            1.2467548618882903e-39,
            1.3007258722417606e-39,
            1.1494066575716453e-39,
            -2.5640118521136908e-40,
            7.164138398860627e-40,
            6.617935014219256e-06,
            0.0004675327509175986,
            0.0017138572875410318,
            0.0030576935969293118,
            0.0016771267401054502,
            -0.000845310278236866,
            0.00012773339403793216,
            -2.9316893801478727e-07
          ],
          [
            4.310402800911106e-05,
            2.2674325009575114e-05,
            1.7030417438945733e-05,
            -2.2479953258880414e-05,
            -5.7432065659668297e-05,
            -9.105022036237642e-05,
            0.0011708863312378526,
            0.0005509495385922492,
            0.00016271851200144738,
            0.00012564670760184526,
            8.506169979227707e-05,
            3.0437078748946078e-05,
            -4.0587685361970216e-05
          ]
        ],
        [
          [
            1.4407773107905086e-07,
            -3.817769538727589e-05,
            -0.0005805505788885057,
            -0.0011943868594244123,
            -0.002383072627708316,
            -0.0015881970757618546,
            -0.000132123168441467,
            0.0007324513280764222,
            0.001189474482089281,
            -0.00014280439063441008,
            -0.00046051849494688213,
            -3.844900129479356e-05,
            1.986846953627719e-08
          ],
          [
            5.914438007600326e-39,
            1.6575805391667185e-39,
            2.0121693064748632e-39,
            -2.443053169971637e-39,
            -3.0222504629325492e-40,
            0.0036890688352286816,
            -0.003922342788428068,
            -0.009396208450198174,
            -0.003782795974984765,
            -0.0006482334574684501,
            0.0007406194345094264,
            0.00021209796250332147,
            1.4416932572203223e-06
          ],
          [
            1.3959847405480974e-39,
            -1.6814376455218486e-39,
            8.115451900321459e-40,
            1.4687009204588408e-41,
            -1.0769819477414814e-40,
            -1.2643699847103562e-05,
            -0.0012029409408569336,
            -0.0037711123004555702,
            -0.004261883907020092,
            -0.002823228482156992,
            0.000990199507214129,
            -0.0002400461380602792,
            6.505233614007011e-07
          ],
          [
            -0.0001634200889384374,
            -8.923590212361887e-05,
            -8.620171138318256e-05,
            8.654354314785451e-05,
            0.00031307118479162455,
            0.0002531873469706625,
            -0.0032718477305024862,
            -0.002474689856171608,
            -0.0009695386979728937,
            -0.0007138092187233269,
            -0.00044299938599579036,
            -0.0001632334606256336,
            0.0002508771722204983
          ]
        ],
        [
          [
            -1.4504335013043601e-06,
            0.002780098933726549,
            0.013704430311918259,
            0.012556995265185833,
            0.017132606357336044,
            0.014388219453394413,
            0.0065602706745266914,
            -0.0001225035812240094,
            -0.011737211607396603,
            -0.006094643846154213,
            -0.0032317284494638443,
            -0.0003741155087482184,
            1.8811867619206168e-07
          ],
          [
            -2.2178453089656775e-38,
            -1.0539894425388398e-39,
            -8.970958625776403e-40,
            -1.6777802565299608e-39,
            2.8819258360135264e-39,
            -0.02321798913180828,
            0.01973247341811657,
            0.019766148179769516,
            0.017273064702749252,
            0.009801553562283516,
            -0.0071477098390460014,
            -0.0010206758743152022,
            -8.708285349712241e-06
          ],
          [
            -8.864581855454113e-39,
            3.5620306313904688e-40,
            3.2175710099018496e-38,
            8.861856329941002e-39,
            1.685706000644182e-40,
            0.00020498687808867544,
            0.07341121882200241,
            0.07213956117630005,
            0.04801741987466812,
            0.028445132076740265,
            -0.053680870682001114,
            0.010506805963814259,
            1.2756981050188188e-05
          ],
          [
            0.006044603418558836,
            0.0019866640213876963,
            -4.752650420414284e-05,
            -0.006552918814122677,
            -0.015533274970948696,
            -0.01452852413058281,
            0.014264605939388275,
            0.031473103910684586,
            0.040142498910427094,
            0.02380305528640747,
            0.0097939632833004,
            0.0006717659998685122,
            -0.0075252545066177845
          ]
        ],
        [
          [
            -5.934098680882016e-06,
            -0.010162608698010445,
            -0.05098788067698479,
            -0.03123171254992485,
            -0.05459040775895119,
            -0.0767030194401741,
            -0.0010436351876705885,
            0.0576617494225502,
            0.03548887372016907,
            -0.008220023475587368,
            -0.0020283586345613003,
            -0.00019543830421753228,
            1.2150708244007546e-06
          ],
          [
            8.193005362531052e-39,
            1.7439045883346738e-38,
            2.1689661968420243e-39,
            2.0728651481586284e-39,
            8.084188931582372e-40,
            0.00968984141945839,
            -0.040130630135536194,
            -0.014103719964623451,
            0.001962010283023119,
            -0.0025523602962493896,
            -0.00020099607354495674,
            -0.0005564230377785861,
            -2.180707724619424e-06
          ],
          [
            6.617124727729863e-39,
            -3.841673752931129e-39,
            -6.517467183544011e-39,
            6.874861350377734e-39,
            -1.4491923234982035e-38,
            7.478973202523775e-06,
            -0.028597516939044,
            -0.07288243621587753,
            0.05112511292099953,
            -0.022869864478707314,
            -0.03406181186437607,
            -0.0079502509906888,
            8.85785169657538e-08
          ],
          [
            -0.0004262220172677189,
            -0.0002047489833785221,
            -9.750899607752217e-07,
            0.0007354023982770741,
            0.0009450125508010387,
            0.00020658485300373286,
            -0.0044786655344069,
            -0.0019856395665556192,
            -0.00010247017053188756,
            0.0005198493017815053,
            0.00039434991776943207,
            6.397564720828086e-05,
            -8.890681783668697e-06
          ]
        ],
        [
          [
            -1.1902324958956711e-10,
            -1.2483845068800292e-07,
            2.841086654825631e-07,
            7.581936642964138e-07,
            9.702011084300466e-06,
            1.4537973584083375e-05,
            6.828103096268023e-07,
            -1.308495711782598e-06,
            -1.1150497130074655e-06,
            2.3680581762164366e-07,
            2.111776211677352e-07,
            7.397900958494574e-08,
            -1.0688785967438719e-10
          ],
          [
            -9.448535155402944e-41,
            3.38356125897406e-40,
            -9.259359862719094e-41,
            4.53810507671592e-41,
            2.030761734499525e-40,
            -1.6811356545076706e-05,
            0.00024307705461978912,
            0.0005426376592367887,
            0.00016942498041316867,
            2.0979759938200004e-06,
            -5.9220533330517355e-06,
            -1.4576833109458676e-06,
            1.2692018991344867e-08
          ],
          [
            4.0192182683610836e-40,
            6.62898251533498e-41,
            -1.0147642959254595e-40,
            2.976498068072344e-41,
            -1.7230646177030816e-40,
            3.471417642231245e-08,
            2.4361370378755964e-06,
            3.3140462619485334e-05,
            0.00016761745791882277,
            9.921938908519223e-05,
            -3.8378257158910856e-06,
            1.048444914886204e-06,
            3.19199466858322e-09
          ],
          [
            1.2117763503738388e-07,
            -4.664324038117229e-09,
            3.316178265322378e-08,
            1.7605590585390019e-07,
            4.791429031314465e-09,
            -3.189120150182134e-07,
            5.7602906053944025e-06,
            3.5896582062378e-07,
            5.10979873524775e-07,
            4.737341612326418e-07,
            3.633237497524533e-07,
            5.692532667467276e-08,
            -1.240758109588569e-07
          ]
        ],
        [
          [
            3.820359779638238e-06,
            -0.0012703423853963614,
            -0.006617189850658178,
            -0.0011653746478259563,
            -0.016139743849635124,
            -0.030873479321599007,
            -0.0030767701100558043,
            0.03029206208884716,
            0.025572309270501137,
            -0.007700223941355944,
            -0.021666832268238068,
            -0.005438646767288446,
            -1.5747420547995716e-05
          ],
          [
            6.896451155817586e-39,
            1.7289981357905721e-38,
            -4.3729970851568485e-39,
            -6.911764545435728e-40,
            -1.3699332007978347e-39,
            0.015643546357750893,
            -0.016870617866516113,
            -0.018563371151685715,
            0.010925385169684887,
            0.00027594593120738864,
            0.0053647542372345924,
            0.0010766484774649143,
            1.930496864588349e-06
          ],
          [
            7.609808763752956e-39,
            -2.0103163695154865e-38,
            7.979821623257924e-39,
            2.927032232281678e-39,
            -4.66705256140309e-40,
            -6.804015720263124e-05,
            -0.004246735479682684,
            0.0018983982736244798,
            -0.030244767665863037,
            0.005450158845633268,
            0.017070723697543144,
            -0.0018497428391128778,
            1.1593414228627807e-06
          ],
          [
            -7.747765630483627e-05,
            -3.4272488846909255e-05,
            -4.178388189757243e-05,
            -1.2237688679306302e-05,
            8.924274879973382e-05,
            0.0004750919179059565,
            -0.00033880994305945933,
            -0.0002838558575604111,
            -0.0003142743662465364,
            -0.0002735573798418045,
            -0.00017398862109985203,
            -5.2625844546128064e-05,
            6.393185321940109e-05
          ]
        ],
        [
          [
            2.794960172591149e-13,
            3.049370478347413e-10,
            -5.514617651414255e-10,
            -2.1612085454592034e-09,
            -3.257119018940102e-08,
            -5.046238271688708e-08,
            6.822984399690313e-10,
            7.624987752308243e-09,
            3.896815758963612e-09,
            -6.712324029933825e-10,
            -4.791010366211879e-10,
            -3.2478811307079525e-10,
            3.180069326359086e-13
          ],
          [
            -8.486824019336822e-41,
            -4.0091149064333016e-42,
            2.543356712749543e-42,
            1.7601710010384027e-41,
            1.8581217636947074e-42,
            1.0326644428459986e-07,
            -7.782437023706734e-07,
            -9.225533176504541e-06,
            -3.627308160503162e-07,
            -1.8437374293966968e-08,
            5.777872758017111e-08,
            3.8561043247398175e-09,
            -2.23796450121716e-11
          ],
          [
            5.1427653640720787e-42,
            2.4788969833906014e-42,
            -7.034518290910582e-43,
            5.521115949439779e-43,
            -5.05868745621259e-43,
            -4.30149405677982e-13,
            -4.3011708777962454e-11,
            -9.348551099908065e-11,
            -9.113187537934664e-09,
            -5.034381356239237e-09,
            5.061317684407207e-11,
            -2.6918165613176726e-11,
            1.7077858165508706e-15
          ],
          [
            -2.9626179287589594e-09,
            -6.067155666755752e-10,
            -6.848194233910476e-10,
            1.8988410843689962e-10,
            2.177831026628496e-09,
            -7.769685339553689e-09,
            -5.462914486997761e-06,
            -1.0721823429094002e-07,
            -9.44823952409024e-09,
            -8.956869912424281e-09,
            -7.414930003335485e-09,
            -2.0124566457724313e-09,
            2.9851177085760128e-09
          ]
        ],
        [
          [
            1.1630587550826021e-06,
            -0.0005610577063634992,
            -0.005363412667065859,
            -0.00923042930662632,
            -0.01162807922810316,
            -0.008877931162714958,
            -0.0025323189329355955,
            0.0023118839599192142,
            0.0045845285058021545,
            -0.0009108063532039523,
            -0.002159694442525506,
            -0.0002462920965626836,
            -5.931549651450041e-08
          ],
          [
            1.806388626988764e-39,
            -7.587320725997472e-39,
            1.9860687212783492e-39,
            -1.8120484714861718e-39,
            1.552172066083277e-39,
            0.004012142773717642,
            -0.004589923657476902,
            -0.010167766362428665,
            -0.0036228003446012735,
            -0.0006262625101953745,
            0.0005740452907048166,
            0.00011783192167058587,
            8.234740676016372e-07
          ],
          [
            7.745901469309718e-40,
            1.0877761498121755e-39,
            -1.1267854964620497e-39,
            8.086865411649233e-40,
            -4.830457975328007e-40,
            -8.28592965262942e-06,
            -0.0006130625843070447,
            -0.0015228507108986378,
            -0.0013022157363593578,
            -0.0021363154519349337,
            0.00014541068230755627,
            -0.00014851267042104155,
            2.8417059638741193e-07
          ],
          [
            -0.00014601665316149592,
            -8.75984042068012e-05,
            -8.509318286087364e-05,
            6.914583354955539e-05,
            0.00022345133766066283,
            0.00029859758797101676,
            -0.0026612188667058945,
            -0.001515499665401876,
            -0.0006386243039742112,
            -0.00045629317173734307,
            -0.0002797494234982878,
            -9.55572395469062e-05,
            0.00011668603110592812
          ]
        ],
        [
          [
            -7.160651307458465e-07,
            0.0002384400286246091,
            0.002303606830537319,
            0.003510658396407962,
            0.008926848880946636,
            0.010588390752673149,
            0.0010931442957371473,
            -0.005451459903270006,
            -0.006044707261025906,
            -8.463273843517527e-05,
            0.0013276683166623116,
            0.00015680080105084926,
            2.2284822875917598e-07
          ],
          [
            8.032562293559718e-39,
            -3.193489135273042e-40,
            5.511905214633772e-39,
            -2.45462789528696e-39,
            -6.760676545012226e-40,
            -0.0030244148802012205,
            0.008870474062860012,
            0.010051256977021694,
            0.003072905819863081,
            0.000585657253395766,
            -0.0009618297917768359,
            -0.0002499500405974686,
            1.1558577170944773e-06
          ],
          [
            1.2182412407362089e-39,
            8.45252023293015e-40,
            1.651172401289361e-39,
            -2.2969720089611677e-39,
            1.4898913558363607e-39,
            3.000533615704626e-05,
            0.002972269430756569,
            0.011376451700925827,
            0.010005882009863853,
            0.009175145998597145,
            -0.0024404374416917562,
            0.0005758830811828375,
            -2.3715861061646137e-06
          ],
          [
            0.00029501720564439893,
            0.00013719471462536603,
            0.00011567063484108075,
            -0.00017260547610931098,
            -0.000581308442633599,
            -0.0004919942002743483,
            0.006638567429035902,
            0.004757944028824568,
            0.001680527115240693,
            0.001262684352695942,
            0.0008515379740856588,
            0.0003315977519378066,
            -0.0006155653391033411
          ]
        ],
        [
          [
            2.5075244138861308e-06,
            -0.0020480237435549498,
            -0.015179232694208622,
            -0.019184784963726997,
            -0.021515391767024994,
            -0.016360944136977196,
            -0.004262018948793411,
            0.007962236180901527,
            0.014231065288186073,
            -0.0031273728236556053,
            -0.01412216667085886,
            -0.0027316156774759293,
            -5.221864739723969e-06
          ],
          [
            7.795172524613843e-39,
            -1.1793215771880514e-39,
            4.5211745886699476e-39,
            1.8775221804138988e-38,
            -6.768663946258877e-40,
            0.004302759654819965,
            -0.003480107756331563,
            -0.010133114643394947,
            -0.0015578503953292966,
            -0.0005980700952932239,
            0.0008237386355176568,
            0.0002117938274750486,
            1.7734018911141902e-06
          ],
          [
            4.246465439022175e-39,
            -5.657812614634665e-40,
            1.1980765558345748e-39,
            1.4958300587281692e-40,
            2.2520407750010568e-40,
            -2.1045305402367376e-05,
            -0.0022005108185112476,
            -0.004308543633669615,
            -0.005538451485335827,
            -0.00335745164193213,
            0.001963783521205187,
            -0.0004564643313642591,
            2.711299657676136e-06
          ],
          [
            -0.00010558857320575044,
            -6.042843597242609e-05,
            -4.909417839371599e-05,
            5.141002839081921e-05,
            0.00013506833056453615,
            0.00041130121098831296,
            -0.0009629435953684151,
            -0.0004343820037320256,
            -0.0003416009130887687,
            -0.0002476442023180425,
            -0.00014439721417147666,
            -3.92021938750986e-05,
            2.246600388389197e-06
          ]
        ],
        [
          [
            -1.2539979366010812e-07,
            2.0954114461346762e-06,
            0.00036780964001081884,
            0.000556308135855943,
            0.001410378608852625,
            0.0014359026681631804,
            8.656563295517117e-05,
            -0.0007161548128351569,
            -0.0009005445754155517,
            0.00013385209604166448,
            0.000339782825903967,
            1.506269836681895e-05,
            -4.3949029304712894e-08
          ],
          [
            2.964134411721606e-39,
            1.8611201220188232e-38,
            1.7887838341217583e-38,
            2.1894629894797034e-39,
            2.3085018927256323e-39,
            -0.00904780998826027,
            0.014338252134621143,
            0.018760554492473602,
            0.00927794724702835,
            0.0017427244456484914,
            -0.0024439706467092037,
            -0.00045473501086235046,
            4.405053459777264e-06
          ],
          [
            -8.54394374733963e-39,
            3.833450933542471e-39,
            4.715004994852285e-40,
            1.2228290919084084e-39,
            3.7918127509735236e-39,
            2.8370030122459866e-05,
            0.00392575329169631,
            0.01483121793717146,
            0.01266113854944706,
            0.007745503447949886,
            -0.0034248465672135353,
            0.0007429234101437032,
            -3.1198076158034382e-06
          ],
          [
            0.00016029327525757253,
            8.051966869970784e-05,
            6.904909969307482e-05,
            -8.624976180726662e-05,
            -0.00024917139671742916,
            7.254661613842472e-05,
            0.003511155257001519,
            0.002259788103401661,
            0.0007754815742373466,
            0.0005657827714458108,
            0.00035993492929264903,
            0.00013922473590355366,
            -0.00019056707969866693
          ]
        ],
        [
          [
            -1.1678623650368536e-06,
            0.0004977883654646575,
            0.00397083442658186,
            0.0059143961407244205,
            0.00895569659769535,
            0.007462768815457821,
            0.0016873367130756378,
            -0.0037396205589175224,
            -0.005903760902583599,
            0.0006316678482107818,
            0.002366593573242426,
            0.0003991364501416683,
            6.883332162033184e-07
          ],
          [
            4.332562617968756e-40,
            -8.402978727022411e-39,
            2.5007320160617107e-39,
            -1.8276701467664648e-39,
            6.229416271217401e-40,
            -0.004844621755182743,
            0.005275937262922525,
            0.010909801349043846,
            0.0013656707014888525,
            0.0004605534777510911,
            -0.0014032376930117607,
            -0.0003831909561995417,
            1.6273506844299845e-06
          ],
          [
            5.0864611917755075e-40,
            -1.4627187773146381e-39,
            -1.0452565505091675e-39,
            -1.6382482255528934e-39,
            2.075875137259998e-39,
            2.1981439203955233e-05,
            0.0023375090677291155,
            0.004150446970015764,
            0.0055885291658341885,
            0.0030045390594750643,
            -0.002870313124731183,
            0.00049536710139364,
            -3.237740884287632e-06
          ],
          [
            0.0002131765941157937,
            0.00010662131535355002,
            8.636526763439178e-05,
            -0.0001619649410713464,
            -0.0004312796227168292,
            -0.001037847250699997,
            0.002471304265782237,
            0.001595551148056984,
            0.0012133861891925335,
            0.0008949933107942343,
            0.0005591367953456938,
            0.0002011583128478378,
            -0.0002957865654025227
          ]
        ],
        [
          [
            2.3605132355442038e-06,
            -0.004805547185242176,
            -0.02734002098441124,
            -0.03433777764439583,
            -0.0435539148747921,
            -0.04195524752140045,
            -0.01135254930704832,
            0.016880374401807785,
            0.020633868873119354,
            0.001719124149531126,
            0.0017068394226953387,
            4.379720394354081e-06,
            -2.3961368356140156e-07
          ],
          [
            1.6942188888149552e-38,
            3.8230813249064676e-39,
            -9.123798249280311e-39,
            1.5429089227147044e-38,
            2.1971996984310872e-38,
            0.017513331025838852,
            -0.06349296122789383,
            -0.03404990956187248,
            -0.01021325308829546,
            -0.00015226112736854702,
            0.0037082871422171593,
            0.00010617134830681607,
            1.510569944684903e-07
          ],
          [
            -2.68869518557392e-39,
            2.346266886339186e-39,
            4.9596829171111127e-39,
            4.18603864664356e-39,
            -1.2555515129980893e-38,
            -3.317890877951868e-05,
            -0.01657850109040737,
            -0.050939563661813736,
            0.011791815981268883,
            -0.0253303162753582,
            -0.0041953930631279945,
            -0.003596448339521885,
            4.747606681121397e-07
          ],
          [
            -0.0007811341201886535,
            -0.000331076153088361,
            -4.8934485675999895e-05,
            0.0011936763767153025,
            0.0018054420361295342,
            0.0008002875838428736,
            -0.009797708131372929,
            -0.007018719799816608,
            -0.003274361602962017,
            -0.000947127235122025,
            9.11062816157937e-05,
            0.00013870210386812687,
            0.00041654540109448135
          ]
        ],
        [
          [
            -1.3486209482493905e-08,
            7.57634097681148e-07,
            9.566635708324611e-05,
            0.0003845961473416537,
            0.0007802426116541028,
            0.00036417858791537583,
            3.694415499921888e-05,
            0.00046787867904640734,
            5.591912122326903e-05,
            -1.79988237505313e-05,
            9.224990208167583e-06,
            -2.8255935831111856e-06,
            -1.3658647546321845e-08
          ],
          [
            1.3079509671238194e-39,
            -2.9847657290118604e-43,
            -1.0014379475297305e-40,
            3.948620851728399e-40,
            2.411620644118367e-40,
            -4.1803737985901535e-05,
            -9.997744200518355e-05,
            0.0002889958559535444,
            0.00019981605873908848,
            1.2144004358560778e-05,
            -8.833993888401892e-06,
            -9.343030455966073e-07,
            1.560896656371824e-08
          ],
          [
            -3.5986745862325627e-40,
            -3.0615582861553247e-39,
            1.6441154622230214e-40,
            4.0826830758103545e-41,
            -3.9027843789603345e-40,
            1.653053573136276e-06,
            9.242122177965939e-05,
            0.0005702981143258512,
            0.00039155103149823844,
            0.0011420284863561392,
            1.1976184396189637e-05,
            9.551085895509459e-06,
            8.026837861052627e-09
          ],
          [
            1.8091062884195708e-05,
            1.3868497262592427e-05,
            9.691283594293054e-06,
            -1.5219785382214468e-05,
            -2.0606794350896962e-05,
            0.000411540298955515,
            0.0017045364947989583,
            0.000726769445464015,
            7.052837463561445e-05,
            5.592947854893282e-05,
            4.3590400309767574e-05,
            1.5799692846485414e-05,
            -1.4544695659424178e-05
          ]
        ]
      ],
      "base_weight": [
        [
          0.0134904058650136,
          0.008743672631680965,
          -0.003560140961781144,
          0.026847394183278084
        ],
        [
          -0.2342829555273056,
          -0.03059752844274044,
          -0.011852196417748928,
          0.07591186463832855
        ],
        [
          -0.03182363882660866,
          0.005702090449631214,
          -0.1673932522535324,
          -0.011861667037010193
        ],
        [
          0.06898099184036255,
          -0.2417064607143402,
          -0.16469097137451172,
          -0.011865383014082909
        ],
        [
          -0.494602769613266,
          0.40306904911994934,
          -0.12726375460624695,
          0.09902320057153702
        ],
        [
          0.2776916027069092,
          0.15144366025924683,
          -0.30557721853256226,
          0.032653603702783585
        ],
        [
          0.03487320989370346,
          0.08539927005767822,
          -0.09791748970746994,
          -0.0073185390792787075
        ],
        [
          0.19197209179401398,
          0.07683643698692322,
          0.382913738489151,
          -0.09729550033807755
        ],
        [
          0.03945339843630791,
          0.017412619665265083,
          -0.03726484254002571,
          0.006035978905856609
        ],
        [
          -0.08982880413532257,
          -0.23726773262023926,
          -0.07093749195337296,
          -0.03282357007265091
        ],
        [
          -0.1570615917444229,
          0.07653824985027313,
          0.31595101952552795,
          -0.08232047408819199
        ],
        [
          -0.013788608834147453,
          -0.19277919828891754,
          -0.08116578310728073,
          -0.17627854645252228
        ],
        [
          -0.00864527840167284,
          -0.10167637467384338,
          0.453815221786499,
          -0.03329474478960037
        ],
        [
          -0.2599549889564514,
          0.2315082550048828,
          0.14265106618404388,
          0.04085623100399971
        ],
        [
          0.4263199269771576,
          -0.18300697207450867,
          -0.2500816285610199,
          -0.05016842111945152
        ],
        [
          0.022011248394846916,
          0.09134336560964584,
          0.28681236505508423,
          -0.00043545261723920703
        ]
      ],
      "spline_order": 3
    },
    {
      "grid": [
        [
          -1.600000023841858,
          -1.399999976158142,
          -1.2000000476837158,
          -1.0,
          -0.800000011920929,
          -0.6000000238418579,
          -0.3999999761581421,
          -0.19999998807907104,
          0.0,
          0.20000004768371582,
          0.3999999761581421,
          0.6000000238418579,
          0.8000000715255737,
          1.0,
          1.2000000476837158,
          1.4000000953674316,
          1.6000001430511475
        ],
        [
          -1.600000023841858,
          -1.399999976158142,
          -1.2000000476837158,
          -1.0,
          -0.800000011920929,
          -0.6000000238418579,
          -0.3999999761581421,
          -0.19999998807907104,
          0.0,
          0.20000004768371582,
          0.3999999761581421,
          0.6000000238418579,
          0.8000000715255737,
          1.0,
          1.2000000476837158,
          1.4000000953674316,
          1.6000001430511475
        ],
        [
          -1.600000023841858,
          -1.399999976158142,
          -1.2000000476837158,
          -1.0,
          -0.800000011920929,
          -0.6000000238418579,
          -0.3999999761581421,
          -0.19999998807907104,
          0.0,
          0.20000004768371582,
          0.3999999761581421,
          0.6000000238418579,
          0.8000000715255737,
          1.0,
          1.2000000476837158,
          1.4000000953674316,
          1.6000001430511475
        ],
        [
          -1.600000023841858,
          -1.399999976158142,
          -1.2000000476837158,
          -1.0,
          -0.800000011920929,
          -0.6000000238418579,
          -0.3999999761581421,
          -0.19999998807907104,
          0.0,
          0.20000004768371582,
          0.3999999761581421,
          0.6000000238418579,
          0.8000000715255737,
          1.0,
          1.2000000476837158,
          1.4000000953674316,
          1.6000001430511475
        ],
        [
          -1.600000023841858,
          -1.399999976158142,
          -1.2000000476837158,
          -1.0,
          -0.800000011920929,
          -0.6000000238418579,
          -0.3999999761581421,
          -0.19999998807907104,
          0.0,
          0.20000004768371582,
          0.3999999761581421,
          0.6000000238418579,
          0.8000000715255737,
          1.0,
          1.2000000476837158,
          1.4000000953674316,
          1.6000001430511475
        ],
        [
          -1.600000023841858,
          -1.399999976158142,
          -1.2000000476837158,
          -1.0,
          -0.800000011920929,
          -0.6000000238418579,
          -0.3999999761581421,
          -0.19999998807907104,
          0.0,
          0.20000004768371582,
          0.3999999761581421,
          0.6000000238418579,
          0.8000000715255737,
          1.0,
          1.2000000476837158,
          1.4000000953674316,
          1.6000001430511475
        ],
        [
          -1.600000023841858,
          -1.399999976158142,
          -1.2000000476837158,
          -1.0,
          -0.800000011920929,
          -0.6000000238418579,
          -0.3999999761581421,
          -0.19999998807907104,
          0.0,
          0.20000004768371582,
          0.3999999761581421,
          0.6000000238418579,
          0.8000000715255737,
          1.0,
          1.2000000476837158,
          1.4000000953674316,
          1.6000001430511475
        ],
        [
          -1.600000023841858,
          -1.399999976158142,
          -1.2000000476837158,
          -1.0,
          -0.800000011920929,
          -0.6000000238418579,
          -0.3999999761581421,
          -0.19999998807907104,
          0.0,
          0.20000004768371582,
          0.3999999761581421,
          0.6000000238418579,
          0.8000000715255737,
          1.0,
          1.2000000476837158,
          1.4000000953674316,
          1.6000001430511475
        ],
        [
          -1.600000023841858,
          -1.399999976158142,
          -1.2000000476837158,
          -1.0,
          -0.800000011920929,
          -0.6000000238418579,
          -0.3999999761581421,
          -0.19999998807907104,
          0.0,
          0.20000004768371582,
          0.3999999761581421,
          0.6000000238418579,
          0.8000000715255737,
          1.0,
          1.2000000476837158,
          1.4000000953674316,
          1.6000001430511475
        ],
        [
          -1.600000023841858,
          -1.399999976158142,
          -1.2000000476837158,
          -1.0,
          -0.800000011920929,
          -0.6000000238418579,
          -0.3999999761581421,
          -0.19999998807907104,
          0.0,
          0.20000004768371582,
          0.3999999761581421,
          0.6000000238418579,
          0.8000000715255737,
          1.0,
          1.2000000476837158,
          1.4000000953674316,
          1.6000001430511475
        ],
        [
          -1.600000023841858,
          -1.399999976158142,
          -1.2000000476837158,
          -1.0,
          -0.800000011920929,
          -0.6000000238418579,
          -0.3999999761581421,
          -0.19999998807907104,
          0.0,
          0.20000004768371582,
          0.3999999761581421,
          0.6000000238418579,
          0.8000000715255737,
          1.0,
          1.2000000476837158,
          1.4000000953674316,
          1.6000001430511475
        ],
        [
          -1.600000023841858,
          -1.399999976158142,
          -1.2000000476837158,
          -1.0,
          -0.800000011920929,
          -0.6000000238418579,
          -0.3999999761581421,
          -0.19999998807907104,
          0.0,
          0.20000004768371582,
          0.3999999761581421,
          0.6000000238418579,
          0.8000000715255737,
          1.0,
          1.2000000476837158,
          1.4000000953674316,
          1.6000001430511475
        ],
        [
          -1.600000023841858,
          -1.399999976158142,
          -1.2000000476837158,
          -1.0,
          -0.800000011920929,
          -0.6000000238418579,
          -0.3999999761581421,
          -0.19999998807907104,
          0.0,
          0.20000004768371582,
          0.3999999761581421,
          0.6000000238418579,
          0.8000000715255737,
          1.0,
          1.2000000476837158,
          1.4000000953674316,
          1.6000001430511475
        ],
        [
          -1.600000023841858,
          -1.399999976158142,
          -1.2000000476837158,
          -1.0,
          -0.800000011920929,
          -0.6000000238418579,
          -0.3999999761581421,
          -0.19999998807907104,
          0.0,
          0.20000004768371582,
          0.3999999761581421,
          0.6000000238418579,
          0.8000000715255737,
          1.0,
          1.2000000476837158,
          1.4000000953674316,
          1.6000001430511475
        ],
        [
          -1.600000023841858,
          -1.399999976158142,
          -1.2000000476837158,
          -1.0,
          -0.800000011920929,
          -0.6000000238418579,
          -0.3999999761581421,
          -0.19999998807907104,
          0.0,
          0.20000004768371582,
          0.3999999761581421,
          0.6000000238418579,
          0.8000000715255737,
          1.0,
          1.2000000476837158,
          1.4000000953674316,
          1.6000001430511475
        ],
        [
          -1.600000023841858,
          -1.399999976158142,
          -1.2000000476837158,
          -1.0,
          -0.800000011920929,
          -0.6000000238418579,
          -0.3999999761581421,
          -0.19999998807907104,
          0.0,
          0.20000004768371582,
          0.3999999761581421,
          0.6000000238418579,
          0.8000000715255737,
          1.0,
          1.2000000476837158,
          1.4000000953674316,
          1.6000001430511475
        ]
      ],
      "scaled_spline_weight": [
        [
          [
            -6.285136102054349e-39,
            7.16546122461095e-39,
            2.564025865098334e-40,
            -2.632133174359913e-39,
            1.0064810567200766e-06,
            0.019335420802235603,
            0.02059457078576088,
            0.011412830092012882,
            -1.9322986190672964e-05,
            3.4072221835441846e-39,
            -2.286183412084331e-39,
            2.8944058001368032e-39,
            2.5913105474972025e-39
          ],
          [
            1.702289387060541e-38,
            3.9948987335127264e-39,
            -8.697896001824212e-39,
            -3.1659592256429165e-39,
            0.003124404465779662,
            0.005726089235395193,
            0.023352982476353645,
            0.06567765027284622,
            0.00019982423691544682,
            6.486932890006373e-40,
            -4.1379937274957194e-39,
            0.0,
            0.0
          ],
          [
            -9.257061733237601e-40,
            8.821496131571518e-40,
            6.777508942165696e-39,
            4.549490626738559e-39,
            -0.0015921116573736072,
            0.011749793775379658,
            0.03859175369143486,
            0.04492807388305664,
            -5.055109658619674e-28,
            1.691716169757671e-38,
            -4.121597134164655e-39,
            0.0,
            0.0
          ],
          [
            3.856727902333371e-39,
            -2.3695816901886224e-40,
            -4.2995578352385135e-39,
            -1.8791846301269288e-08,
            0.010059447027742863,
            0.02590169385075569,
            0.016276827082037926,
            -0.0045997812412679195,
            7.697232434766832e-11,
            -1.5557453771673054e-39,
            8.867781019848167e-39,
            0.0,
            0.0
          ],
          [
            -7.552652601990076e-39,
            -7.148487296312583e-39,
            7.301073284794448e-40,
            0.0008316653547808528,
            0.04741999879479408,
            -0.01341533474624157,
            -0.004749719984829426,
            0.08630527555942535,
            0.10590653121471405,
            -0.00035109094460494816,
            -3.930509300010988e-35,
            -0.0,
            -0.0
          ],
          [
            2.1583709791532644e-38,
            -2.3251886949686586e-38,
            6.844883372330433e-39,
            0.007395270746201277,
            0.15277698636054993,
            0.03179454803466797,
            0.011885215528309345,
            0.08034165948629379,
            0.003691490739583969,
            7.782979826675753e-40,
            2.1493155082171045e-38,
            -0.0,
            -0.0
          ],
          [
            7.581328773764019e-39,
            -1.8447519750465844e-39,
            2.2581364233208697e-40,
            1.8934246759064426e-39,
            0.0001539067307021469,
            0.015842165797948837,
            0.01927395537495613,
            0.015007218345999718,
            -8.620292646810412e-06,
            -9.478621033431998e-40,
            -1.4282466949624012e-38,
            -0.0,
            -0.0
          ],
          [
            -2.0915182524067953e-38,
            8.820086425316407e-39,
            2.003618583245553e-40,
            -1.166658042965948e-39,
            2.0502757251961157e-05,
            0.05531148985028267,
            0.06553707271814346,
            0.0322832353413105,
            -0.07315511256456375,
            -0.001693582977168262,
            8.797197616200126e-39,
            0.0,
            0.0
          ],
          [
            -8.138955879463579e-39,
            5.885565654041378e-40,
            -3.0970798009274944e-40,
            -1.1542229203935296e-39,
            1.7431018932256848e-05,
            0.02353498712182045,
            0.020022951066493988,
            0.015547498129308224,
            -2.8595766252692556e-06,
            1.421065180462583e-39,
            2.7569888675312543e-39,
            1.8003308137274877e-39,
            0.0
          ],
          [
            2.288901931105121e-38,
            2.1148847641695652e-38,
            4.110589934727383e-39,
            -1.6175434325305105e-07,
            0.002343737753108144,
            0.03133280947804451,
            0.025382980704307556,
            0.007978270761668682,
            4.029843125863408e-10,
            -2.0928448616629716e-39,
            2.352249029483389e-38,
            0.0,
            0.0
          ],
          [
            8.369315334013936e-39,
            -4.724069994618002e-39,
            5.691756267336005e-39,
            1.4981786349543776e-39,
            -0.0002893581986427307,
            -0.009136618115007877,
            0.024632403627038002,
            0.02351124957203865,
            0.03385264798998833,
            0.002769152633845806,
            1.2270666184645266e-39,
            -0.0,
            -0.0
          ],
          [
            2.648346477851844e-38,
            5.435604513251286e-39,
            8.086295129868175e-25,
            -0.0005321457865647972,
            -0.007341329474002123,
            0.04418279603123665,
            0.024602113291621208,
            0.0041184695437550545,
            1.3456397027766798e-06,
            4.635229073278273e-39,
            -6.771914958696111e-40,
            -0.0,
            -0.0
          ],
          [
            -1.7877541600101724e-39,
            2.5108788182418867e-39,
            3.9264565139181737e-39,
            -3.615427109373566e-39,
            1.3038672364018566e-07,
            0.007890423759818077,
            0.03062514215707779,
            0.021334178745746613,
            0.01745975948870182,
            0.0009746979922056198,
            -3.0593274190001196e-39,
            0.0,
            0.0
          ],
          [
            1.9067640563778898e-38,
            -1.69024676818798e-38,
            3.984677662513941e-39,
            -3.866574826642181e-39,
            0.00020085650612600148,
            0.004171106498688459,
            0.012564953416585922,
            0.033344514667987823,
            0.013026447035372257,
            4.70374361682957e-09,
            -1.833528975645807e-39,
            0.0,
            0.0
          ],
          [
            3.170534465128937e-39,
            -2.1683790527854722e-39,
            -7.193662356205487e-39,
            0.013852855190634727,
            0.10287389159202576,
            0.02009028196334839,
            0.003973988816142082,
            0.04364592209458351,
            0.0014733150601387024,
            -5.2453754441222634e-39,
            2.6679153306464473e-38,
            -0.0,
            -0.0
          ],
          [
            1.7780208810068187e-38,
            6.399186382767282e-39,
            -1.2963941784288398e-38,
            1.892512430606167e-39,
            -6.8183539898038354e-40,
            0.012860864400863647,
            0.03071352280676365,
            0.03174874559044838,
            -0.00803125835955143,
            -3.594181907828897e-05,
            -1.8824202790660998e-40,
            8.894293586793192e-40,
            -0.0
          ]
        ]
      ],
      "base_weight": [
        [
          -0.09291689097881317,
          0.19123919308185577,
          0.08433323353528976,
          -0.25127798318862915,
          0.4085427522659302,
          -0.16486763954162598,
          0.0842353105545044,
          -0.13600240647792816,
          -0.039190709590911865,
          -0.2719336450099945,
          0.17487604916095734,
          -0.2975274622440338,
          0.2643485367298126,
          0.30961906909942627,
          -0.1345295011997223,
          0.13743658363819122
        ]
      ],
      "spline_order": 3
    }
  ],
  "norm": {
    "V_min": 2.524099898338318,
    "V_max": 4.8149000883102415,
    "I_abs_max": 5.526000022888184,
    "T_min": 14.349410438537598,
    "T_max": 49.52249011993408,
    "headroom": 0.2
  },
  "ocv_coefs": [
    -11.12109280105917,
    11.93025672150974,
    3.0139234669540182,
    -6.310094275620638,
    2.2867393954090223,
    3.522451328139438
  ],
  "hp": {
    "inputs": [
      "I",
      "SoC",
      "T",
      "dI"
    ],
    "output": "V",
    "hidden": 16,
    "grid_size": 10,
    "spline_order": 3,
    "lr": 0.0003,
    "weight_decay": 0.0001,
    "batch_size": 256,
    "n_epochs": 500,
    "lr_patience": 30,
    "lr_factor": 0.5,
    "lr_min": 1e-06,
    "es_patience": 80,
    "headroom": 0.2,
    "val_split": 0.1
  }
}