{
  "layers": [
    {
      "grid": [
        [
          -1.600000023841858,
          -1.399999976158142,
          -1.2000000476837158,
          -1.0,
          -0.800000011920929,
          -0.6000000238418579,
          -0.3999999761581421,
          -0.19999998807907104,
          0.0,
          0.20000004768371582,
          0.3999999761581421,
          0.6000000238418579,
          0.8000000715255737,
          1.0,
          1.2000000476837158,
          1.4000000953674316,
          1.6000001430511475
        ],
        [
          -1.600000023841858,
          -1.399999976158142,
          -1.2000000476837158,
          -1.0,
          -0.800000011920929,
          -0.6000000238418579,
          -0.3999999761581421,
          -0.19999998807907104,
          0.0,
          0.20000004768371582,
          0.3999999761581421,
          0.6000000238418579,
          0.8000000715255737,
          1.0,
          1.2000000476837158,
          1.4000000953674316,
          1.6000001430511475
        ],
        [
          -1.600000023841858,
          -1.399999976158142,
          -1.2000000476837158,
          -1.0,
          -0.800000011920929,
          -0.6000000238418579,
          -0.3999999761581421,
          -0.19999998807907104,
          0.0,
          0.20000004768371582,
          0.3999999761581421,
          0.6000000238418579,
          0.8000000715255737,
          1.0,
          1.2000000476837158,
          1.4000000953674316,
          1.6000001430511475
        ]
      ],
      "scaled_spline_weight": [
        [
          [
            0.04194815084338188,
            0.10620247572660446,
            -0.33760660886764526,
            0.10737412422895432,
            0.1426059901714325,
            -0.03584067150950432,
            -0.07839086651802063,
            -0.028091736137866974,
            0.11454588919878006,
            -0.06610772013664246,
            0.1932927519083023,
            0.13453085720539093,
            0.02383032999932766
          ],
          [
            0.0010228095343336463,
            0.003360636532306671,
            -0.0027431549970060587,
            -0.003587000537663698,
            0.0023999011609703302,
            -0.6083762645721436,
            -0.07494346797466278,
            0.2479071170091629,
            -0.26569539308547974,
            0.2834475338459015,
            0.13370926678180695,
            0.12145412713289261,
            1.1367666721343994
          ],
          [
            -0.0006178768235258758,
            -0.0023070438764989376,
            0.0008476804941892624,
            0.004085059743374586,
            0.0026486210990697145,
            -0.002836730098351836,
            -0.06872619688510895,
            0.09574275463819504,
            0.265127569437027,
            0.001045062206685543,
            -0.29159316420555115,
            0.18229088187217712,
            -1.324345350265503
          ]
        ],
        [
          [
            -0.006125351879745722,
            -0.19914096593856812,
            -0.3105478286743164,
            -0.16284207999706268,
            0.15552052855491638,
            -0.025332054123282433,
            0.10278446227312088,
            0.1103866770863533,
            0.059508711099624634,
            0.008529210463166237,
            -0.37502074241638184,
            0.10143981128931046,
            0.04547680914402008
          ],
          [
            0.00028893069247715175,
            0.0012580560287460685,
            0.0005341567448340356,
            -0.0009118104935623705,
            -0.0014919581590220332,
            -0.024785982444882393,
            0.09130573272705078,
            -0.025789301842451096,
            -0.0671767070889473,
            0.002231018152087927,
            -0.04993601515889168,
            0.0057882824912667274,
            0.06943304091691971
          ],
          [
            0.0002600295119918883,
            -0.0012250094441697001,
            -0.007881413213908672,
            -0.00010150430171051994,
            -0.005999421235173941,
            -0.0006416414980776608,
            1.6197880506515503,
            -0.2802543044090271,
            0.5470332503318787,
            -0.26513156294822693,
            0.004683487117290497,
            -0.18181629478931427,
            -0.07799092680215836
          ]
        ],
        [
          [
            -0.02897997573018074,
            -0.1927625685930252,
            0.3568921983242035,
            -0.2811864912509918,
            -0.08489518612623215,
            -0.1526252180337906,
            -0.17870645225048065,
            0.2249898910522461,
            0.06130240112543106,
            -0.18853287398815155,
            -0.016789989545941353,
            -0.019771097227931023,
            -0.02790910378098488
          ],
          [
            -0.000880012521520257,
            -0.0030245466623455286,
            0.0010818486334756017,
            0.0006937666330486536,
            0.0006258136709220707,
            0.36398258805274963,
            0.05591809004545212,
            -0.1090017631649971,
            -0.08095327019691467,
            0.07506296783685684,
            -0.04412281885743141,
            -0.24883432686328888,
            -0.3255332410335541
          ],
          [
            0.0009973410051316023,
            0.0035763399209827185,
            0.0009406515746377409,
            0.004710758570581675,
            -0.001588395214639604,
            0.003679049201309681,
            -0.293926864862442,
            -0.039168283343315125,
            -0.24117854237556458,
            -0.047509968280792236,
            0.27742964029312134,
            0.32823508977890015,
            0.2962794899940491
          ]
        ],
        [
          [
            0.015509613789618015,
            0.02145610935986042,
            0.02946300245821476,
            0.016157230362296104,
            0.02155865542590618,
            -0.031272511929273605,
            0.05536363646388054,
            0.018319647759199142,
            -0.013374333269894123,
            0.01698116771876812,
            -0.0013413580600172281,
            -0.02288123220205307,
            0.006193580571562052
          ],
          [
            -0.00033675236045382917,
            -0.0007992900791577995,
            0.0011668279767036438,
            -0.001948946388438344,
            0.0008289748220704496,
            0.0198352113366127,
            0.0095323845744133,
            0.00023065708228386939,
            0.05433424562215805,
            0.028492847457528114,
            0.022652318701148033,
            0.09483587741851807,
            0.5223103165626526
          ],
          [
            0.0005353276501409709,
            0.0018669189885258675,
            -0.0006140404148027301,
            -8.928851457312703e-05,
            0.0004686539468821138,
            -0.0017349091358482838,
            0.3211330473423004,
            0.04382742568850517,
            0.013011611066758633,
            0.07986350357532501,
            -0.07328207045793533,
            -0.0484684519469738,
            -0.4920884966850281
          ]
        ],
        [
          [
            -0.001555257593281567,
            -0.022033341228961945,
            0.026174725964665413,
            -0.06468284875154495,
            -0.11842717230319977,
            0.19173987209796906,
            0.0395706370472908,
            -0.046019863337278366,
            0.1602666974067688,
            0.051257357001304626,
            -0.01469162106513977,
            -0.06185601279139519,
            0.011637493036687374
          ],
          [
            0.0003632002626545727,
            0.0015836319653317332,
            0.0005909513565711677,
            -0.0015115056885406375,
            -0.0012364252470433712,
            -0.25455036759376526,
            0.004875951446592808,
            0.047743167728185654,
            0.019492661580443382,
            0.05775567144155502,
            0.10320505499839783,
            0.06791263818740845,
            0.9460192322731018
          ],
          [
            -0.00024438186665065587,
            0.00022410291421692818,
            0.003963104914873838,
            -0.0018397616222500801,
            -0.0016745264874771237,
            0.005058194976300001,
            0.2716674208641052,
            0.32005172967910767,
            0.14068792760372162,
            -0.11647965759038925,
            0.028706837445497513,
            -0.3565930724143982,
            -1.119902491569519
          ]
        ],
        [
          [
            -0.017036648467183113,
            -0.07859932631254196,
            -0.17400027811527252,
            0.06220615282654762,
            -0.1279582679271698,
            0.01004250068217516,
            -0.06362713128328323,
            -0.13575011491775513,
            0.07069867104291916,
            0.19931119680404663,
            0.03345206007361412,
            0.13175755739212036,
            0.03941250219941139
          ],
          [
            0.0018919897265732288,
            0.004740599542856216,
            -0.007173505146056414,
            0.0063395146280527115,
            0.0024672902654856443,
            0.3290615975856781,
            0.35348737239837646,
            -0.31234046816825867,
            -0.07003295421600342,
            -0.10508306324481964,
            0.2351503074169159,
            0.7571539282798767,
            -0.6789249181747437
          ],
          [
            0.0004953344468958676,
            0.0032236813567578793,
            0.004156547598540783,
            -0.00423033069819212,
            -0.00289613613858819,
            -0.0011078068055212498,
            -0.39462849497795105,
            0.37263187766075134,
            -0.033286381512880325,
            -0.18318818509578705,
            0.24273863434791565,
            -0.4306373596191406,
            -0.5949220657348633
          ]
        ],
        [
          [
            -0.020557651296257973,
            -0.18520770967006683,
            -0.049233172088861465,
            -0.08654563874006271,
            0.07041492313146591,
            -0.14776639640331268,
            -0.054269541054964066,
            -0.025151008740067482,
            0.051221396774053574,
            0.05700872465968132,
            -0.12665656208992004,
            -0.18365146219730377,
            -0.06651454418897629
          ],
          [
            0.0028983433730900288,
            0.008730134926736355,
            -0.009697549045085907,
            -0.004014031495898962,
            0.0087124053388834,
            2.4110052585601807,
            -0.29702699184417725,
            -0.11218723654747009,
            -0.07036683708429337,
            -0.5207128524780273,
            0.06898049265146255,
            -0.41226890683174133,
            -3.7204670906066895
          ],
          [
            -0.000141872966196388,
            0.00011021443788195029,
            0.0018258828204125166,
            -0.0019100895151495934,
            0.0003437332052271813,
            -0.002094556810334325,
            -0.389769047498703,
            -0.11359629780054092,
            -0.04318103566765785,
            -0.011051386594772339,
            0.07394548505544662,
            0.04592482000589371,
            0.9179787039756775
          ]
        ],
        [
          [
            -0.12803538143634796,
            -0.22622597217559814,
            -0.13109438121318817,
            -0.09837587922811508,
            0.0704050064086914,
            -0.05002105236053467,
            0.002445652848109603,
            -0.20828209817409515,
            0.08345435559749603,
            -0.1439405232667923,
            -0.01629587449133396,
            -0.1924600601196289,
            -0.10000550746917725
          ],
          [
            0.0003894716501235962,
            0.0010226421291008592,
            -0.0012268610298633575,
            0.0013057810720056295,
            -0.00020201086590532213,
            -0.013424349017441273,
            0.004574012476950884,
            -0.02261326089501381,
            0.04935113713145256,
            -0.010991423390805721,
            -0.00804867222905159,
            -0.033972252160310745,
            -0.21352450549602509
          ],
          [
            0.000585341127589345,
            0.0027403368148952723,
            0.001336746383458376,
            -0.0022922996431589127,
            0.00159248907584697,
            -0.0009212449658662081,
            -0.2620033919811249,
            -0.3158346116542816,
            0.020628642290830612,
            -0.02176539972424507,
            -0.05901899188756943,
            0.003853230969980359,
            -0.008544993586838245
          ]
        ],
        [
          [
            0.06125321984291077,
            0.35808873176574707,
            0.05965413525700569,
            0.21997463703155518,
            0.24669867753982544,
            0.02370385080575943,
            -0.08011187613010406,
            0.009791739284992218,
            -0.12292632460594177,
            0.20449770987033844,
            0.2632233500480652,
            0.464039146900177,
            0.10084327310323715
          ],
          [
            0.00038567694718949497,
            0.002633513882756233,
            0.0032954434864223003,
            -0.00289830076508224,
            0.004583407659083605,
            -0.7510619759559631,
            0.18531711399555206,
            -0.03424083814024925,
            0.08375159651041031,
            0.06113599240779877,
            -0.01909269578754902,
            0.47925692796707153,
            1.0000648498535156
          ],
          [
            -0.0003124469658359885,
            -0.0018068368081003428,
            -0.0018289962317794561,
            0.0009020649013109505,
            -0.0033321166411042213,
            0.003611814696341753,
            0.3709520399570465,
            -0.2353980541229248,
            0.057719454169273376,
            0.028337007388472557,
            0.0005957572720944881,
            -0.18832452595233917,
            -0.3157530426979065
          ]
        ],
        [
          [
            -3.1530427804682404e-05,
            0.00016858875460457057,
            -0.00011154454841744155,
            7.679914415348321e-05,
            -3.769084287341684e-05,
            1.0531107363931369e-05,
            1.6876932932063937e-05,
            5.369849986891495e-06,
            -1.4099640793574508e-05,
            -7.4546446739987005e-06,
            5.963088187854737e-05,
            -0.00040194467874243855,
            -9.30418391362764e-05
          ],
          [
            0.0006384244188666344,
            0.0021684395615011454,
            -0.0002638417936395854,
            0.0018221521750092506,
            -0.0007339137373492122,
            0.09477775543928146,
            -0.05785254016518593,
            -0.07554122060537338,
            -0.011490651406347752,
            0.09720099717378616,
            -0.1424044519662857,
            -0.16778118908405304,
            -0.9757258892059326
          ],
          [
            -7.898185140220448e-05,
            -0.0008337695617228746,
            -0.0011544653680175543,
            0.002842346206307411,
            -0.0021246864926069975,
            -0.002271147444844246,
            -0.1976030170917511,
            -0.07548195868730545,
            -0.05269945040345192,
            -0.032836105674505234,
            0.03182832896709442,
            0.04784369096159935,
            0.2735177278518677
          ]
        ],
        [
          [
            -0.0036245007067918777,
            0.03340069204568863,
            -0.07216449826955795,
            0.013445090502500534,
            -0.038954492658376694,
            -0.03978034853935242,
            -0.013714144006371498,
            0.02665456384420395,
            0.0276027824729681,
            -0.03811955079436302,
            -0.13032838702201843,
            -0.17088252305984497,
            -0.012237857095897198
          ],
          [
            -0.0004756384587381035,
            -0.0006477608694694936,
            0.002783694304525852,
            -0.004098742734640837,
            0.0037231396418064833,
            0.3357957601547241,
            -0.12533637881278992,
            -0.07944867014884949,
            0.013286469504237175,
            0.06830346584320068,
            0.06687214225530624,
            -0.4800642728805542,
            -1.0119600296020508
          ],
          [
            4.87960824102629e-06,
            0.00032279378501698375,
            0.0009146174415946007,
            -0.00017774535808712244,
            0.002074488438665867,
            -0.0016175942728295922,
            -0.246368870139122,
            -0.06250367313623428,
            -0.042669348418712616,
            -0.02841838449239731,
            0.059936605393886566,
            0.23256030678749084,
            0.05614510551095009
          ]
        ],
        [
          [
            0.061608195304870605,
            0.5239826440811157,
            0.12943464517593384,
            0.09972148388624191,
            -0.029368536546826363,
            0.2220846563577652,
            -0.11620363593101501,
            -0.03369155526161194,
            -0.3133794665336609,
            0.3675648868083954,
            0.00986099150031805,
            0.47712811827659607,
            0.08110286295413971
          ],
          [
            0.0008776798495091498,
            0.0031107235699892044,
            -0.0013793680118396878,
            -0.006081747356802225,
            -0.0075445882976055145,
            -2.348787307739258,
            0.11017326265573502,
            0.49970683455467224,
            -0.3531731963157654,
            0.3404068350791931,
            -0.10210437327623367,
            0.4983786344528198,
            -0.8099730610847473
          ],
          [
            0.00020379280613269657,
            0.00017995187954511493,
            -0.0018596332520246506,
            0.0015030771028250456,
            0.0008146100444719195,
            -0.001691480283625424,
            -0.148319274187088,
            -0.019209150224924088,
            -0.032513756304979324,
            0.06804952770471573,
            -0.059637997299432755,
            0.08033134788274765,
            -0.03685683384537697
          ]
        ],
        [
          [
            -0.030348937958478928,
            -0.15668798983097076,
            -0.044648438692092896,
            -0.10683690756559372,
            -0.15895788371562958,
            0.10718664526939392,
            -0.08656688034534454,
            0.0689336284995079,
            -0.0889936089515686,
            -0.026938486844301224,
            -0.07697678357362747,
            -0.14413267374038696,
            -0.035022612661123276
          ],
          [
            -0.00032874473254196346,
            -0.002329655224457383,
            -0.002389386063441634,
            0.006153687369078398,
            -0.0023501021787524223,
            0.7846046090126038,
            -0.13109377026557922,
            0.037665579468011856,
            -0.411285400390625,
            0.1470911055803299,
            0.12124765664339066,
            0.3074665069580078,
            -1.5891133546829224
          ],
          [
            0.0009176952298730612,
            0.002320766681805253,
            -0.003401725320145488,
            0.002871694276109338,
            0.001274114940315485,
            0.0007228705217130482,
            0.4939490258693695,
            -0.05927826464176178,
            -0.09264926612377167,
            -0.13397660851478577,
            0.2913929224014282,
            -0.651236355304718,
            0.38624322414398193
          ]
        ],
        [
          [
            0.061884984374046326,
            0.2944469451904297,
            0.18957437574863434,
            0.2540731728076935,
            0.2093697190284729,
            0.30881115794181824,
            -0.011361582204699516,
            -0.014851243235170841,
            -0.0820477157831192,
            -0.0980534628033638,
            0.16918979585170746,
            0.1831704080104828,
            0.05577918887138367
          ],
          [
            -0.0001795696880435571,
            -0.0007304498576559126,
            0.0005272637354210019,
            0.0020189762581139803,
            -0.0026418990455567837,
            -0.11766444891691208,
            0.026982836425304413,
            -0.0006579052424058318,
            0.0722130760550499,
            0.08575146645307541,
            0.09455225616693497,
            0.187601700425148,
            0.7716041803359985
          ],
          [
            -0.00023464375408366323,
            -0.0005515788798220456,
            0.0003270496672485024,
            -0.0023000321816653013,
            0.0029542865231633186,
            -0.0025491465348750353,
            0.022363929077982903,
            0.01145139243453741,
            0.13738276064395905,
            0.003959442023187876,
            -0.052523646503686905,
            0.18469831347465515,
            -0.031382061541080475
          ]
        ],
        [
          [
            -0.08901680260896683,
            -0.3162682354450226,
            0.15309114754199982,
            -0.3140999376773834,
            0.1837175041437149,
            -0.21153320372104645,
            0.01624426618218422,
            -0.04936760663986206,
            0.04245328530669212,
            -0.08116031438112259,
            -0.22531019151210785,
            -0.07252150774002075,
            -0.07931496948003769
          ],
          [
            0.00017755395674612373,
            -0.0008373961318284273,
            -0.003911398816853762,
            0.004442720208317041,
            -0.005938436836004257,
            -0.4722641110420227,
            -0.12948331236839294,
            0.09597226232290268,
            0.004945599474012852,
            -0.2815333604812622,
            -0.006464029662311077,
            -0.2368597388267517,
            -0.7787103652954102
          ],
          [
            0.000137810391606763,
            0.0013375618727877736,
            0.002788859885185957,
            -0.0012993133859708905,
            -5.004609556635842e-05,
            0.002799807582050562,
            0.25100788474082947,
            -0.13562747836112976,
            0.21700119972229004,
            -0.10537068545818329,
            -0.2142733931541443,
            0.09160862863063812,
            0.8499860167503357
          ]
        ],
        [
          [
            -0.013916153460741043,
            -0.08641776442527771,
            -0.011780687607824802,
            0.07553528994321823,
            0.2749331593513489,
            -0.225064218044281,
            0.08026866614818573,
            -0.01640455238521099,
            0.10748552531003952,
            0.05685637891292572,
            0.014401412568986416,
            -0.13194668292999268,
            -0.05077497288584709
          ],
          [
            0.0012157211313024163,
            0.0039952658116817474,
            -0.0029745842330157757,
            -0.0034646308049559593,
            0.00022891088156029582,
            0.29593878984451294,
            -0.11287718266248703,
            0.15256084501743317,
            -0.1827937364578247,
            0.246234729886055,
            -0.2956301271915436,
            -0.03476785123348236,
            1.1808620691299438
          ],
          [
            0.0016887092497199774,
            0.004190466366708279,
            -0.006802021991461515,
            0.0027126928325742483,
            -0.004979761317372322,
            -0.000722832977771759,
            0.3963569104671478,
            0.9152109622955322,
            0.1625140756368637,
            -0.12439849972724915,
            -0.17793118953704834,
            0.08253316581249237,
            0.6566199064254761
          ]
        ]
      ],
      "base_weight": [
        [
          -0.31393662095069885,
          -0.41954803466796875,
          -0.3461643159389496
        ],
        [
          -0.6235475540161133,
          -0.02688607946038246,
          -0.4221211075782776
        ],
        [
          0.3256176710128784,
          -0.09364324808120728,
          -0.12010006606578827
        ],
        [
          -0.5739944577217102,
          0.7592246532440186,
          0.41965025663375854
        ],
        [
          0.24307481944561005,
          0.6055430769920349,
          0.10730383545160294
        ],
        [
          -0.04999107867479324,
          -0.38036683201789856,
          -0.38491159677505493
        ],
        [
          0.7057298421859741,
          -0.030884874984622,
          0.03286438435316086
        ],
        [
          0.3379136919975281,
          0.5331857204437256,
          -0.21589724719524384
        ],
        [
          -0.8764540553092957,
          0.12541894614696503,
          0.22549322247505188
        ],
        [
          0.6539595723152161,
          0.10824516415596008,
          -0.2215033322572708
        ],
        [
          0.6014916896820068,
          -0.1968483328819275,
          -0.6527498364448547
        ],
        [
          0.31973105669021606,
          0.8647980690002441,
          0.3177405595779419
        ],
        [
          0.3068493902683258,
          -0.7552709579467773,
          0.40745657682418823
        ],
        [
          -0.9506152272224426,
          0.2815374433994293,
          -0.015444505028426647
        ],
        [
          0.31862011551856995,
          0.03812006860971451,
          -0.7057591676712036
        ],
        [
          0.584560215473175,
          -0.09026390314102173,
          -0.5450112819671631
        ]
      ],
      "spline_order": 3
    },
    {
      "grid": [
        [
          -1.600000023841858,
          -1.399999976158142,
          -1.2000000476837158,
          -1.0,
          -0.800000011920929,
          -0.6000000238418579,
          -0.3999999761581421,
          -0.19999998807907104,
          0.0,
          0.20000004768371582,
          0.3999999761581421,
          0.6000000238418579,
          0.8000000715255737,
          1.0,
          1.2000000476837158,
          1.4000000953674316,
          1.6000001430511475
        ],
        [
          -1.600000023841858,
          -1.399999976158142,
          -1.2000000476837158,
          -1.0,
          -0.800000011920929,
          -0.6000000238418579,
          -0.3999999761581421,
          -0.19999998807907104,
          0.0,
          0.20000004768371582,
          0.3999999761581421,
          0.6000000238418579,
          0.8000000715255737,
          1.0,
          1.2000000476837158,
          1.4000000953674316,
          1.6000001430511475
        ],
        [
          -1.600000023841858,
          -1.399999976158142,
          -1.2000000476837158,
          -1.0,
          -0.800000011920929,
          -0.6000000238418579,
          -0.3999999761581421,
          -0.19999998807907104,
          0.0,
          0.20000004768371582,
          0.3999999761581421,
          0.6000000238418579,
          0.8000000715255737,
          1.0,
          1.2000000476837158,
          1.4000000953674316,
          1.6000001430511475
        ],
        [
          -1.600000023841858,
          -1.399999976158142,
          -1.2000000476837158,
          -1.0,
          -0.800000011920929,
          -0.6000000238418579,
          -0.3999999761581421,
          -0.19999998807907104,
          0.0,
          0.20000004768371582,
          0.3999999761581421,
          0.6000000238418579,
          0.8000000715255737,
          1.0,
          1.2000000476837158,
          1.4000000953674316,
          1.6000001430511475
        ],
        [
          -1.600000023841858,
          -1.399999976158142,
          -1.2000000476837158,
          -1.0,
          -0.800000011920929,
          -0.6000000238418579,
          -0.3999999761581421,
          -0.19999998807907104,
          0.0,
          0.20000004768371582,
          0.3999999761581421,
          0.6000000238418579,
          0.8000000715255737,
          1.0,
          1.2000000476837158,
          1.4000000953674316,
          1.6000001430511475
        ],
        [
          -1.600000023841858,
          -1.399999976158142,
          -1.2000000476837158,
          -1.0,
          -0.800000011920929,
          -0.6000000238418579,
          -0.3999999761581421,
          -0.19999998807907104,
          0.0,
          0.20000004768371582,
          0.3999999761581421,
          0.6000000238418579,
          0.8000000715255737,
          1.0,
          1.2000000476837158,
          1.4000000953674316,
          1.6000001430511475
        ],
        [
          -1.600000023841858,
          -1.399999976158142,
          -1.2000000476837158,
          -1.0,
          -0.800000011920929,
          -0.6000000238418579,
          -0.3999999761581421,
          -0.19999998807907104,
          0.0,
          0.20000004768371582,
          0.3999999761581421,
          0.6000000238418579,
          0.8000000715255737,
          1.0,
          1.2000000476837158,
          1.4000000953674316,
          1.6000001430511475
        ],
        [
          -1.600000023841858,
          -1.399999976158142,
          -1.2000000476837158,
          -1.0,
          -0.800000011920929,
          -0.6000000238418579,
          -0.3999999761581421,
          -0.19999998807907104,
          0.0,
          0.20000004768371582,
          0.3999999761581421,
          0.6000000238418579,
          0.8000000715255737,
          1.0,
          1.2000000476837158,
          1.4000000953674316,
          1.6000001430511475
        ],
        [
          -1.600000023841858,
          -1.399999976158142,
          -1.2000000476837158,
          -1.0,
          -0.800000011920929,
          -0.6000000238418579,
          -0.3999999761581421,
          -0.19999998807907104,
          0.0,
          0.20000004768371582,
          0.3999999761581421,
          0.6000000238418579,
          0.8000000715255737,
          1.0,
          1.2000000476837158,
          1.4000000953674316,
          1.6000001430511475
        ],
        [
          -1.600000023841858,
          -1.399999976158142,
          -1.2000000476837158,
          -1.0,
          -0.800000011920929,
          -0.6000000238418579,
          -0.3999999761581421,
          -0.19999998807907104,
          0.0,
          0.20000004768371582,
          0.3999999761581421,
          0.6000000238418579,
          0.8000000715255737,
          1.0,
          1.2000000476837158,
          1.4000000953674316,
          1.6000001430511475
        ],
        [
          -1.600000023841858,
          -1.399999976158142,
          -1.2000000476837158,
          -1.0,
          -0.800000011920929,
          -0.6000000238418579,
          -0.3999999761581421,
          -0.19999998807907104,
          0.0,
          0.20000004768371582,
          0.3999999761581421,
          0.6000000238418579,
          0.8000000715255737,
          1.0,
          1.2000000476837158,
          1.4000000953674316,
          1.6000001430511475
        ],
        [
          -1.600000023841858,
          -1.399999976158142,
          -1.2000000476837158,
          -1.0,
          -0.800000011920929,
          -0.6000000238418579,
          -0.3999999761581421,
          -0.19999998807907104,
          0.0,
          0.20000004768371582,
          0.3999999761581421,
          0.6000000238418579,
          0.8000000715255737,
          1.0,
          1.2000000476837158,
          1.4000000953674316,
          1.6000001430511475
        ],
        [
          -1.600000023841858,
          -1.399999976158142,
          -1.2000000476837158,
          -1.0,
          -0.800000011920929,
          -0.6000000238418579,
          -0.3999999761581421,
          -0.19999998807907104,
          0.0,
          0.20000004768371582,
          0.3999999761581421,
          0.6000000238418579,
          0.8000000715255737,
          1.0,
          1.2000000476837158,
          1.4000000953674316,
          1.6000001430511475
        ],
        [
          -1.600000023841858,
          -1.399999976158142,
          -1.2000000476837158,
          -1.0,
          -0.800000011920929,
          -0.6000000238418579,
          -0.3999999761581421,
          -0.19999998807907104,
          0.0,
          0.20000004768371582,
          0.3999999761581421,
          0.6000000238418579,
          0.8000000715255737,
          1.0,
          1.2000000476837158,
          1.4000000953674316,
          1.6000001430511475
        ],
        [
          -1.600000023841858,
          -1.399999976158142,
          -1.2000000476837158,
          -1.0,
          -0.800000011920929,
          -0.6000000238418579,
          -0.3999999761581421,
          -0.19999998807907104,
          0.0,
          0.20000004768371582,
          0.3999999761581421,
          0.6000000238418579,
          0.8000000715255737,
          1.0,
          1.2000000476837158,
          1.4000000953674316,
          1.6000001430511475
        ],
        [
          -1.600000023841858,
          -1.399999976158142,
          -1.2000000476837158,
          -1.0,
          -0.800000011920929,
          -0.6000000238418579,
          -0.3999999761581421,
          -0.19999998807907104,
          0.0,
          0.20000004768371582,
          0.3999999761581421,
          0.6000000238418579,
          0.8000000715255737,
          1.0,
          1.2000000476837158,
          1.4000000953674316,
          1.6000001430511475
        ]
      ],
      "scaled_spline_weight": [
        [
          [
            -0.00032539921812713146,
            0.009077268652617931,
            -0.15968838334083557,
            0.052254900336265564,
            -0.013838927261531353,
            0.03015829063951969,
            0.008601668290793896,
            0.01921187713742256,
            -0.038657061755657196,
            0.12414651364088058,
            -0.0006518078735098243,
            0.0008385447436012328,
            0.00029464118415489793
          ],
          [
            -0.04832230880856514,
            0.05430204048752785,
            0.010716221295297146,
            0.004907104652374983,
            -0.005542471539229155,
            0.011949462816119194,
            0.010409527458250523,
            0.041441965848207474,
            -0.06215426325798035,
            -0.007181537337601185,
            -0.06532851606607437,
            -0.0,
            -0.0
          ],
          [
            -3.360282426001504e-05,
            0.00010204776481259614,
            0.11796429753303528,
            -0.03713904321193695,
            0.011218313127756119,
            -0.0057389321736991405,
            0.019885718822479248,
            0.01313767395913601,
            -0.0003264712286181748,
            -0.016804417595267296,
            0.005190476309508085,
            -0.0,
            -0.0
          ],
          [
            0.00034876802237704396,
            0.001159507199190557,
            -0.0006328345625661314,
            -0.0003930905368179083,
            0.21580256521701813,
            0.038054000586271286,
            0.027614399790763855,
            0.031928420066833496,
            -0.015757162123918533,
            0.03290953114628792,
            -0.13157810270786285,
            0.12205284833908081,
            -0.0
          ],
          [
            -0.00038217889959923923,
            -0.0011753002181649208,
            0.0011373654706403613,
            0.0006648475537076592,
            0.06177731603384018,
            0.11302382498979568,
            0.022509504109621048,
            0.030560139566659927,
            -0.014665505848824978,
            0.002610269235447049,
            0.009932398796081543,
            0.07008293271064758,
            0.007227088324725628
          ],
          [
            4.873889702139422e-05,
            -0.08896435052156448,
            0.15606358647346497,
            -0.034563370048999786,
            0.028440233319997787,
            0.012097298167645931,
            0.01703275740146637,
            0.012897724285721779,
            0.12838862836360931,
            0.2507171630859375,
            0.1621956080198288,
            -0.0,
            -0.0
          ],
          [
            0.00020318481256254017,
            0.011930547654628754,
            -0.06513769179582596,
            -0.0015159290051087737,
            0.0038717277348041534,
            0.027347693219780922,
            0.025198740884661674,
            -0.022379059344530106,
            0.13448390364646912,
            0.05262104049324989,
            0.020933182910084724,
            -0.0,
            -0.0
          ],
          [
            0.0007953023887239397,
            0.0020502028055489063,
            0.0003344321739859879,
            0.07789915055036545,
            0.06583799421787262,
            0.009862166829407215,
            0.03687722608447075,
            0.06505101919174194,
            0.018444720655679703,
            0.11147082597017288,
            0.00019310403149574995,
            -0.0,
            -0.0
          ],
          [
            -0.00023233206593431532,
            -0.0005730734555982053,
            0.0009625309612601995,
            -0.058850985020399094,
            0.04592958092689514,
            0.04095243290066719,
            0.001150640775449574,
            0.013192446902394295,
            0.04541022330522537,
            0.012859046459197998,
            -0.1493764966726303,
            0.03374843671917915,
            -0.0
          ],
          [
            3.573885805963073e-06,
            8.9441373347654e-06,
            -1.0033745638793334e-05,
            -0.0015209019184112549,
            -0.00018079951405525208,
            0.00011127447214676067,
            -9.583929204382002e-05,
            0.00014595699030905962,
            0.00011787265248131007,
            -0.0011325563536956906,
            2.073637460853206e-06,
            0.0,
            0.0
          ],
          [
            0.00021758605726063251,
            -0.000334674958139658,
            -0.07461638748645782,
            0.0019237020751461387,
            0.006040832027792931,
            0.0038147135637700558,
            0.03313049301505089,
            0.058203525841236115,
            0.026371588930487633,
            -0.0005372216110117733,
            -0.00011132830695714802,
            0.0,
            0.0
          ],
          [
            0.0003533442795742303,
            0.0012806819286197424,
            0.00013406091602519155,
            0.2846086621284485,
            0.48365405201911926,
            -0.026245860382914543,
            0.04773860424757004,
            0.03605499863624573,
            0.030522681772708893,
            0.016978375613689423,
            0.009613770991563797,
            -0.05806754529476166,
            0.02249547466635704
          ],
          [
            0.00045620661694556475,
            -7.205466681625694e-05,
            0.12624888122081757,
            0.04784831404685974,
            0.06834184378385544,
            0.04405507445335388,
            0.006784404627978802,
            0.05709410458803177,
            0.055034492164850235,
            0.057202622294425964,
            0.07024149596691132,
            -0.0,
            -0.0
          ],
          [
            0.00016215952928178012,
            0.0005698975874111056,
            0.0033703299704939127,
            -0.04708852991461754,
            0.03767472133040428,
            -0.0020921099931001663,
            -0.0008506096201017499,
            0.026899322867393494,
            0.01650354452431202,
            -0.03081950917840004,
            -0.07420585304498672,
            0.02101209945976734,
            3.5308261431055143e-05
          ],
          [
            -0.012473735958337784,
            0.2031812220811844,
            -0.03539062291383743,
            0.016936378553509712,
            -0.009050905704498291,
            0.04199208319187164,
            0.03726813569664955,
            0.1318286955356598,
            -0.10713914036750793,
            -0.0010265610180795193,
            -0.00013452190614771098,
            -0.0,
            -0.0
          ],
          [
            3.643598756752908e-05,
            0.006381722167134285,
            -0.0019052959978580475,
            0.04974428936839104,
            0.009040451608598232,
            0.02063801698386669,
            -0.00832279771566391,
            0.029881209135055542,
            0.026938604190945625,
            0.04270614683628082,
            0.030431630089879036,
            0.04837826266884804,
            0.02618197165429592
          ]
        ]
      ],
      "base_weight": [
        [
          0.06373259425163269,
          0.020381640642881393,
          -0.14018502831459045,
          0.31400659680366516,
          0.19361184537410736,
          -0.19144479930400848,
          -0.15108419954776764,
          -0.21280936896800995,
          0.2590119540691376,
          -0.28688400983810425,
          -0.2794129550457001,
          0.10845974832773209,
          0.06353256851434708,
          0.2996281087398529,
          -0.30076929926872253,
          0.014175830408930779
        ]
      ],
      "spline_order": 3
    }
  ],
  "norm": {
    "V_min": 2.636099934577942,
    "V_max": 4.686899781227112,
    "I_abs_max": 5.526000022888184,
    "T_min": 14.349410438537598,
    "T_max": 49.52249011993408,
    "headroom": 0.2
  },
  "ocv_coefs": [
    -11.66265948752499,
    12.154540678388376,
    3.0098422215754863,
    -6.035489142972655,
    2.1551267080262777,
    3.532054826372431
  ],
  "hp": {
    "inputs": [
      "I",
      "SoC",
      "T"
    ],
    "output": "V",
    "hidden": 16,
    "grid_size": 10,
    "spline_order": 3,
    "lr": 0.001,
    "batch_size": 128,
    "n_epochs": 500,
    "lr_patience": 30,
    "lr_factor": 0.5,
    "lr_min": 1e-06,
    "es_patience": 80,
    "headroom": 0.2,
    "val_split": 0.1
  }
}