{
  "layers": [
    {
      "grid": [
        [
          -1.600000023841858,
          -1.399999976158142,
          -1.2000000476837158,
          -1.0,
          -0.800000011920929,
          -0.6000000238418579,
          -0.3999999761581421,
          -0.19999998807907104,
          0.0,
          0.20000004768371582,
          0.3999999761581421,
          0.6000000238418579,
          0.8000000715255737,
          1.0,
          1.2000000476837158,
          1.4000000953674316,
          1.6000001430511475
        ],
        [
          -1.600000023841858,
          -1.399999976158142,
          -1.2000000476837158,
          -1.0,
          -0.800000011920929,
          -0.6000000238418579,
          -0.3999999761581421,
          -0.19999998807907104,
          0.0,
          0.20000004768371582,
          0.3999999761581421,
          0.6000000238418579,
          0.8000000715255737,
          1.0,
          1.2000000476837158,
          1.4000000953674316,
          1.6000001430511475
        ],
        [
          -1.600000023841858,
          -1.399999976158142,
          -1.2000000476837158,
          -1.0,
          -0.800000011920929,
          -0.6000000238418579,
          -0.3999999761581421,
          -0.19999998807907104,
          0.0,
          0.20000004768371582,
          0.3999999761581421,
          0.6000000238418579,
          0.8000000715255737,
          1.0,
          1.2000000476837158,
          1.4000000953674316,
          1.6000001430511475
        ],
        [
          -1.600000023841858,
          -1.399999976158142,
          -1.2000000476837158,
          -1.0,
          -0.800000011920929,
          -0.6000000238418579,
          -0.3999999761581421,
          -0.19999998807907104,
          0.0,
          0.20000004768371582,
          0.3999999761581421,
          0.6000000238418579,
          0.8000000715255737,
          1.0,
          1.2000000476837158,
          1.4000000953674316,
          1.6000001430511475
        ]
      ],
      "scaled_spline_weight": [
        [
          [
            0.0,
            -0.0,
            -0.0,
            0.0,
            -0.0,
            -0.0,
            -0.0,
            0.0,
            -0.0,
            -0.0,
            0.0,
            0.0,
            -0.0
          ],
          [
            0.0,
            -0.0,
            -0.0,
            0.0,
            -0.0,
            0.0,
            -0.0,
            -0.0,
            -0.0,
            0.0,
            -0.0,
            0.0,
            0.0
          ],
          [
            0.0,
            -0.0,
            0.0,
            -0.0,
            -0.0,
            -0.0,
            -0.0,
            -0.0,
            0.0,
            -0.0,
            -0.0,
            -0.0,
            -0.0
          ],
          [
            0.0,
            0.0,
            0.0,
            0.0,
            0.0,
            0.0,
            -0.0,
            0.0,
            0.0,
            0.0,
            0.0,
            -0.0,
            0.0
          ]
        ],
        [
          [
            -2.6095415250892984e-06,
            -0.002177143469452858,
            -0.013439832255244255,
            -0.013955734670162201,
            0.012005001306533813,
            0.02764096111059189,
            -0.0045797997154295444,
            -0.04135759174823761,
            -0.02057783119380474,
            0.001177106169052422,
            0.01009406428784132,
            0.003143556881695986,
            8.378457891922153e-07
          ],
          [
            5.885019147640291e-40,
            1.0078881243610177e-39,
            3.129955664199019e-39,
            1.397619635466425e-38,
            1.7366699646230576e-38,
            -0.005923681892454624,
            0.014710275456309319,
            -0.009840996004641056,
            -0.030685419216752052,
            0.004864862188696861,
            0.0006805103621445596,
            0.0001005504309432581,
            -8.366524184566515e-07
          ],
          [
            -2.0455874722520815e-40,
            3.243467846301651e-39,
            8.521702338113867e-40,
            -2.7432113010300127e-39,
            -1.1172230357414972e-39,
            -6.830698112025857e-05,
            -0.02766154333949089,
            -0.018616152927279472,
            0.053794778883457184,
            -0.06034621223807335,
            -0.016559895128011703,
            -0.00473291939124465,
            3.148352334392257e-06
          ],
          [
            8.152427471941337e-05,
            4.0823993913363665e-05,
            0.0003288622247055173,
            0.0004187856975477189,
            -0.000613336160313338,
            -0.0016798825236037374,
            -0.003320277202874422,
            -0.00030840683029964566,
            0.0011212043464183807,
            0.0009647362749092281,
            0.0002544534800108522,
            -0.0002690755936782807,
            -0.00012513800174929202
          ]
        ],
        [
          [
            -0.0,
            -0.0,
            0.0,
            0.0,
            -0.0,
            0.0,
            -0.0,
            -0.0,
            -0.0,
            0.0,
            0.0,
            0.0,
            -0.0
          ],
          [
            0.0,
            0.0,
            -0.0,
            0.0,
            0.0,
            0.0,
            -0.0,
            -0.0,
            -0.0,
            -0.0,
            0.0,
            0.0,
            0.0
          ],
          [
            0.0,
            -0.0,
            0.0,
            0.0,
            0.0,
            0.0,
            -0.0,
            -0.0,
            -0.0,
            0.0,
            0.0,
            0.0,
            -0.0
          ],
          [
            0.0,
            0.0,
            -0.0,
            -0.0,
            -0.0,
            -0.0,
            -0.0,
            0.0,
            0.0,
            -0.0,
            0.0,
            0.0,
            -0.0
          ]
        ],
        [
          [
            -0.0,
            -0.0,
            0.0,
            -0.0,
            -0.0,
            -0.0,
            0.0,
            -0.0,
            -0.0,
            0.0,
            0.0,
            -0.0,
            -0.0
          ],
          [
            -0.0,
            -0.0,
            0.0,
            -0.0,
            -0.0,
            -0.0,
            -0.0,
            0.0,
            -0.0,
            0.0,
            -0.0,
            -0.0,
            0.0
          ],
          [
            -0.0,
            0.0,
            0.0,
            0.0,
            -0.0,
            0.0,
            0.0,
            -0.0,
            -0.0,
            0.0,
            -0.0,
            -0.0,
            0.0
          ],
          [
            0.0,
            -0.0,
            0.0,
            -0.0,
            0.0,
            -0.0,
            -0.0,
            0.0,
            0.0,
            -0.0,
            -0.0,
            0.0,
            0.0
          ]
        ],
        [
          [
            9.918170462697162e-07,
            -0.0001165290450444445,
            0.00020374746236484498,
            0.004909734707325697,
            -0.0010208827443420887,
            -0.011792294681072235,
            0.00017489427409600466,
            0.009539901278913021,
            0.0008413820760324597,
            -0.008203419856727123,
            0.003712582867592573,
            0.002021619351580739,
            -1.2060044127792935e-06
          ],
          [
            -0.0,
            0.0,
            0.0,
            0.0,
            -0.0,
            -3.867494263101618e-21,
            8.692652033625102e-21,
            4.452933926575438e-20,
            -3.3545934925872974e-20,
            -4.94819886715683e-21,
            7.9831925912219035e-22,
            3.787542490916323e-21,
            7.303413888916351e-24
          ],
          [
            7.483546166923433e-39,
            1.6485253484902516e-39,
            -1.4645670899890826e-39,
            -1.7823885881902727e-39,
            -2.305472285445762e-40,
            1.6220708857872523e-05,
            -0.002293576253578067,
            -0.002844263566657901,
            -0.004061494022607803,
            0.010950135998427868,
            -0.0028724265284836292,
            -0.00023891215096227825,
            -3.863601250486681e-06
          ],
          [
            3.1823471809133697e-12,
            2.7511407041380664e-10,
            2.482142547055588e-10,
            2.1557221285828376e-10,
            2.2010331925115256e-12,
            2.3479962418804234e-10,
            8.417279373507114e-11,
            2.937332044261609e-10,
            8.054475836294372e-11,
            1.0056301624761232e-10,
            5.5677320393021645e-11,
            2.3110627300759745e-10,
            1.9598231371098507e-10
          ]
        ],
        [
          [
            -0.0,
            -0.0,
            0.0,
            0.0,
            -0.0,
            0.0,
            0.0,
            0.0,
            -0.0,
            -0.0,
            0.0,
            0.0,
            -0.0
          ],
          [
            -0.0,
            -0.0,
            0.0,
            0.0,
            -0.0,
            0.0,
            -0.0,
            0.0,
            -0.0,
            0.0,
            -0.0,
            0.0,
            -0.0
          ],
          [
            -0.0,
            -0.0,
            0.0,
            -0.0,
            0.0,
            -0.0,
            -0.0,
            0.0,
            -0.0,
            -0.0,
            -0.0,
            0.0,
            -0.0
          ],
          [
            -0.0,
            -0.0,
            -0.0,
            -0.0,
            0.0,
            0.0,
            -0.0,
            0.0,
            0.0,
            -0.0,
            -0.0,
            0.0,
            -0.0
          ]
        ],
        [
          [
            -0.0,
            0.0,
            -0.0,
            -0.0,
            -0.0,
            -0.0,
            -0.0,
            -0.0,
            -0.0,
            -0.0,
            -0.0,
            -0.0,
            -0.0
          ],
          [
            0.0,
            -0.0,
            -0.0,
            0.0,
            -0.0,
            0.0,
            0.0,
            -0.0,
            -0.0,
            0.0,
            0.0,
            -0.0,
            -0.0
          ],
          [
            0.0,
            -0.0,
            0.0,
            -0.0,
            -0.0,
            -0.0,
            -0.0,
            -0.0,
            0.0,
            0.0,
            0.0,
            -0.0,
            -0.0
          ],
          [
            0.0,
            -0.0,
            0.0,
            0.0,
            0.0,
            0.0,
            0.0,
            -0.0,
            -0.0,
            -0.0,
            0.0,
            -0.0,
            0.0
          ]
        ],
        [
          [
            2.9275370252435096e-06,
            0.007910898886620998,
            0.035257335752248764,
            0.02386320009827614,
            0.04140518978238106,
            0.026042049750685692,
            -0.004204206168651581,
            -0.010314570739865303,
            -0.014967727474868298,
            0.0038509105797857046,
            0.001741240848787129,
            0.0016775086987763643,
            -8.044637525017606e-07
          ],
          [
            -3.836736978441313e-38,
            -8.361829597617513e-39,
            8.828229370692599e-39,
            -2.0160915408765084e-39,
            1.1154840243472701e-39,
            -0.1502075344324112,
            0.17784041166305542,
            0.1124577447772026,
            0.08946742117404938,
            0.05989035218954086,
            0.01489586103707552,
            0.01627473719418049,
            0.00014019626541994512
          ],
          [
            -3.7370107706307087e-39,
            6.203758496335614e-39,
            -1.6978020089882338e-39,
            6.625081300410299e-39,
            -1.5764520843149404e-38,
            0.0002119804994435981,
            0.06665969640016556,
            0.07098696380853653,
            0.06015092879533768,
            0.006524126976728439,
            -0.01539843063801527,
            -0.008290923200547695,
            -2.8139023925177753e-05
          ],
          [
            -0.0016563679091632366,
            -0.005016414448618889,
            -0.0013526967959478498,
            -0.003219711361452937,
            -0.0062254746444523335,
            -0.005520952865481377,
            0.031667403876781464,
            0.04576098173856735,
            0.05191023647785187,
            0.03635779395699501,
            0.022465795278549194,
            0.007545821834355593,
            -0.01496964506804943
          ]
        ],
        [
          [
            -2.6743757075564645e-07,
            0.0001838384341681376,
            0.001025889185257256,
            0.0010813120752573013,
            0.004301004111766815,
            0.004631366115063429,
            -0.0011805813992395997,
            -0.0010822227923199534,
            -0.002211366780102253,
            -0.0010119136422872543,
            4.475769856071565e-06,
            6.298402877291664e-05,
            -8.78550032723524e-09
          ],
          [
            -1.895308021042495e-39,
            1.7133452115545246e-39,
            -1.6797729029462307e-39,
            1.4674271401547695e-39,
            6.402953073039387e-40,
            0.0006939127342775464,
            0.019147349521517754,
            -0.008290850557386875,
            0.0035973889753222466,
            -0.0018025885801762342,
            0.0012443229788914323,
            0.0006796720554120839,
            9.146691809291951e-06
          ],
          [
            1.6618720157137133e-38,
            -1.3347875142737968e-38,
            -3.5649453321962644e-40,
            -9.367301883426034e-40,
            2.2659738856318384e-39,
            8.37985280668363e-05,
            0.03705776482820511,
            0.06998308002948761,
            -0.0675334483385086,
            0.01721051335334778,
            0.010453371331095695,
            0.00279713305644691,
            3.547894084476866e-05
          ],
          [
            -2.1553234457599713e-12,
            -2.5007702072338267e-12,
            -5.522296595700249e-12,
            -4.060566119457043e-12,
            -5.4463425956663425e-12,
            -6.069935352959188e-12,
            -6.621741349688293e-12,
            -6.354391839102913e-12,
            -1.3353930591528118e-12,
            -5.755140721624974e-12,
            -5.6479890209182315e-12,
            1.959971898321533e-14,
            3.941044268273436e-13
          ]
        ],
        [
          [
            0.0,
            -0.0,
            0.0,
            -0.0,
            0.0,
            -0.0,
            -0.0,
            -0.0,
            0.0,
            0.0,
            0.0,
            -0.0,
            0.0
          ],
          [
            -0.0,
            -0.0,
            -0.0,
            -0.0,
            0.0,
            -0.0,
            -0.0,
            0.0,
            -0.0,
            0.0,
            0.0,
            -0.0,
            -0.0
          ],
          [
            0.0,
            -0.0,
            -0.0,
            0.0,
            -0.0,
            -0.0,
            0.0,
            -0.0,
            -0.0,
            -0.0,
            0.0,
            0.0,
            0.0
          ],
          [
            -0.0,
            0.0,
            -0.0,
            0.0,
            0.0,
            0.0,
            0.0,
            -0.0,
            0.0,
            0.0,
            -0.0,
            0.0,
            -0.0
          ]
        ],
        [
          [
            -0.0,
            -0.0,
            0.0,
            0.0,
            0.0,
            -0.0,
            0.0,
            0.0,
            -0.0,
            0.0,
            -0.0,
            0.0,
            0.0
          ],
          [
            -0.0,
            -0.0,
            0.0,
            -0.0,
            -0.0,
            -0.0,
            0.0,
            0.0,
            -0.0,
            -0.0,
            -0.0,
            0.0,
            -0.0
          ],
          [
            -0.0,
            0.0,
            0.0,
            -0.0,
            -0.0,
            0.0,
            -0.0,
            0.0,
            -0.0,
            -0.0,
            0.0,
            0.0,
            -0.0
          ],
          [
            -0.0,
            -0.0,
            0.0,
            -0.0,
            0.0,
            -0.0,
            -0.0,
            -0.0,
            -0.0,
            0.0,
            -0.0,
            -0.0,
            0.0
          ]
        ],
        [
          [
            -0.0,
            -0.0,
            0.0,
            0.0,
            -0.0,
            0.0,
            -0.0,
            -0.0,
            0.0,
            -0.0,
            0.0,
            -0.0,
            0.0
          ],
          [
            -0.0,
            -0.0,
            -0.0,
            0.0,
            0.0,
            -0.0,
            0.0,
            0.0,
            0.0,
            0.0,
            -0.0,
            0.0,
            -0.0
          ],
          [
            0.0,
            -0.0,
            -0.0,
            0.0,
            0.0,
            -0.0,
            0.0,
            0.0,
            0.0,
            -0.0,
            -0.0,
            -0.0,
            -0.0
          ],
          [
            0.0,
            0.0,
            -0.0,
            -0.0,
            -0.0,
            -0.0,
            -0.0,
            -0.0,
            -0.0,
            0.0,
            0.0,
            -0.0,
            0.0
          ]
        ],
        [
          [
            0.0,
            0.0,
            0.0,
            0.0,
            -0.0,
            0.0,
            0.0,
            0.0,
            0.0,
            -0.0,
            0.0,
            -0.0,
            -0.0
          ],
          [
            -0.0,
            -0.0,
            0.0,
            0.0,
            -0.0,
            0.0,
            0.0,
            -0.0,
            0.0,
            -0.0,
            -0.0,
            0.0,
            -0.0
          ],
          [
            0.0,
            -0.0,
            0.0,
            -0.0,
            0.0,
            -0.0,
            -0.0,
            -0.0,
            -0.0,
            0.0,
            -0.0,
            -0.0,
            0.0
          ],
          [
            0.0,
            0.0,
            0.0,
            0.0,
            -0.0,
            -0.0,
            0.0,
            -0.0,
            -0.0,
            0.0,
            -0.0,
            -0.0,
            0.0
          ]
        ],
        [
          [
            -0.0,
            -0.0,
            -0.0,
            0.0,
            0.0,
            0.0,
            0.0,
            -0.0,
            -0.0,
            -0.0,
            0.0,
            0.0,
            0.0
          ],
          [
            0.0,
            0.0,
            -0.0,
            -0.0,
            -0.0,
            -0.0,
            -0.0,
            0.0,
            -0.0,
            0.0,
            -0.0,
            -0.0,
            0.0
          ],
          [
            -0.0,
            -0.0,
            0.0,
            0.0,
            0.0,
            0.0,
            -0.0,
            0.0,
            -0.0,
            -0.0,
            -0.0,
            0.0,
            0.0
          ],
          [
            -0.0,
            -0.0,
            -0.0,
            0.0,
            -0.0,
            0.0,
            0.0,
            0.0,
            0.0,
            0.0,
            0.0,
            0.0,
            0.0
          ]
        ],
        [
          [
            0.0,
            -0.0,
            0.0,
            0.0,
            0.0,
            0.0,
            0.0,
            -0.0,
            0.0,
            0.0,
            -0.0,
            -0.0,
            0.0
          ],
          [
            0.0,
            -0.0,
            -0.0,
            -0.0,
            0.0,
            0.0,
            0.0,
            -0.0,
            -0.0,
            -0.0,
            -0.0,
            0.0,
            -0.0
          ],
          [
            0.0,
            -0.0,
            -0.0,
            0.0,
            0.0,
            -0.0,
            0.0,
            -0.0,
            -0.0,
            0.0,
            0.0,
            -0.0,
            0.0
          ],
          [
            0.0,
            0.0,
            -0.0,
            0.0,
            -0.0,
            0.0,
            -0.0,
            -0.0,
            0.0,
            0.0,
            0.0,
            -0.0,
            -0.0
          ]
        ],
        [
          [
            0.0,
            0.0,
            -0.0,
            0.0,
            0.0,
            -0.0,
            -0.0,
            -0.0,
            -0.0,
            0.0,
            -0.0,
            -0.0,
            0.0
          ],
          [
            0.0,
            -0.0,
            -0.0,
            0.0,
            0.0,
            -0.0,
            -0.0,
            -0.0,
            0.0,
            0.0,
            0.0,
            -0.0,
            0.0
          ],
          [
            0.0,
            0.0,
            0.0,
            -0.0,
            -0.0,
            0.0,
            -0.0,
            0.0,
            -0.0,
            0.0,
            0.0,
            0.0,
            0.0
          ],
          [
            0.0,
            0.0,
            0.0,
            0.0,
            -0.0,
            0.0,
            0.0,
            0.0,
            0.0,
            0.0,
            -0.0,
            0.0,
            -0.0
          ]
        ]
      ],
      "base_weight": [
        [
          0.00011192943202331662,
          -8.399909711442888e-05,
          9.090892126550898e-05,
          0.0006265865522436798
        ],
        [
          0.0004934104508720338,
          -0.16377314925193787,
          -0.30005553364753723,
          -0.004968184046447277
        ],
        [
          0.0006289763259701431,
          -0.0005469011957757175,
          -0.00011303870269330218,
          0.001013163011521101
        ],
        [
          0.0018388627795502543,
          0.0005182218155823648,
          0.0014792727306485176,
          0.00234586326405406
        ],
        [
          0.17387595772743225,
          -0.19966097176074982,
          0.2355424165725708,
          -0.052093956619501114
        ],
        [
          0.0047137984074652195,
          -0.007205894682556391,
          -0.0033775854390114546,
          0.0036395175848156214
        ],
        [
          0.000281268497928977,
          0.0004566510033328086,
          -0.00010379978630226105,
          -0.0010929843410849571
        ],
        [
          -0.3827997148036957,
          0.35297876596450806,
          0.2602979838848114,
          0.09516823291778564
        ],
        [
          -0.3220679461956024,
          0.008542112074792385,
          0.03604650869965553,
          -0.07292945683002472
        ],
        [
          0.0002510616322979331,
          8.843178511597216e-05,
          -7.45964061934501e-05,
          0.00042027508607134223
        ],
        [
          0.000811817473731935,
          -0.0010100794024765491,
          -0.00022922185598872602,
          0.001175784389488399
        ],
        [
          -0.00039272615686059,
          4.99235829920508e-05,
          3.2757070584921166e-05,
          -0.0006983643397688866
        ],
        [
          0.0013269472401589155,
          -0.002023956971243024,
          -0.0004540276131592691,
          0.0014529458712786436
        ],
        [
          0.0009666461264714599,
          -0.00019170819723512977,
          0.0004328449722379446,
          0.0008276883163489401
        ],
        [
          0.0012616179883480072,
          0.00023628557391930372,
          0.0007670296472497284,
          0.0017186597688123584
        ],
        [
          -0.00027982486062683165,
          -7.664604345336556e-05,
          -1.053802770911716e-05,
          -0.00045952535583637655
        ]
      ],
      "spline_order": 3
    },
    {
      "grid": [
        [
          -1.600000023841858,
          -1.399999976158142,
          -1.2000000476837158,
          -1.0,
          -0.800000011920929,
          -0.6000000238418579,
          -0.3999999761581421,
          -0.19999998807907104,
          0.0,
          0.20000004768371582,
          0.3999999761581421,
          0.6000000238418579,
          0.8000000715255737,
          1.0,
          1.2000000476837158,
          1.4000000953674316,
          1.6000001430511475
        ],
        [
          -1.600000023841858,
          -1.399999976158142,
          -1.2000000476837158,
          -1.0,
          -0.800000011920929,
          -0.6000000238418579,
          -0.3999999761581421,
          -0.19999998807907104,
          0.0,
          0.20000004768371582,
          0.3999999761581421,
          0.6000000238418579,
          0.8000000715255737,
          1.0,
          1.2000000476837158,
          1.4000000953674316,
          1.6000001430511475
        ],
        [
          -1.600000023841858,
          -1.399999976158142,
          -1.2000000476837158,
          -1.0,
          -0.800000011920929,
          -0.6000000238418579,
          -0.3999999761581421,
          -0.19999998807907104,
          0.0,
          0.20000004768371582,
          0.3999999761581421,
          0.6000000238418579,
          0.8000000715255737,
          1.0,
          1.2000000476837158,
          1.4000000953674316,
          1.6000001430511475
        ],
        [
          -1.600000023841858,
          -1.399999976158142,
          -1.2000000476837158,
          -1.0,
          -0.800000011920929,
          -0.6000000238418579,
          -0.3999999761581421,
          -0.19999998807907104,
          0.0,
          0.20000004768371582,
          0.3999999761581421,
          0.6000000238418579,
          0.8000000715255737,
          1.0,
          1.2000000476837158,
          1.4000000953674316,
          1.6000001430511475
        ],
        [
          -1.600000023841858,
          -1.399999976158142,
          -1.2000000476837158,
          -1.0,
          -0.800000011920929,
          -0.6000000238418579,
          -0.3999999761581421,
          -0.19999998807907104,
          0.0,
          0.20000004768371582,
          0.3999999761581421,
          0.6000000238418579,
          0.8000000715255737,
          1.0,
          1.2000000476837158,
          1.4000000953674316,
          1.6000001430511475
        ],
        [
          -1.600000023841858,
          -1.399999976158142,
          -1.2000000476837158,
          -1.0,
          -0.800000011920929,
          -0.6000000238418579,
          -0.3999999761581421,
          -0.19999998807907104,
          0.0,
          0.20000004768371582,
          0.3999999761581421,
          0.6000000238418579,
          0.8000000715255737,
          1.0,
          1.2000000476837158,
          1.4000000953674316,
          1.6000001430511475
        ],
        [
          -1.600000023841858,
          -1.399999976158142,
          -1.2000000476837158,
          -1.0,
          -0.800000011920929,
          -0.6000000238418579,
          -0.3999999761581421,
          -0.19999998807907104,
          0.0,
          0.20000004768371582,
          0.3999999761581421,
          0.6000000238418579,
          0.8000000715255737,
          1.0,
          1.2000000476837158,
          1.4000000953674316,
          1.6000001430511475
        ],
        [
          -1.600000023841858,
          -1.399999976158142,
          -1.2000000476837158,
          -1.0,
          -0.800000011920929,
          -0.6000000238418579,
          -0.3999999761581421,
          -0.19999998807907104,
          0.0,
          0.20000004768371582,
          0.3999999761581421,
          0.6000000238418579,
          0.8000000715255737,
          1.0,
          1.2000000476837158,
          1.4000000953674316,
          1.6000001430511475
        ],
        [
          -1.600000023841858,
          -1.399999976158142,
          -1.2000000476837158,
          -1.0,
          -0.800000011920929,
          -0.6000000238418579,
          -0.3999999761581421,
          -0.19999998807907104,
          0.0,
          0.20000004768371582,
          0.3999999761581421,
          0.6000000238418579,
          0.8000000715255737,
          1.0,
          1.2000000476837158,
          1.4000000953674316,
          1.6000001430511475
        ],
        [
          -1.600000023841858,
          -1.399999976158142,
          -1.2000000476837158,
          -1.0,
          -0.800000011920929,
          -0.6000000238418579,
          -0.3999999761581421,
          -0.19999998807907104,
          0.0,
          0.20000004768371582,
          0.3999999761581421,
          0.6000000238418579,
          0.8000000715255737,
          1.0,
          1.2000000476837158,
          1.4000000953674316,
          1.6000001430511475
        ],
        [
          -1.600000023841858,
          -1.399999976158142,
          -1.2000000476837158,
          -1.0,
          -0.800000011920929,
          -0.6000000238418579,
          -0.3999999761581421,
          -0.19999998807907104,
          0.0,
          0.20000004768371582,
          0.3999999761581421,
          0.6000000238418579,
          0.8000000715255737,
          1.0,
          1.2000000476837158,
          1.4000000953674316,
          1.6000001430511475
        ],
        [
          -1.600000023841858,
          -1.399999976158142,
          -1.2000000476837158,
          -1.0,
          -0.800000011920929,
          -0.6000000238418579,
          -0.3999999761581421,
          -0.19999998807907104,
          0.0,
          0.20000004768371582,
          0.3999999761581421,
          0.6000000238418579,
          0.8000000715255737,
          1.0,
          1.2000000476837158,
          1.4000000953674316,
          1.6000001430511475
        ],
        [
          -1.600000023841858,
          -1.399999976158142,
          -1.2000000476837158,
          -1.0,
          -0.800000011920929,
          -0.6000000238418579,
          -0.3999999761581421,
          -0.19999998807907104,
          0.0,
          0.20000004768371582,
          0.3999999761581421,
          0.6000000238418579,
          0.8000000715255737,
          1.0,
          1.2000000476837158,
          1.4000000953674316,
          1.6000001430511475
        ],
        [
          -1.600000023841858,
          -1.399999976158142,
          -1.2000000476837158,
          -1.0,
          -0.800000011920929,
          -0.6000000238418579,
          -0.3999999761581421,
          -0.19999998807907104,
          0.0,
          0.20000004768371582,
          0.3999999761581421,
          0.6000000238418579,
          0.8000000715255737,
          1.0,
          1.2000000476837158,
          1.4000000953674316,
          1.6000001430511475
        ],
        [
          -1.600000023841858,
          -1.399999976158142,
          -1.2000000476837158,
          -1.0,
          -0.800000011920929,
          -0.6000000238418579,
          -0.3999999761581421,
          -0.19999998807907104,
          0.0,
          0.20000004768371582,
          0.3999999761581421,
          0.6000000238418579,
          0.8000000715255737,
          1.0,
          1.2000000476837158,
          1.4000000953674316,
          1.6000001430511475
        ],
        [
          -1.600000023841858,
          -1.399999976158142,
          -1.2000000476837158,
          -1.0,
          -0.800000011920929,
          -0.6000000238418579,
          -0.3999999761581421,
          -0.19999998807907104,
          0.0,
          0.20000004768371582,
          0.3999999761581421,
          0.6000000238418579,
          0.8000000715255737,
          1.0,
          1.2000000476837158,
          1.4000000953674316,
          1.6000001430511475
        ]
      ],
      "scaled_spline_weight": [
        [
          [
            -6.038054952929204e-40,
            2.6814028283655737e-39,
            -5.8011374215658075e-40,
            -7.034714472695587e-40,
            5.364021449238976e-10,
            0.004380188416689634,
            0.016876650974154472,
            0.004137933719903231,
            5.8093498761513374e-11,
            -8.014118403172274e-39,
            9.305431753629165e-39,
            5.406757383064695e-39,
            -1.1098575307533131e-38
          ],
          [
            -3.1226265929709073e-38,
            9.184279692299034e-39,
            1.0694920074496653e-39,
            -0.003864849219098687,
            -0.06202496215701103,
            0.18970493972301483,
            0.07048007845878601,
            -0.02515876106917858,
            7.827028242603339e-39,
            -1.8172132372361338e-38,
            -3.1409541755858116e-38,
            0.0,
            0.0
          ],
          [
            5.177685721803053e-39,
            -6.038748595669045e-39,
            1.3292899401385577e-39,
            4.773971634231073e-40,
            7.476775865100649e-10,
            0.0060972291976213455,
            0.019406767562031746,
            0.004808678291738033,
            6.807120422891444e-10,
            -2.4035043234129976e-39,
            -7.933297112943876e-40,
            -0.0,
            -0.0
          ],
          [
            -7.539406127606813e-40,
            8.920259647337131e-40,
            -8.414488992608375e-40,
            -1.4042243755183273e-39,
            5.055533769393605e-09,
            0.004359078127890825,
            0.01902223564684391,
            0.004187203012406826,
            9.531694544762104e-09,
            1.93126533963707e-39,
            3.6685153016945116e-40,
            -0.0,
            -0.0
          ],
          [
            -8.185216945666334e-39,
            -6.652744333394536e-39,
            -5.6218903285016985e-39,
            -3.582321433153892e-38,
            -0.0004938228521496058,
            0.06280946731567383,
            0.1291171908378601,
            -0.05288461223244667,
            0.0014921195106580853,
            3.8647971933869485e-08,
            -4.297989501997241e-38,
            -0.0,
            -0.0
          ],
          [
            -1.2951080666982824e-39,
            -1.5625234578392446e-39,
            -1.0228918270185435e-40,
            1.7173613329532796e-40,
            -9.684339552507026e-09,
            0.013112851418554783,
            0.02183874137699604,
            0.005521771963685751,
            5.773654976337639e-08,
            -7.1430908959264685e-40,
            -7.219720902448071e-39,
            -0.0,
            -0.0
          ],
          [
            4.4089852323176385e-39,
            -3.033742511638477e-39,
            -9.888055221335352e-39,
            -2.97829173010668e-39,
            5.004323067048233e-10,
            0.005460241809487343,
            0.021041730418801308,
            0.005462206434458494,
            1.40803246839738e-09,
            3.0443965838627386e-39,
            -8.66161218068745e-39,
            0.0,
            0.0
          ],
          [
            -9.067297895198734e-40,
            -4.432293029674753e-38,
            -6.855306230308081e-39,
            3.775034163681084e-38,
            -1.1645675859168683e-38,
            0.004006414674222469,
            0.02941318228840828,
            -0.10096748173236847,
            0.28279373049736023,
            0.06677603721618652,
            -4.086961052962579e-05,
            -5.78335045989844e-38,
            -0.0
          ],
          [
            8.495402768535419e-39,
            4.683150678161253e-39,
            1.180480451018048e-39,
            7.181385444710031e-05,
            0.004771433304995298,
            0.06016092374920845,
            -0.024517254903912544,
            0.15524496138095856,
            0.010194587521255016,
            7.835398198330751e-39,
            2.29408056970988e-38,
            0.0,
            0.0
          ],
          [
            1.4384286697340317e-39,
            3.569931152132332e-39,
            -2.1570257326275125e-39,
            2.9837175577605454e-39,
            1.7017413866948772e-10,
            0.007678674999624491,
            0.028195243328809738,
            0.007141635287553072,
            1.773349384004419e-10,
            6.705974056860378e-39,
            -1.6472000004026932e-38,
            0.0,
            0.0
          ],
          [
            3.5936523325364226e-39,
            -3.553014677071003e-39,
            3.469662641816034e-39,
            -8.41416669396158e-40,
            3.855718855305668e-09,
            0.006749087478965521,
            0.020058751106262207,
            0.004994590301066637,
            1.0956249241189653e-09,
            4.8883358058000146e-39,
            -1.5796787141588947e-38,
            -0.0,
            -0.0
          ],
          [
            1.830596057959975e-39,
            -5.356323250035181e-40,
            8.082255139701604e-40,
            -1.0765083088605396e-39,
            2.75034467422941e-10,
            0.004809094127267599,
            0.021953154355287552,
            0.005558682605624199,
            3.1346120143993517e-10,
            -2.5664136776815435e-39,
            7.247270430256697e-39,
            -0.0,
            -0.0
          ],
          [
            8.211798176236112e-39,
            -2.0401728549859304e-39,
            2.2593009023447236e-39,
            -4.8419065837815404e-40,
            1.162776186447445e-08,
            0.006552712991833687,
            0.01879415661096573,
            0.00380665878765285,
            1.4408766402240758e-09,
            -1.8107732898836362e-39,
            2.2105903664263287e-40,
            -0.0,
            -0.0
          ],
          [
            -2.2171050029869747e-39,
            8.001414231294705e-43,
            1.2467842891560411e-39,
            -1.3248155941419686e-39,
            5.131834956983994e-09,
            0.0023957048542797565,
            0.010304909199476242,
            0.002326705725863576,
            2.393028664116059e-09,
            1.9313031746956067e-39,
            -1.7656283579077157e-38,
            -0.0,
            -0.0
          ],
          [
            8.420953182424305e-39,
            1.0699697100961536e-38,
            1.0211864467874602e-39,
            -1.3791467382007704e-39,
            2.5031900996452805e-09,
            0.008429208770394325,
            0.0283493772149086,
            0.008168067783117294,
            4.904058492627428e-09,
            4.1437965044364885e-39,
            8.07712778862064e-39,
            -0.0,
            -0.0
          ],
          [
            -3.0370790032820344e-39,
            1.0530302537400095e-38,
            -1.9681264957411342e-39,
            1.7374041048885174e-39,
            1.483094341780955e-10,
            0.004918509628623724,
            0.019014453515410423,
            0.005419927183538675,
            6.022021076246276e-11,
            -2.8596956371754775e-39,
            1.5087780565385305e-41,
            -1.031373045844023e-38,
            -0.0
          ]
        ]
      ],
      "base_weight": [
        [
          0.0006557725719176233,
          -0.06277903914451599,
          0.001200200174935162,
          -0.0014874155167490244,
          -0.07495564222335815,
          -0.0008638258441351354,
          0.0002281305642100051,
          0.2698982059955597,
          0.10461566597223282,
          0.0010479068150743842,
          0.0012578264577314258,
          -0.0010281660361215472,
          0.0010724657913669944,
          -0.00040468815132044256,
          -0.00029697734862565994,
          -0.0008885384304448962
        ]
      ],
      "spline_order": 3
    }
  ],
  "norm": {
    "V_min": 2.524099898338318,
    "V_max": 4.8149000883102415,
    "I_abs_max": 5.526000022888184,
    "T_min": 14.349410438537598,
    "T_max": 49.52249011993408,
    "headroom": 0.2
  },
  "ocv_coefs": [
    -11.12109280105917,
    11.93025672150974,
    3.0139234669540182,
    -6.310094275620638,
    2.2867393954090223,
    3.522451328139438
  ],
  "hp": {
    "inputs": [
      "I",
      "SoC",
      "T",
      "dI"
    ],
    "output": "V",
    "hidden": 16,
    "grid_size": 10,
    "spline_order": 3,
    "lr": 0.0003,
    "weight_decay": 0.0001,
    "batch_size": 256,
    "n_epochs": 500,
    "lr_patience": 30,
    "lr_factor": 0.5,
    "lr_min": 1e-06,
    "es_patience": 80,
    "headroom": 0.2,
    "val_split": 0.1
  }
}