{
  "layers": [
    {
      "grid": [
        [
          -2.200000047683716,
          -1.7999999523162842,
          -1.399999976158142,
          -1.0,
          -0.6000000238418579,
          -0.19999998807907104,
          0.20000004768371582,
          0.6000000238418579,
          1.0,
          1.4000000953674316,
          1.7999999523162842,
          2.200000047683716
        ],
        [
          -2.200000047683716,
          -1.7999999523162842,
          -1.399999976158142,
          -1.0,
          -0.6000000238418579,
          -0.19999998807907104,
          0.20000004768371582,
          0.6000000238418579,
          1.0,
          1.4000000953674316,
          1.7999999523162842,
          2.200000047683716
        ],
        [
          -2.200000047683716,
          -1.7999999523162842,
          -1.399999976158142,
          -1.0,
          -0.6000000238418579,
          -0.19999998807907104,
          0.20000004768371582,
          0.6000000238418579,
          1.0,
          1.4000000953674316,
          1.7999999523162842,
          2.200000047683716
        ]
      ],
      "scaled_spline_weight": [
        [
          [
            0.3839007019996643,
            0.3206862211227417,
            0.24388763308525085,
            -0.08839354664087296,
            0.12145401537418365,
            -0.03640367463231087,
            0.11513932049274445,
            -0.3218548893928528
          ],
          [
            -0.0010469492990523577,
            -0.0035529439337551594,
            -1.2988594770431519,
            -0.0963684543967247,
            0.32111218571662903,
            0.019530363380908966,
            0.17194759845733643,
            -1.7886896133422852
          ],
          [
            0.00041585430153645575,
            0.005277377087622881,
            0.017947332933545113,
            -1.7625919580459595,
            0.2027234435081482,
            0.14041249454021454,
            0.2966713309288025,
            4.694769382476807
          ]
        ],
        [
          [
            0.34243395924568176,
            0.088548444211483,
            0.12778721749782562,
            0.1806461364030838,
            0.03656735643744469,
            -0.3313005864620209,
            -0.19369809329509735,
            -0.9233685731887817
          ],
          [
            0.000677561154589057,
            0.0017934327479451895,
            -0.4313044846057892,
            -0.019645841792225838,
            0.015513078309595585,
            -0.019376052543520927,
            0.290096253156662,
            0.3928631842136383
          ],
          [
            0.002255974104627967,
            0.007813896052539349,
            -0.0077633303590118885,
            -1.9297223091125488,
            0.11409353464841843,
            0.11757120490074158,
            -0.22338785231113434,
            4.5542893409729
          ]
        ],
        [
          [
            0.9362167119979858,
            0.4262503981590271,
            0.6628925800323486,
            -0.583123505115509,
            0.20045293867588043,
            0.04022953659296036,
            0.1549905687570572,
            2.661726713180542
          ],
          [
            -0.0015188405523076653,
            -0.0026846437249332666,
            -3.934627056121826,
            -0.24787725508213043,
            0.23890890181064606,
            -0.3247580826282501,
            0.4669831097126007,
            -4.8597564697265625
          ],
          [
            0.008998939767479897,
            0.03551514074206352,
            -0.03804681450128555,
            9.31374454498291,
            1.7071003913879395,
            -1.1670762300491333,
            2.303621530532837,
            -8.141816139221191
          ]
        ],
        [
          [
            -1.1504582166671753,
            -0.032498542219400406,
            0.337544709444046,
            -0.2858831584453583,
            -0.21977515518665314,
            -0.09379838407039642,
            0.8729627132415771,
            -3.26639723777771
          ],
          [
            -0.00379236601293087,
            -0.010862610302865505,
            -6.376208305358887,
            0.17058219015598297,
            -0.14231669902801514,
            -0.009710843674838543,
            0.37642616033554077,
            8.154752731323242
          ],
          [
            -0.003351404331624508,
            -0.0165572352707386,
            0.00566876633092761,
            -4.085751533508301,
            1.3697690963745117,
            -1.1888843774795532,
            1.0968751907348633,
            -3.9467875957489014
          ]
        ],
        [
          [
            -2.1518261432647705,
            0.4074455201625824,
            0.13468807935714722,
            0.5211095213890076,
            -0.599704384803772,
            0.051089558750391006,
            0.1636829674243927,
            1.8731917142868042
          ],
          [
            6.494683475466445e-06,
            2.0110879631829448e-05,
            0.01753416284918785,
            0.0008256906876340508,
            -0.0007480444619432092,
            0.0012165582738816738,
            3.758046659640968e-06,
            -0.046857353299856186
          ],
          [
            -0.00010134022159036249,
            -0.0005230014212429523,
            -0.00031763658626005054,
            0.21047919988632202,
            -0.007043583784252405,
            0.005167096387594938,
            -0.015155630186200142,
            -0.608762800693512
          ]
        ],
        [
          [
            3.2858760356903076,
            -6.997437953948975,
            -0.29399964213371277,
            0.2798428535461426,
            -0.178170844912529,
            0.6473608016967773,
            -2.9038825035095215,
            8.41901969909668
          ],
          [
            -0.001896958565339446,
            -0.0034398187417536974,
            -2.443159580230713,
            -0.3176875412464142,
            0.6481348872184753,
            -2.3476245403289795,
            3.2680695056915283,
            -5.378471374511719
          ],
          [
            0.006030374206602573,
            0.013513937592506409,
            -0.023810287937521935,
            -6.502295017242432,
            0.6260654330253601,
            -0.46495765447616577,
            1.1624988317489624,
            -4.614841938018799
          ]
        ],
        [
          [
            -6.299509048461914,
            1.0837002992630005,
            0.3876016139984131,
            -0.5738181471824646,
            0.2465781271457672,
            -1.0983455181121826,
            3.2793447971343994,
            -19.521400451660156
          ],
          [
            -0.005695355124771595,
            -0.01691424660384655,
            -5.9965901374816895,
            -0.6032326817512512,
            -0.09197419881820679,
            1.3293410539627075,
            -1.1091649532318115,
            1.8154654502868652
          ],
          [
            -0.0019723877776414156,
            -0.004368107300251722,
            0.010946475900709629,
            2.1602132320404053,
            -0.2691159248352051,
            0.21665337681770325,
            -0.67458176612854,
            2.732985019683838
          ]
        ],
        [
          [
            -1.13547682762146,
            0.7872486114501953,
            -0.3317384123802185,
            0.3449164628982544,
            -0.12958703935146332,
            0.0224775280803442,
            0.20702211558818817,
            0.041317932307720184
          ],
          [
            0.0027465198654681444,
            0.01765563152730465,
            -20.87067222595215,
            0.049111153930425644,
            0.5246763825416565,
            0.10395953059196472,
            0.6561704277992249,
            7.094265460968018
          ],
          [
            -0.0005137482075951993,
            -0.0011579404817894101,
            0.0004254307714290917,
            0.6073182821273804,
            -0.16855959594249725,
            0.13161438703536987,
            -0.27508002519607544,
            -0.2194335162639618
          ]
        ]
      ],
      "base_weight": [
        [
          0.2812868058681488,
          0.8825231790542603,
          0.6788553595542908
        ],
        [
          -1.4110779762268066,
          0.7370380759239197,
          0.11790478974580765
        ],
        [
          0.31596311926841736,
          0.7350299954414368,
          -0.3854913115501404
        ],
        [
          -0.2608501613140106,
          -0.0788295567035675,
          -0.852560818195343
        ],
        [
          -0.9369426965713501,
          -0.4981113374233246,
          0.34364843368530273
        ],
        [
          0.24148736894130707,
          -0.9268586039543152,
          0.5848223567008972
        ],
        [
          -0.4385499358177185,
          1.004827618598938,
          0.22751930356025696
        ],
        [
          -0.3353669345378876,
          0.6356275081634521,
          0.43667155504226685
        ]
      ],
      "spline_order": 3
    },
    {
      "grid": [
        [
          -2.200000047683716,
          -1.7999999523162842,
          -1.399999976158142,
          -1.0,
          -0.6000000238418579,
          -0.19999998807907104,
          0.20000004768371582,
          0.6000000238418579,
          1.0,
          1.4000000953674316,
          1.7999999523162842,
          2.200000047683716
        ],
        [
          -2.200000047683716,
          -1.7999999523162842,
          -1.399999976158142,
          -1.0,
          -0.6000000238418579,
          -0.19999998807907104,
          0.20000004768371582,
          0.6000000238418579,
          1.0,
          1.4000000953674316,
          1.7999999523162842,
          2.200000047683716
        ],
        [
          -2.200000047683716,
          -1.7999999523162842,
          -1.399999976158142,
          -1.0,
          -0.6000000238418579,
          -0.19999998807907104,
          0.20000004768371582,
          0.6000000238418579,
          1.0,
          1.4000000953674316,
          1.7999999523162842,
          2.200000047683716
        ],
        [
          -2.200000047683716,
          -1.7999999523162842,
          -1.399999976158142,
          -1.0,
          -0.6000000238418579,
          -0.19999998807907104,
          0.20000004768371582,
          0.6000000238418579,
          1.0,
          1.4000000953674316,
          1.7999999523162842,
          2.200000047683716
        ],
        [
          -2.200000047683716,
          -1.7999999523162842,
          -1.399999976158142,
          -1.0,
          -0.6000000238418579,
          -0.19999998807907104,
          0.20000004768371582,
          0.6000000238418579,
          1.0,
          1.4000000953674316,
          1.7999999523162842,
          2.200000047683716
        ],
        [
          -2.200000047683716,
          -1.7999999523162842,
          -1.399999976158142,
          -1.0,
          -0.6000000238418579,
          -0.19999998807907104,
          0.20000004768371582,
          0.6000000238418579,
          1.0,
          1.4000000953674316,
          1.7999999523162842,
          2.200000047683716
        ],
        [
          -2.200000047683716,
          -1.7999999523162842,
          -1.399999976158142,
          -1.0,
          -0.6000000238418579,
          -0.19999998807907104,
          0.20000004768371582,
          0.6000000238418579,
          1.0,
          1.4000000953674316,
          1.7999999523162842,
          2.200000047683716
        ],
        [
          -2.200000047683716,
          -1.7999999523162842,
          -1.399999976158142,
          -1.0,
          -0.6000000238418579,
          -0.19999998807907104,
          0.20000004768371582,
          0.6000000238418579,
          1.0,
          1.4000000953674316,
          1.7999999523162842,
          2.200000047683716
        ]
      ],
      "scaled_spline_weight": [
        [
          [
            0.0017406881088390946,
            0.004320753738284111,
            0.8177186250686646,
            0.39814144372940063,
            0.127326101064682,
            0.0666416734457016,
            -0.04152986779808998,
            -0.44806239008903503
          ],
          [
            0.030667301267385483,
            -0.03260049596428871,
            0.01661691442131996,
            -3.589566767914221e-05,
            -0.009312223643064499,
            0.028385061770677567,
            -0.14609287679195404,
            -0.1726505011320114
          ],
          [
            -0.09183865785598755,
            0.2192164957523346,
            -0.008529813960194588,
            0.025356823578476906,
            -0.034451182931661606,
            0.01568116806447506,
            0.017570190131664276,
            0.017967944964766502
          ],
          [
            -0.01240429189056158,
            -0.03209172189235687,
            0.05174317955970764,
            0.002151212887838483,
            0.06563770771026611,
            0.16307193040847778,
            0.009691989049315453,
            0.031104525551199913
          ],
          [
            0.038997530937194824,
            0.285149484872818,
            -0.023110903799533844,
            0.016382761299610138,
            -0.029691331088542938,
            0.04130671173334122,
            -0.1850561946630478,
            0.40022459626197815
          ],
          [
            0.005757042672485113,
            -0.0032886501867324114,
            0.003490982810035348,
            0.005092895124107599,
            -0.03634583204984665,
            0.06174447759985924,
            -0.03836250305175781,
            0.3146243691444397
          ],
          [
            -0.6203181743621826,
            0.07570675015449524,
            -0.05165305733680725,
            0.04192980378866196,
            -0.01788129098713398,
            0.0028375533875077963,
            -0.00742593128234148,
            0.023411521688103676
          ],
          [
            0.0007846393855288625,
            -0.5718293190002441,
            1.7447867393493652,
            0.07065223157405853,
            0.11732814460992813,
            0.032043613493442535,
            -0.12573771178722382,
            -0.07715438306331635
          ]
        ]
      ],
      "base_weight": [
        [
          0.3890478312969208,
          0.5240933299064636,
          0.06680262088775635,
          -0.3525395095348358,
          0.16344016790390015,
          -0.05398068577051163,
          0.0015884432941675186,
          0.36303892731666565
        ]
      ],
      "spline_order": 3
    }
  ],
  "norm": {
    "V_min": 2.63729989528656,
    "V_max": 4.673700213432312,
    "I_abs_max": 5.5236001968383786,
    "T_min": 14.349410438537598,
    "T_max": 49.52249011993408,
    "headroom": 0.2
  },
  "ocv_coefs": [
    -11.455894712858061,
    11.84665125007877,
    2.979793292498904,
    -5.757431996743345,
    2.050596133092709,
    3.5369930303119466
  ],
  "hp": {
    "inputs": [
      "I",
      "SoC",
      "T"
    ],
    "output": "V",
    "hidden": 8,
    "grid_size": 5,
    "spline_order": 3,
    "lr": 0.001,
    "batch_size": 128,
    "n_epochs": 500,
    "lr_patience": 30,
    "lr_factor": 0.5,
    "lr_min": 1e-06,
    "es_patience": 80,
    "headroom": 0.2,
    "val_split": 0.1
  }
}