{
  "layers": [
    {
      "grid": [
        [
          -1.600000023841858,
          -1.399999976158142,
          -1.2000000476837158,
          -1.0,
          -0.800000011920929,
          -0.6000000238418579,
          -0.3999999761581421,
          -0.19999998807907104,
          0.0,
          0.20000004768371582,
          0.3999999761581421,
          0.6000000238418579,
          0.8000000715255737,
          1.0,
          1.2000000476837158,
          1.4000000953674316,
          1.6000001430511475
        ],
        [
          -1.600000023841858,
          -1.399999976158142,
          -1.2000000476837158,
          -1.0,
          -0.800000011920929,
          -0.6000000238418579,
          -0.3999999761581421,
          -0.19999998807907104,
          0.0,
          0.20000004768371582,
          0.3999999761581421,
          0.6000000238418579,
          0.8000000715255737,
          1.0,
          1.2000000476837158,
          1.4000000953674316,
          1.6000001430511475
        ],
        [
          -1.600000023841858,
          -1.399999976158142,
          -1.2000000476837158,
          -1.0,
          -0.800000011920929,
          -0.6000000238418579,
          -0.3999999761581421,
          -0.19999998807907104,
          0.0,
          0.20000004768371582,
          0.3999999761581421,
          0.6000000238418579,
          0.8000000715255737,
          1.0,
          1.2000000476837158,
          1.4000000953674316,
          1.6000001430511475
        ],
        [
          -1.600000023841858,
          -1.399999976158142,
          -1.2000000476837158,
          -1.0,
          -0.800000011920929,
          -0.6000000238418579,
          -0.3999999761581421,
          -0.19999998807907104,
          0.0,
          0.20000004768371582,
          0.3999999761581421,
          0.6000000238418579,
          0.8000000715255737,
          1.0,
          1.2000000476837158,
          1.4000000953674316,
          1.6000001430511475
        ]
      ],
      "scaled_spline_weight": [
        [
          [
            -3.0996648092695978e-06,
            0.008506380952894688,
            0.03877357393503189,
            0.03062846139073372,
            0.028496935963630676,
            0.019839098677039146,
            0.0076466272585093975,
            -0.005773537792265415,
            -0.018884757533669472,
            0.003019533818587661,
            0.003028077306225896,
            -0.00036687019746750593,
            -1.5401064956677146e-06
          ],
          [
            -2.4956565130239262e-40,
            1.477122724229433e-40,
            -2.623761256814651e-38,
            5.632262739734631e-39,
            -6.961538666888545e-39,
            -0.13413499295711517,
            0.16656719148159027,
            0.15422484278678894,
            0.05858822166919708,
            0.06743160635232925,
            0.019845938310027122,
            0.013914287090301514,
            2.256393781863153e-05
          ],
          [
            2.949154250878281e-38,
            6.282166750608445e-39,
            4.215798022130426e-39,
            -3.1487316623225072e-40,
            -5.8079631463855336e-39,
            7.824985004845075e-06,
            0.0541597381234169,
            0.07725026458501816,
            0.03959199786186218,
            0.034944210201501846,
            -0.022156139835715294,
            -0.010654788464307785,
            -0.00025478494353592396
          ],
          [
            -0.000930930080357939,
            -0.003320424584671855,
            -0.001232344307936728,
            -0.004866824019700289,
            -0.007869439199566841,
            -0.01082706730812788,
            0.021453704684972763,
            0.03746013343334198,
            0.04075368493795395,
            0.0290236659348011,
            0.023434612900018692,
            0.011247566901147366,
            -0.008991495706140995
          ]
        ],
        [
          [
            0.0,
            -0.0,
            0.0,
            0.0,
            0.0,
            -0.0,
            -0.0,
            0.0,
            0.0,
            -0.0,
            0.0,
            0.0,
            0.0
          ],
          [
            0.0,
            -0.0,
            0.0,
            0.0,
            0.0,
            -0.0,
            -0.0,
            -0.0,
            -0.0,
            -0.0,
            0.0,
            -0.0,
            0.0
          ],
          [
            -0.0,
            0.0,
            0.0,
            0.0,
            0.0,
            0.0,
            0.0,
            0.0,
            0.0,
            0.0,
            0.0,
            0.0,
            0.0
          ],
          [
            0.0,
            -0.0,
            0.0,
            0.0,
            -0.0,
            0.0,
            0.0,
            0.0,
            0.0,
            0.0,
            -0.0,
            0.0,
            -0.0
          ]
        ],
        [
          [
            2.0332520307420054e-06,
            -0.0009567401139065623,
            -0.0029008600395172834,
            -0.010181260295212269,
            -0.0013442056952044368,
            0.02057759091258049,
            -0.013104301877319813,
            -0.04504482075572014,
            -0.016817720606923103,
            0.0067274258472025394,
            0.008138462901115417,
            0.0029470776207745075,
            1.1363177065959462e-07
          ],
          [
            1.2787549136196118e-40,
            3.4997723419189815e-39,
            -8.427914833195071e-39,
            -3.157110025840705e-39,
            1.872770937840759e-39,
            -0.005250956863164902,
            0.009458065964281559,
            -0.016838138923048973,
            -0.015738097950816154,
            0.003364270320162177,
            0.0011348542757332325,
            0.0002461111289449036,
            4.3977792074656463e-07
          ],
          [
            -1.7074938095570435e-38,
            -1.866593313560783e-38,
            2.4213577066275744e-38,
            1.98394995800029e-39,
            2.2525690645221072e-39,
            -9.16558974495274e-07,
            -0.01752714067697525,
            -0.02010894939303398,
            0.0395485982298851,
            -0.07424657046794891,
            -0.006432028487324715,
            -0.0034595374017953873,
            -0.00010870796540984884
          ],
          [
            6.523484389056682e-28,
            1.1669873978873076e-27,
            -1.7250738678927404e-28,
            7.772899662633819e-28,
            6.186628938058152e-27,
            -2.367681266103314e-27,
            7.06548055697111e-28,
            -1.0188770295951126e-26,
            5.4123230557988524e-27,
            4.3835679315189776e-27,
            5.92683947748778e-27,
            6.068137253787694e-27,
            1.5336413666161316e-28
          ]
        ],
        [
          [
            0.0,
            0.0,
            0.0,
            -0.0,
            0.0,
            0.0,
            -0.0,
            0.0,
            -0.0,
            0.0,
            0.0,
            0.0,
            0.0
          ],
          [
            0.0,
            0.0,
            0.0,
            -0.0,
            0.0,
            0.0,
            0.0,
            -0.0,
            -0.0,
            -0.0,
            -0.0,
            -0.0,
            -0.0
          ],
          [
            0.0,
            0.0,
            -0.0,
            0.0,
            -0.0,
            0.0,
            -0.0,
            0.0,
            0.0,
            -0.0,
            0.0,
            0.0,
            -0.0
          ],
          [
            -0.0,
            -0.0,
            0.0,
            0.0,
            -0.0,
            -0.0,
            -0.0,
            0.0,
            0.0,
            0.0,
            0.0,
            0.0,
            0.0
          ]
        ],
        [
          [
            -0.0,
            0.0,
            0.0,
            0.0,
            -0.0,
            -0.0,
            -0.0,
            0.0,
            0.0,
            0.0,
            0.0,
            -0.0,
            -0.0
          ],
          [
            0.0,
            -0.0,
            0.0,
            0.0,
            -0.0,
            0.0,
            0.0,
            -0.0,
            -0.0,
            0.0,
            -0.0,
            0.0,
            0.0
          ],
          [
            0.0,
            -0.0,
            -0.0,
            0.0,
            0.0,
            -0.0,
            0.0,
            0.0,
            0.0,
            0.0,
            -0.0,
            0.0,
            -0.0
          ],
          [
            -0.0,
            0.0,
            0.0,
            0.0,
            0.0,
            -0.0,
            0.0,
            -0.0,
            -0.0,
            -0.0,
            -0.0,
            -0.0,
            -0.0
          ]
        ],
        [
          [
            -0.0,
            -0.0,
            0.0,
            0.0,
            0.0,
            0.0,
            0.0,
            -0.0,
            -0.0,
            0.0,
            -0.0,
            -0.0,
            0.0
          ],
          [
            0.0,
            -0.0,
            0.0,
            -0.0,
            -0.0,
            -0.0,
            -0.0,
            0.0,
            0.0,
            -0.0,
            -0.0,
            -0.0,
            -0.0
          ],
          [
            0.0,
            0.0,
            -0.0,
            -0.0,
            -0.0,
            -0.0,
            -0.0,
            -0.0,
            -0.0,
            -0.0,
            0.0,
            0.0,
            -0.0
          ],
          [
            -0.0,
            -0.0,
            0.0,
            -0.0,
            -0.0,
            0.0,
            -0.0,
            0.0,
            0.0,
            -0.0,
            -0.0,
            0.0,
            -0.0
          ]
        ],
        [
          [
            -0.0,
            -0.0,
            0.0,
            -0.0,
            -0.0,
            0.0,
            0.0,
            -0.0,
            -0.0,
            -0.0,
            0.0,
            -0.0,
            0.0
          ],
          [
            -0.0,
            -0.0,
            0.0,
            -0.0,
            0.0,
            -0.0,
            0.0,
            0.0,
            -0.0,
            -0.0,
            -0.0,
            -0.0,
            0.0
          ],
          [
            -0.0,
            -0.0,
            -0.0,
            0.0,
            -0.0,
            0.0,
            0.0,
            -0.0,
            -0.0,
            -0.0,
            -0.0,
            -0.0,
            -0.0
          ],
          [
            -0.0,
            -0.0,
            -0.0,
            -0.0,
            -0.0,
            -0.0,
            -0.0,
            0.0,
            0.0,
            0.0,
            0.0,
            -0.0,
            -0.0
          ]
        ],
        [
          [
            -3.920229119103169e-06,
            0.005921900272369385,
            0.026081956923007965,
            0.02895957976579666,
            0.05049155279994011,
            0.05669014900922775,
            -0.010440375655889511,
            -0.05565713718533516,
            -0.054804060608148575,
            -0.008924315683543682,
            0.02776513062417507,
            0.009411360137164593,
            4.676089247368509e-06
          ],
          [
            1.8899207290963983e-38,
            -9.270818280261878e-39,
            5.286233103446582e-39,
            -2.6670843606571027e-39,
            2.196777767463479e-39,
            -0.003817277727648616,
            0.05678081884980202,
            -0.010511870495975018,
            -0.004529072903096676,
            -0.0015722097596153617,
            0.0012687159469351172,
            1.6967334886430763e-05,
            4.04588126912131e-06
          ],
          [
            -5.6960022016829094e-39,
            -5.1111899057754475e-39,
            -5.949040270579899e-39,
            -3.124290214507754e-38,
            -2.0663641041930862e-38,
            7.5554785325948615e-06,
            0.0153650576248765,
            0.047941625118255615,
            -0.057373739778995514,
            0.018180295825004578,
            0.029144732281565666,
            0.0006721514509990811,
            -7.302206358872354e-05
          ],
          [
            -0.00026012491434812546,
            -0.001614059554412961,
            -0.0027771408203989267,
            -0.00417291559278965,
            -0.0021211672574281693,
            0.003743486711755395,
            0.017788205295801163,
            0.010493540205061436,
            0.002953963354229927,
            -0.003326589707285166,
            -0.004813964944332838,
            -0.002957973163574934,
            -0.000586173846386373
          ]
        ],
        [
          [
            -0.0,
            0.0,
            0.0,
            -0.0,
            0.0,
            -0.0,
            -0.0,
            0.0,
            0.0,
            0.0,
            -0.0,
            -0.0,
            0.0
          ],
          [
            -0.0,
            0.0,
            -0.0,
            0.0,
            -0.0,
            0.0,
            0.0,
            0.0,
            0.0,
            -0.0,
            -0.0,
            -0.0,
            0.0
          ],
          [
            0.0,
            -0.0,
            -0.0,
            0.0,
            0.0,
            0.0,
            0.0,
            -0.0,
            -0.0,
            0.0,
            0.0,
            -0.0,
            -0.0
          ],
          [
            -0.0,
            -0.0,
            -0.0,
            0.0,
            0.0,
            0.0,
            0.0,
            0.0,
            0.0,
            0.0,
            -0.0,
            0.0,
            -0.0
          ]
        ],
        [
          [
            3.5421741984009714e-08,
            -3.618517075665295e-05,
            -0.00021792358893435448,
            -0.0003826953179668635,
            -0.0004471382999327034,
            0.0002796993649099022,
            0.0002043609565589577,
            -6.49035646347329e-05,
            -0.00019953046285081655,
            -0.00015991044347174466,
            9.452148515265435e-05,
            6.173547444632277e-05,
            -2.920202391010207e-08
          ],
          [
            -1.3705287526451727e-39,
            -1.0034298932967682e-38,
            1.7768394462715464e-39,
            -5.154519455590835e-39,
            3.2337120063930214e-39,
            0.0006301864050328732,
            -0.022515125572681427,
            0.0021557044237852097,
            -0.07550960034132004,
            -0.016752751544117928,
            0.004766276106238365,
            -0.0009431194048374891,
            3.3172250368807e-06
          ],
          [
            -1.8190438935499277e-38,
            -1.3339688757109383e-39,
            -2.9955949635441625e-39,
            -1.2593707519626066e-39,
            -1.882179255730236e-39,
            -8.751859240874182e-06,
            -0.028013400733470917,
            -0.0557015985250473,
            -0.040209174156188965,
            -0.0007174174534156919,
            0.021519063040614128,
            -0.00010921079228864983,
            2.8997574190725572e-05
          ],
          [
            0.0,
            0.0,
            0.0,
            0.0,
            -0.0,
            0.0,
            -0.0,
            -0.0,
            0.0,
            0.0,
            -0.0,
            -0.0,
            -0.0
          ]
        ],
        [
          [
            -0.0,
            -0.0,
            0.0,
            0.0,
            -0.0,
            -0.0,
            -0.0,
            0.0,
            -0.0,
            -0.0,
            0.0,
            0.0,
            -0.0
          ],
          [
            -0.0,
            0.0,
            -0.0,
            0.0,
            0.0,
            -0.0,
            -0.0,
            -0.0,
            -0.0,
            -0.0,
            -0.0,
            0.0,
            -0.0
          ],
          [
            -0.0,
            -0.0,
            0.0,
            -0.0,
            -0.0,
            0.0,
            0.0,
            -0.0,
            0.0,
            0.0,
            -0.0,
            0.0,
            -0.0
          ],
          [
            0.0,
            -0.0,
            -0.0,
            -0.0,
            0.0,
            -0.0,
            -0.0,
            -0.0,
            0.0,
            -0.0,
            0.0,
            -0.0,
            0.0
          ]
        ],
        [
          [
            -0.0,
            0.0,
            0.0,
            0.0,
            0.0,
            -0.0,
            0.0,
            0.0,
            0.0,
            0.0,
            0.0,
            0.0,
            -0.0
          ],
          [
            -0.0,
            0.0,
            -0.0,
            0.0,
            -0.0,
            0.0,
            0.0,
            0.0,
            -0.0,
            0.0,
            0.0,
            0.0,
            0.0
          ],
          [
            -0.0,
            -0.0,
            0.0,
            -0.0,
            0.0,
            -0.0,
            0.0,
            0.0,
            0.0,
            0.0,
            -0.0,
            -0.0,
            0.0
          ],
          [
            -0.0,
            0.0,
            -0.0,
            0.0,
            0.0,
            -0.0,
            -0.0,
            -0.0,
            -0.0,
            0.0,
            0.0,
            0.0,
            -0.0
          ]
        ],
        [
          [
            0.0,
            -0.0,
            -0.0,
            0.0,
            0.0,
            -0.0,
            -0.0,
            -0.0,
            0.0,
            0.0,
            0.0,
            -0.0,
            -0.0
          ],
          [
            -0.0,
            0.0,
            0.0,
            -0.0,
            -0.0,
            -0.0,
            -0.0,
            -0.0,
            -0.0,
            0.0,
            0.0,
            0.0,
            0.0
          ],
          [
            -0.0,
            0.0,
            -0.0,
            -0.0,
            -0.0,
            -0.0,
            0.0,
            0.0,
            0.0,
            0.0,
            -0.0,
            0.0,
            -0.0
          ],
          [
            0.0,
            0.0,
            0.0,
            -0.0,
            0.0,
            0.0,
            -0.0,
            -0.0,
            -0.0,
            0.0,
            -0.0,
            0.0,
            0.0
          ]
        ],
        [
          [
            0.0,
            0.0,
            0.0,
            -0.0,
            -0.0,
            -0.0,
            0.0,
            0.0,
            0.0,
            0.0,
            -0.0,
            -0.0,
            0.0
          ],
          [
            0.0,
            0.0,
            -0.0,
            0.0,
            -0.0,
            -0.0,
            -0.0,
            -0.0,
            -0.0,
            0.0,
            0.0,
            -0.0,
            -0.0
          ],
          [
            0.0,
            -0.0,
            0.0,
            0.0,
            0.0,
            0.0,
            0.0,
            -0.0,
            -0.0,
            -0.0,
            -0.0,
            -0.0,
            0.0
          ],
          [
            -0.0,
            0.0,
            -0.0,
            -0.0,
            -0.0,
            0.0,
            0.0,
            -0.0,
            -0.0,
            -0.0,
            0.0,
            -0.0,
            -0.0
          ]
        ],
        [
          [
            -0.0,
            0.0,
            0.0,
            -0.0,
            -0.0,
            0.0,
            -0.0,
            0.0,
            0.0,
            -0.0,
            -0.0,
            -0.0,
            0.0
          ],
          [
            -0.0,
            -0.0,
            -0.0,
            0.0,
            -0.0,
            0.0,
            -0.0,
            0.0,
            0.0,
            0.0,
            0.0,
            -0.0,
            -0.0
          ],
          [
            0.0,
            0.0,
            0.0,
            -0.0,
            0.0,
            -0.0,
            -0.0,
            0.0,
            0.0,
            0.0,
            0.0,
            -0.0,
            -0.0
          ],
          [
            -0.0,
            0.0,
            -0.0,
            0.0,
            -0.0,
            0.0,
            0.0,
            0.0,
            -0.0,
            -0.0,
            -0.0,
            -0.0,
            -0.0
          ]
        ],
        [
          [
            0.0,
            0.0,
            -0.0,
            -0.0,
            0.0,
            0.0,
            -0.0,
            -0.0,
            0.0,
            0.0,
            -0.0,
            0.0,
            0.0
          ],
          [
            -0.0,
            -0.0,
            0.0,
            -0.0,
            -0.0,
            -0.0,
            0.0,
            0.0,
            0.0,
            -0.0,
            -0.0,
            -0.0,
            -0.0
          ],
          [
            0.0,
            -0.0,
            -0.0,
            -0.0,
            -0.0,
            -0.0,
            -0.0,
            0.0,
            -0.0,
            -0.0,
            0.0,
            -0.0,
            0.0
          ],
          [
            -0.0,
            -0.0,
            0.0,
            0.0,
            -0.0,
            0.0,
            -0.0,
            0.0,
            -0.0,
            -0.0,
            0.0,
            -0.0,
            0.0
          ]
        ]
      ],
      "base_weight": [
        [
          -0.36869314312934875,
          0.3203752338886261,
          0.2524372935295105,
          0.1141243651509285
        ],
        [
          0.00010884604853345081,
          -7.581112731713802e-05,
          -1.5074951079441234e-05,
          0.00014623269089497626
        ],
        [
          0.024715950712561607,
          -0.12487292289733887,
          -0.32406577467918396,
          0.05010288953781128
        ],
        [
          -6.612938886974007e-05,
          0.0010003977222368121,
          0.00018026106408797204,
          -0.001459090388379991
        ],
        [
          3.6530764191411436e-05,
          0.0016012084670364857,
          0.0006626208196394145,
          -0.0014857936184853315
        ],
        [
          0.00018552484107203782,
          0.00025316208484582603,
          0.00032278039725497365,
          -0.0005869874148629606
        ],
        [
          0.0002581620356068015,
          -0.0013402184704318643,
          -0.0005115211242809892,
          0.0010953854070976377
        ],
        [
          -0.2642057538032532,
          -0.04252989962697029,
          0.22596688568592072,
          -0.03191499039530754
        ],
        [
          0.00013829766248818487,
          0.0004003968497272581,
          0.0002510934427846223,
          -0.0006446726620197296
        ],
        [
          0.26580309867858887,
          -0.2885509431362152,
          0.15012812614440918,
          0.018886366859078407
        ],
        [
          1.6944599337875843e-05,
          0.001622287672944367,
          0.0006414612289518118,
          -0.0016282021533697844
        ],
        [
          -0.0006949189701117575,
          0.00046854009269736707,
          0.00012422355939634144,
          -0.0005903061828576028
        ],
        [
          -0.00017672378453426063,
          9.753278573043644e-05,
          -3.5518187360139564e-05,
          -0.0001749408256728202
        ],
        [
          0.0005855979979969561,
          -0.0004429614928085357,
          -0.00019451725529506803,
          0.00040401940350420773
        ],
        [
          0.0008174796821549535,
          -0.0006614624289795756,
          -0.0010478636249899864,
          0.0013921610079705715
        ],
        [
          -0.0014188545756042004,
          0.0018782883416861296,
          0.0006317663937807083,
          -0.002046432113274932
        ]
      ],
      "spline_order": 3
    },
    {
      "grid": [
        [
          -1.600000023841858,
          -1.399999976158142,
          -1.2000000476837158,
          -1.0,
          -0.800000011920929,
          -0.6000000238418579,
          -0.3999999761581421,
          -0.19999998807907104,
          0.0,
          0.20000004768371582,
          0.3999999761581421,
          0.6000000238418579,
          0.8000000715255737,
          1.0,
          1.2000000476837158,
          1.4000000953674316,
          1.6000001430511475
        ],
        [
          -1.600000023841858,
          -1.399999976158142,
          -1.2000000476837158,
          -1.0,
          -0.800000011920929,
          -0.6000000238418579,
          -0.3999999761581421,
          -0.19999998807907104,
          0.0,
          0.20000004768371582,
          0.3999999761581421,
          0.6000000238418579,
          0.8000000715255737,
          1.0,
          1.2000000476837158,
          1.4000000953674316,
          1.6000001430511475
        ],
        [
          -1.600000023841858,
          -1.399999976158142,
          -1.2000000476837158,
          -1.0,
          -0.800000011920929,
          -0.6000000238418579,
          -0.3999999761581421,
          -0.19999998807907104,
          0.0,
          0.20000004768371582,
          0.3999999761581421,
          0.6000000238418579,
          0.8000000715255737,
          1.0,
          1.2000000476837158,
          1.4000000953674316,
          1.6000001430511475
        ],
        [
          -1.600000023841858,
          -1.399999976158142,
          -1.2000000476837158,
          -1.0,
          -0.800000011920929,
          -0.6000000238418579,
          -0.3999999761581421,
          -0.19999998807907104,
          0.0,
          0.20000004768371582,
          0.3999999761581421,
          0.6000000238418579,
          0.8000000715255737,
          1.0,
          1.2000000476837158,
          1.4000000953674316,
          1.6000001430511475
        ],
        [
          -1.600000023841858,
          -1.399999976158142,
          -1.2000000476837158,
          -1.0,
          -0.800000011920929,
          -0.6000000238418579,
          -0.3999999761581421,
          -0.19999998807907104,
          0.0,
          0.20000004768371582,
          0.3999999761581421,
          0.6000000238418579,
          0.8000000715255737,
          1.0,
          1.2000000476837158,
          1.4000000953674316,
          1.6000001430511475
        ],
        [
          -1.600000023841858,
          -1.399999976158142,
          -1.2000000476837158,
          -1.0,
          -0.800000011920929,
          -0.6000000238418579,
          -0.3999999761581421,
          -0.19999998807907104,
          0.0,
          0.20000004768371582,
          0.3999999761581421,
          0.6000000238418579,
          0.8000000715255737,
          1.0,
          1.2000000476837158,
          1.4000000953674316,
          1.6000001430511475
        ],
        [
          -1.600000023841858,
          -1.399999976158142,
          -1.2000000476837158,
          -1.0,
          -0.800000011920929,
          -0.6000000238418579,
          -0.3999999761581421,
          -0.19999998807907104,
          0.0,
          0.20000004768371582,
          0.3999999761581421,
          0.6000000238418579,
          0.8000000715255737,
          1.0,
          1.2000000476837158,
          1.4000000953674316,
          1.6000001430511475
        ],
        [
          -1.600000023841858,
          -1.399999976158142,
          -1.2000000476837158,
          -1.0,
          -0.800000011920929,
          -0.6000000238418579,
          -0.3999999761581421,
          -0.19999998807907104,
          0.0,
          0.20000004768371582,
          0.3999999761581421,
          0.6000000238418579,
          0.8000000715255737,
          1.0,
          1.2000000476837158,
          1.4000000953674316,
          1.6000001430511475
        ],
        [
          -1.600000023841858,
          -1.399999976158142,
          -1.2000000476837158,
          -1.0,
          -0.800000011920929,
          -0.6000000238418579,
          -0.3999999761581421,
          -0.19999998807907104,
          0.0,
          0.20000004768371582,
          0.3999999761581421,
          0.6000000238418579,
          0.8000000715255737,
          1.0,
          1.2000000476837158,
          1.4000000953674316,
          1.6000001430511475
        ],
        [
          -1.600000023841858,
          -1.399999976158142,
          -1.2000000476837158,
          -1.0,
          -0.800000011920929,
          -0.6000000238418579,
          -0.3999999761581421,
          -0.19999998807907104,
          0.0,
          0.20000004768371582,
          0.3999999761581421,
          0.6000000238418579,
          0.8000000715255737,
          1.0,
          1.2000000476837158,
          1.4000000953674316,
          1.6000001430511475
        ],
        [
          -1.600000023841858,
          -1.399999976158142,
          -1.2000000476837158,
          -1.0,
          -0.800000011920929,
          -0.6000000238418579,
          -0.3999999761581421,
          -0.19999998807907104,
          0.0,
          0.20000004768371582,
          0.3999999761581421,
          0.6000000238418579,
          0.8000000715255737,
          1.0,
          1.2000000476837158,
          1.4000000953674316,
          1.6000001430511475
        ],
        [
          -1.600000023841858,
          -1.399999976158142,
          -1.2000000476837158,
          -1.0,
          -0.800000011920929,
          -0.6000000238418579,
          -0.3999999761581421,
          -0.19999998807907104,
          0.0,
          0.20000004768371582,
          0.3999999761581421,
          0.6000000238418579,
          0.8000000715255737,
          1.0,
          1.2000000476837158,
          1.4000000953674316,
          1.6000001430511475
        ],
        [
          -1.600000023841858,
          -1.399999976158142,
          -1.2000000476837158,
          -1.0,
          -0.800000011920929,
          -0.6000000238418579,
          -0.3999999761581421,
          -0.19999998807907104,
          0.0,
          0.20000004768371582,
          0.3999999761581421,
          0.6000000238418579,
          0.8000000715255737,
          1.0,
          1.2000000476837158,
          1.4000000953674316,
          1.6000001430511475
        ],
        [
          -1.600000023841858,
          -1.399999976158142,
          -1.2000000476837158,
          -1.0,
          -0.800000011920929,
          -0.6000000238418579,
          -0.3999999761581421,
          -0.19999998807907104,
          0.0,
          0.20000004768371582,
          0.3999999761581421,
          0.6000000238418579,
          0.8000000715255737,
          1.0,
          1.2000000476837158,
          1.4000000953674316,
          1.6000001430511475
        ],
        [
          -1.600000023841858,
          -1.399999976158142,
          -1.2000000476837158,
          -1.0,
          -0.800000011920929,
          -0.6000000238418579,
          -0.3999999761581421,
          -0.19999998807907104,
          0.0,
          0.20000004768371582,
          0.3999999761581421,
          0.6000000238418579,
          0.8000000715255737,
          1.0,
          1.2000000476837158,
          1.4000000953674316,
          1.6000001430511475
        ],
        [
          -1.600000023841858,
          -1.399999976158142,
          -1.2000000476837158,
          -1.0,
          -0.800000011920929,
          -0.6000000238418579,
          -0.3999999761581421,
          -0.19999998807907104,
          0.0,
          0.20000004768371582,
          0.3999999761581421,
          0.6000000238418579,
          0.8000000715255737,
          1.0,
          1.2000000476837158,
          1.4000000953674316,
          1.6000001430511475
        ]
      ],
      "scaled_spline_weight": [
        [
          [
            -2.228870304893446e-39,
            -3.425020075339574e-39,
            -4.535596752464779e-40,
            -5.6018643721480325e-39,
            1.224083254033979e-38,
            0.010392796248197556,
            0.0358903631567955,
            -0.07340408861637115,
            0.2668505609035492,
            0.05401081591844559,
            -2.1937390556558967e-05,
            -3.8595445122466636e-39,
            9.961451031001293e-39
          ],
          [
            -9.529119626190871e-39,
            1.2149818205081894e-39,
            -7.293212000409586e-40,
            1.848059039422391e-39,
            2.6470541253723057e-13,
            0.0034827159252017736,
            0.014535020105540752,
            0.003481358289718628,
            4.6909138899653424e-12,
            9.605039174391061e-39,
            7.025900305354984e-40,
            0.0,
            0.0
          ],
          [
            -1.7212977204694144e-38,
            8.796833278599401e-40,
            -8.423563801463343e-39,
            -0.0009917757706716657,
            -0.05684981495141983,
            0.14574885368347168,
            0.06361939758062363,
            -0.010438577271997929,
            3.1748609785609005e-07,
            6.997944400991704e-39,
            -3.606448709852944e-38,
            0.0,
            0.0
          ],
          [
            -1.5288325993808687e-38,
            6.888082601388638e-40,
            1.2221410543624249e-39,
            1.9521208646816162e-39,
            1.1620348772112266e-07,
            0.0061648329719901085,
            0.023139815777540207,
            0.006511279381811619,
            2.569450874290169e-09,
            -3.7777703390625246e-39,
            5.6450958310709174e-39,
            0.0,
            0.0
          ],
          [
            2.1750800620418735e-39,
            1.4605383569041487e-39,
            -2.291520957934944e-39,
            2.2961648610457166e-39,
            2.328368680082349e-07,
            0.007823450490832329,
            0.02621438354253769,
            0.007951963692903519,
            6.0439142579582494e-09,
            1.8495752443607904e-39,
            -1.6408664116036379e-38,
            0.0,
            0.0
          ],
          [
            -2.9247691352617933e-39,
            -1.834425526403282e-38,
            -1.0595273740698515e-38,
            -2.480655612963329e-39,
            1.4134369230589527e-09,
            0.0061573428101837635,
            0.02084364742040634,
            0.006793293636292219,
            1.3463180570383315e-10,
            -2.6866016456682188e-39,
            -1.1893690273071068e-38,
            0.0,
            0.0
          ],
          [
            1.636844825140872e-38,
            3.8773914494883045e-39,
            -3.413851726578905e-39,
            1.8051919181002304e-39,
            1.0980829578954854e-08,
            0.008134356699883938,
            0.027395766228437424,
            0.008120203390717506,
            4.7484803644692875e-08,
            5.302457337066535e-40,
            3.417055094868352e-39,
            -0.0,
            -0.0
          ],
          [
            -1.4749138574601177e-38,
            4.860796087080639e-39,
            -9.20401698116905e-39,
            -2.837433208472749e-39,
            0.006209752522408962,
            0.113820381462574,
            -0.031666312366724014,
            0.03518984094262123,
            0.1576167196035385,
            0.001192648895084858,
            5.065077377209911e-39,
            0.0,
            0.0
          ],
          [
            8.272603319200094e-39,
            -1.433619133144776e-38,
            -2.6649655973790436e-39,
            -2.4476536328300153e-39,
            1.5034915534783977e-08,
            0.007207065355032682,
            0.024199873208999634,
            0.007713671773672104,
            4.85413653716904e-10,
            -1.0591868585430206e-39,
            -1.4654036651722845e-39,
            7.133225754737622e-40,
            1.0544804575207392e-38
          ],
          [
            -1.1006484775054632e-38,
            -5.2205178106636055e-39,
            -5.5339294225975654e-39,
            1.1827228263427969e-07,
            -0.00276121380738914,
            0.2596718966960907,
            0.016304438933730125,
            0.025770556181669235,
            0.0034850535448640585,
            9.341137229057495e-06,
            -8.938100979384915e-39,
            0.0,
            0.0
          ],
          [
            -1.8437166957411412e-38,
            1.1529688983978054e-38,
            2.73497727125364e-39,
            -1.1786265331497463e-39,
            1.9763081127166515e-07,
            0.006608935073018074,
            0.02498803846538067,
            0.006761652883142233,
            6.355139969826951e-09,
            4.830191728619785e-40,
            -1.8738415298675032e-39,
            -1.235217971631504e-39,
            -3.864783967204774e-39
          ],
          [
            2.0785908536838596e-39,
            9.864860929153847e-41,
            -1.892873965609963e-40,
            8.745587793759043e-40,
            2.535013310378531e-10,
            0.003019509604200721,
            0.011987418867647648,
            0.0030788728035986423,
            6.838520721919039e-11,
            -1.0033170887703901e-39,
            -7.661628780963688e-39,
            -0.0,
            -0.0
          ],
          [
            4.174377040823449e-39,
            2.5673189164894974e-41,
            -2.0020323133839375e-39,
            3.1854456820878174e-40,
            -2.6495717078689474e-11,
            0.0025309165939688683,
            0.010198322124779224,
            0.0025202156975865364,
            -8.883914654270186e-13,
            1.576343063294416e-39,
            5.3513850742469e-39,
            0.0,
            0.0
          ],
          [
            -2.078347027751067e-39,
            -2.16266595894642e-40,
            -1.4778773234524718e-38,
            1.1507995482451841e-39,
            2.5863933217351587e-10,
            0.004393290262669325,
            0.0171860009431839,
            0.004345370456576347,
            4.15181278246024e-10,
            8.5024344842294e-40,
            -8.735540483769834e-40,
            0.0,
            0.0
          ],
          [
            -1.0808112760549418e-38,
            -3.93835634047722e-39,
            -4.686698765872924e-40,
            -3.4873610414204566e-39,
            1.2655908543379724e-09,
            0.007468233350664377,
            0.023998375982046127,
            0.004926725756376982,
            -1.0309104681027748e-08,
            -1.2478058357365339e-39,
            -5.018283817590712e-39,
            -0.0,
            -0.0
          ],
          [
            -1.5322425190639567e-38,
            -1.4225421490439813e-39,
            1.1866695659454315e-38,
            1.2705194825447749e-39,
            2.0368977615703443e-09,
            0.005406537093222141,
            0.021831804886460304,
            0.005413070786744356,
            4.427585764688047e-08,
            1.8719693951191653e-39,
            -8.243606250077821e-39,
            0.0,
            0.0
          ]
        ]
      ],
      "base_weight": [
        [
          0.2836393117904663,
          0.00010464699880685657,
          -0.09661643207073212,
          -0.003993349615484476,
          -0.0025018183514475822,
          -0.0018919113790616393,
          0.0017756081651896238,
          0.1791609823703766,
          -0.0025445716455578804,
          -0.07076405733823776,
          -0.002793180290609598,
          -0.0007986555574461818,
          -0.00023434100148733705,
          0.0006268385914154351,
          0.0012777901720255613,
          -0.0019559054635465145
        ]
      ],
      "spline_order": 3
    }
  ],
  "norm": {
    "V_min": 2.524099898338318,
    "V_max": 4.8149000883102415,
    "I_abs_max": 5.526000022888184,
    "T_min": 14.349410438537598,
    "T_max": 49.52249011993408,
    "headroom": 0.2
  },
  "ocv_coefs": [
    -11.121092801059172,
    11.930256721509783,
    3.0139234669540036,
    -6.310094275620657,
    2.2867393954090294,
    3.5224513281394403
  ],
  "hp": {
    "inputs": [
      "I",
      "SoC",
      "T",
      "dI"
    ],
    "output": "V",
    "hidden": 16,
    "grid_size": 10,
    "spline_order": 3,
    "lr": 0.0003,
    "weight_decay": 0.0001,
    "batch_size": 256,
    "n_epochs": 500,
    "lr_patience": 30,
    "lr_factor": 0.5,
    "lr_min": 1e-06,
    "es_patience": 80,
    "headroom": 0.2,
    "val_split": 0.1
  }
}