{
  "layers": [
    {
      "grid": [
        [
          -1.600000023841858,
          -1.399999976158142,
          -1.2000000476837158,
          -1.0,
          -0.800000011920929,
          -0.6000000238418579,
          -0.3999999761581421,
          -0.19999998807907104,
          0.0,
          0.20000004768371582,
          0.3999999761581421,
          0.6000000238418579,
          0.8000000715255737,
          1.0,
          1.2000000476837158,
          1.4000000953674316,
          1.6000001430511475
        ],
        [
          -1.600000023841858,
          -1.399999976158142,
          -1.2000000476837158,
          -1.0,
          -0.800000011920929,
          -0.6000000238418579,
          -0.3999999761581421,
          -0.19999998807907104,
          0.0,
          0.20000004768371582,
          0.3999999761581421,
          0.6000000238418579,
          0.8000000715255737,
          1.0,
          1.2000000476837158,
          1.4000000953674316,
          1.6000001430511475
        ],
        [
          -1.600000023841858,
          -1.399999976158142,
          -1.2000000476837158,
          -1.0,
          -0.800000011920929,
          -0.6000000238418579,
          -0.3999999761581421,
          -0.19999998807907104,
          0.0,
          0.20000004768371582,
          0.3999999761581421,
          0.6000000238418579,
          0.8000000715255737,
          1.0,
          1.2000000476837158,
          1.4000000953674316,
          1.6000001430511475
        ],
        [
          -1.600000023841858,
          -1.399999976158142,
          -1.2000000476837158,
          -1.0,
          -0.800000011920929,
          -0.6000000238418579,
          -0.3999999761581421,
          -0.19999998807907104,
          0.0,
          0.20000004768371582,
          0.3999999761581421,
          0.6000000238418579,
          0.8000000715255737,
          1.0,
          1.2000000476837158,
          1.4000000953674316,
          1.6000001430511475
        ]
      ],
      "scaled_spline_weight": [
        [
          [
            6.993385568421218e-07,
            -0.002476808615028858,
            -0.008839108049869537,
            -0.008363750763237476,
            0.004117199685424566,
            0.052686337381601334,
            0.017905758693814278,
            -0.011200329288840294,
            -0.002977294148877263,
            0.009138335473835468,
            -0.005753471050411463,
            -0.0027440774720162153,
            -3.3911246646312065e-06
          ],
          [
            1.0029404197431796e-38,
            2.6666765828039842e-39,
            8.954157057189149e-41,
            -5.551519922220235e-39,
            2.1729210814978882e-38,
            -0.0002405241975793615,
            0.055917974561452866,
            0.004059030208736658,
            -0.016723303124308586,
            0.005968549754470587,
            -0.0009177728788927197,
            -0.0009963663760572672,
            -6.135605872259475e-06
          ],
          [
            0.0,
            -0.0,
            0.0,
            -0.0,
            -0.0,
            -1.7438354075451412e-31,
            2.8687942264925272e-28,
            -4.228200517760851e-30,
            -3.0441227034272776e-28,
            2.9691222367532884e-29,
            -2.728579785786331e-28,
            -3.2473005486550426e-29,
            -4.726468240341357e-32
          ],
          [
            -2.859109008568339e-05,
            -0.00011652669491013512,
            -0.0003153807483613491,
            -0.0004782452597282827,
            -0.0007175820646807551,
            0.00019299384439364076,
            0.002417161362245679,
            0.0009347840677946806,
            0.00010012734855990857,
            -9.391970525030047e-05,
            -0.0002079170517390594,
            -0.00014552516222465783,
            -0.0001931601291289553
          ]
        ],
        [
          [
            -0.0,
            0.0,
            0.0,
            -0.0,
            -0.0,
            0.0,
            -0.0,
            -0.0,
            -0.0,
            0.0,
            0.0,
            -0.0,
            0.0
          ],
          [
            0.0,
            -0.0,
            0.0,
            -0.0,
            -0.0,
            0.0,
            0.0,
            0.0,
            0.0,
            0.0,
            0.0,
            0.0,
            0.0
          ],
          [
            4.484155085839415e-44,
            2.1019476964872256e-44,
            -2.802596928649634e-45,
            3.377129299022809e-43,
            -5.324934164434305e-44,
            3.528715753097129e-15,
            2.3482518013429043e-11,
            3.937445161583675e-11,
            -1.973710604674661e-11,
            4.8662629481555086e-11,
            -2.9717753865371455e-13,
            -2.03139827008314e-12,
            -3.1739175801730624e-15
          ],
          [
            -0.0,
            -0.0,
            0.0,
            -0.0,
            -0.0,
            -0.0,
            0.0,
            -0.0,
            -0.0,
            0.0,
            0.0,
            0.0,
            0.0
          ]
        ],
        [
          [
            -0.0,
            -0.0,
            -0.0,
            -0.0,
            0.0,
            -0.0,
            0.0,
            -0.0,
            -0.0,
            -0.0,
            -0.0,
            -0.0,
            -0.0
          ],
          [
            -0.0,
            -0.0,
            0.0,
            0.0,
            0.0,
            -0.0,
            -0.0,
            0.0,
            -0.0,
            0.0,
            0.0,
            0.0,
            0.0
          ],
          [
            0.0,
            -0.0,
            0.0,
            0.0,
            -0.0,
            -0.0,
            0.0,
            -0.0,
            0.0,
            0.0,
            -0.0,
            -0.0,
            -0.0
          ],
          [
            -0.0,
            -0.0,
            -0.0,
            0.0,
            0.0,
            0.0,
            -0.0,
            -0.0,
            0.0,
            0.0,
            0.0,
            0.0,
            -0.0
          ]
        ],
        [
          [
            0.0,
            -0.0,
            0.0,
            0.0,
            0.0,
            0.0,
            -0.0,
            -0.0,
            0.0,
            -0.0,
            0.0,
            -0.0,
            -0.0
          ],
          [
            0.0,
            0.0,
            0.0,
            -0.0,
            -0.0,
            -0.0,
            -0.0,
            0.0,
            0.0,
            0.0,
            0.0,
            0.0,
            -0.0
          ],
          [
            -0.0,
            0.0,
            0.0,
            -0.0,
            0.0,
            -0.0,
            -0.0,
            0.0,
            0.0,
            -0.0,
            0.0,
            0.0,
            -0.0
          ],
          [
            -0.0,
            -0.0,
            -0.0,
            0.0,
            0.0,
            0.0,
            0.0,
            0.0,
            -0.0,
            -0.0,
            0.0,
            -0.0,
            -0.0
          ]
        ],
        [
          [
            -0.0,
            -0.0,
            -0.0,
            -0.0,
            -0.0,
            -0.0,
            -0.0,
            -0.0,
            -0.0,
            0.0,
            0.0,
            -0.0,
            -0.0
          ],
          [
            0.0,
            -0.0,
            0.0,
            -0.0,
            -0.0,
            7.674247011766959e-34,
            3.0621596614851896e-33,
            -2.7362202409281166e-33,
            -4.142914126747993e-33,
            -6.476156996292479e-34,
            1.3241335451851022e-34,
            1.4866344467351892e-35,
            -1.6466432925487862e-37
          ],
          [
            1.401298464324817e-45,
            0.0,
            -0.0,
            -0.0,
            -0.0,
            3.4981959243356244e-19,
            -7.214327842530645e-16,
            8.301542805330415e-16,
            3.055148102616722e-15,
            2.2533506322731825e-16,
            -1.6627505570530172e-15,
            -6.590981738267425e-17,
            2.206265227576483e-22
          ],
          [
            -0.0,
            0.0,
            -0.0,
            -0.0,
            0.0,
            0.0,
            0.0,
            0.0,
            0.0,
            -0.0,
            -0.0,
            -0.0,
            0.0
          ]
        ],
        [
          [
            0.0,
            -0.0,
            -0.0,
            -0.0,
            -0.0,
            -0.0,
            0.0,
            -0.0,
            0.0,
            -0.0,
            -0.0,
            -0.0,
            -0.0
          ],
          [
            0.0,
            0.0,
            -0.0,
            0.0,
            0.0,
            -0.0,
            -0.0,
            -0.0,
            -0.0,
            -0.0,
            0.0,
            0.0,
            -0.0
          ],
          [
            -0.0,
            0.0,
            0.0,
            -0.0,
            0.0,
            -0.0,
            -0.0,
            -0.0,
            0.0,
            -0.0,
            -0.0,
            -0.0,
            -0.0
          ],
          [
            -0.0,
            -0.0,
            -0.0,
            0.0,
            -0.0,
            -0.0,
            0.0,
            0.0,
            -0.0,
            0.0,
            -0.0,
            0.0,
            0.0
          ]
        ],
        [
          [
            -0.0,
            -0.0,
            0.0,
            -0.0,
            0.0,
            -0.0,
            0.0,
            0.0,
            -0.0,
            0.0,
            0.0,
            -0.0,
            0.0
          ],
          [
            -0.0,
            -0.0,
            0.0,
            0.0,
            0.0,
            0.0,
            0.0,
            -0.0,
            0.0,
            -0.0,
            -0.0,
            -0.0,
            0.0
          ],
          [
            -0.0,
            -0.0,
            0.0,
            0.0,
            0.0,
            -0.0,
            0.0,
            -0.0,
            -0.0,
            -0.0,
            0.0,
            0.0,
            -0.0
          ],
          [
            0.0,
            0.0,
            0.0,
            0.0,
            -0.0,
            0.0,
            0.0,
            0.0,
            0.0,
            0.0,
            -0.0,
            -0.0,
            -0.0
          ]
        ],
        [
          [
            -6.304025191639084e-06,
            0.010517030023038387,
            0.03871503844857216,
            0.02230815589427948,
            0.026774626225233078,
            0.011210041120648384,
            -0.012887454591691494,
            -0.023662304505705833,
            -0.025199776515364647,
            0.0003245895786676556,
            0.01495650876313448,
            0.005288742017000914,
            1.3649621905642562e-05
          ],
          [
            -3.2644158570448425e-39,
            -2.6631688524880863e-38,
            -4.0115083242103684e-39,
            4.6287943107300936e-39,
            2.7316099510438676e-39,
            -0.07446148246526718,
            0.08400686085224152,
            0.05969228968024254,
            0.03709898889064789,
            0.029329173266887665,
            -0.0065909493714571,
            0.010169733315706253,
            -3.2372445275541395e-05
          ],
          [
            -2.603361714290396e-39,
            1.6152206878886436e-39,
            -2.3231356525885764e-39,
            2.966412923024598e-39,
            -2.992520514713434e-39,
            0.00015159533359110355,
            0.026201505213975906,
            0.003457032609730959,
            -2.813303126458777e-06,
            0.018269959837198257,
            -0.0174021665006876,
            0.002930826973170042,
            1.2600808076967951e-05
          ],
          [
            -0.0030733859166502953,
            -0.005305618513375521,
            -0.003771746065467596,
            -0.003931702114641666,
            -0.006081844214349985,
            -0.0067238109186291695,
            0.01222266536206007,
            0.021047135815024376,
            0.023738540709018707,
            0.014312361367046833,
            0.01141391135752201,
            0.009324376471340656,
            -0.00381798529997468
          ]
        ],
        [
          [
            -0.0,
            -0.0,
            -0.0,
            0.0,
            0.0,
            -0.0,
            0.0,
            0.0,
            0.0,
            -0.0,
            -0.0,
            0.0,
            0.0
          ],
          [
            -0.0,
            0.0,
            0.0,
            0.0,
            0.0,
            0.0,
            0.0,
            0.0,
            -0.0,
            -0.0,
            0.0,
            0.0,
            -0.0
          ],
          [
            -0.0,
            -0.0,
            -0.0,
            0.0,
            -0.0,
            -0.0,
            0.0,
            0.0,
            0.0,
            -0.0,
            0.0,
            0.0,
            -0.0
          ],
          [
            0.0,
            -0.0,
            0.0,
            -0.0,
            0.0,
            -0.0,
            -0.0,
            -0.0,
            -0.0,
            0.0,
            0.0,
            -0.0,
            0.0
          ]
        ],
        [
          [
            0.0,
            0.0,
            0.0,
            0.0,
            0.0,
            0.0,
            0.0,
            -0.0,
            0.0,
            -0.0,
            0.0,
            0.0,
            0.0
          ],
          [
            -0.0,
            0.0,
            0.0,
            -0.0,
            0.0,
            0.0,
            -0.0,
            -0.0,
            -0.0,
            0.0,
            0.0,
            0.0,
            0.0
          ],
          [
            -0.0,
            0.0,
            0.0,
            0.0,
            -0.0,
            -0.0,
            -0.0,
            0.0,
            0.0,
            -0.0,
            -0.0,
            -0.0,
            -0.0
          ],
          [
            -0.0,
            -0.0,
            0.0,
            0.0,
            -0.0,
            0.0,
            -0.0,
            -0.0,
            0.0,
            -0.0,
            -0.0,
            0.0,
            -0.0
          ]
        ],
        [
          [
            -0.0,
            -0.0,
            0.0,
            0.0,
            0.0,
            -0.0,
            -0.0,
            -0.0,
            -0.0,
            0.0,
            -0.0,
            0.0,
            -0.0
          ],
          [
            -0.0,
            0.0,
            -0.0,
            -0.0,
            -0.0,
            0.0,
            0.0,
            0.0,
            0.0,
            0.0,
            -0.0,
            0.0,
            0.0
          ],
          [
            -0.0,
            -0.0,
            0.0,
            0.0,
            -0.0,
            0.0,
            0.0,
            0.0,
            0.0,
            -0.0,
            -0.0,
            0.0,
            -0.0
          ],
          [
            -0.0,
            0.0,
            0.0,
            -0.0,
            -0.0,
            0.0,
            0.0,
            -0.0,
            -0.0,
            -0.0,
            0.0,
            -0.0,
            -0.0
          ]
        ],
        [
          [
            -0.0,
            0.0,
            0.0,
            -0.0,
            -0.0,
            -0.0,
            -0.0,
            0.0,
            0.0,
            -0.0,
            -0.0,
            0.0,
            -0.0
          ],
          [
            0.0,
            -0.0,
            -0.0,
            0.0,
            -0.0,
            -0.0,
            -0.0,
            -0.0,
            -0.0,
            0.0,
            -0.0,
            0.0,
            0.0
          ],
          [
            0.0,
            -0.0,
            -0.0,
            0.0,
            0.0,
            -0.0,
            0.0,
            0.0,
            -0.0,
            0.0,
            -0.0,
            -0.0,
            0.0
          ],
          [
            -0.0,
            -0.0,
            -0.0,
            0.0,
            0.0,
            0.0,
            0.0,
            -0.0,
            0.0,
            -0.0,
            0.0,
            -0.0,
            -0.0
          ]
        ],
        [
          [
            0.0,
            0.0,
            -0.0,
            -0.0,
            0.0,
            -0.0,
            0.0,
            -0.0,
            -0.0,
            0.0,
            -0.0,
            0.0,
            -0.0
          ],
          [
            0.0,
            -0.0,
            -0.0,
            0.0,
            0.0,
            -0.0,
            0.0,
            0.0,
            -0.0,
            -0.0,
            -0.0,
            0.0,
            -0.0
          ],
          [
            -0.0,
            -0.0,
            -0.0,
            -0.0,
            -0.0,
            -0.0,
            0.0,
            0.0,
            0.0,
            -0.0,
            0.0,
            -0.0,
            -0.0
          ],
          [
            -0.0,
            0.0,
            0.0,
            -0.0,
            0.0,
            -0.0,
            0.0,
            -0.0,
            0.0,
            0.0,
            0.0,
            0.0,
            -0.0
          ]
        ],
        [
          [
            -0.0,
            0.0,
            0.0,
            0.0,
            0.0,
            0.0,
            0.0,
            -0.0,
            0.0,
            0.0,
            -0.0,
            -0.0,
            -0.0
          ],
          [
            -0.0,
            -0.0,
            -0.0,
            0.0,
            0.0,
            0.0,
            -0.0,
            -0.0,
            -0.0,
            0.0,
            0.0,
            -0.0,
            0.0
          ],
          [
            0.0,
            -0.0,
            -0.0,
            -0.0,
            0.0,
            0.0,
            0.0,
            -0.0,
            0.0,
            -0.0,
            -0.0,
            0.0,
            0.0
          ],
          [
            -0.0,
            -0.0,
            0.0,
            0.0,
            -0.0,
            0.0,
            -0.0,
            -0.0,
            -0.0,
            0.0,
            0.0,
            0.0,
            -0.0
          ]
        ],
        [
          [
            -0.0,
            -0.0,
            -0.0,
            0.0,
            -0.0,
            0.0,
            -0.0,
            -0.0,
            0.0,
            -0.0,
            0.0,
            0.0,
            -0.0
          ],
          [
            0.0,
            -0.0,
            0.0,
            -0.0,
            -0.0,
            -0.0,
            -0.0,
            0.0,
            -0.0,
            0.0,
            -0.0,
            0.0,
            0.0
          ],
          [
            -0.0,
            -0.0,
            0.0,
            0.0,
            -0.0,
            0.0,
            -0.0,
            0.0,
            -0.0,
            -0.0,
            -0.0,
            0.0,
            0.0
          ],
          [
            -0.0,
            0.0,
            0.0,
            0.0,
            -0.0,
            0.0,
            0.0,
            -0.0,
            0.0,
            -0.0,
            0.0,
            -0.0,
            -0.0
          ]
        ],
        [
          [
            0.0,
            -0.0,
            -0.0,
            -0.0,
            0.0,
            -0.0,
            0.0,
            -0.0,
            0.0,
            -0.0,
            0.0,
            -0.0,
            0.0
          ],
          [
            0.0,
            -0.0,
            0.0,
            0.0,
            -0.0,
            0.0,
            -0.0,
            0.0,
            -0.0,
            0.0,
            0.0,
            -0.0,
            -0.0
          ],
          [
            0.0,
            0.0,
            -0.0,
            0.0,
            0.0,
            0.0,
            -0.0,
            -0.0,
            -0.0,
            -0.0,
            0.0,
            -0.0,
            -0.0
          ],
          [
            0.0,
            -0.0,
            0.0,
            0.0,
            -0.0,
            -0.0,
            0.0,
            -0.0,
            -0.0,
            -0.0,
            -0.0,
            0.0,
            0.0
          ]
        ]
      ],
      "base_weight": [
        [
          -0.06573078036308289,
          -0.025396259501576424,
          0.4527159333229065,
          0.02381863072514534
        ],
        [
          -0.0036098191048949957,
          -0.02700727805495262,
          -0.021480130031704903,
          0.033564481884241104
        ],
        [
          -0.0008082614513114095,
          0.0005046300939284265,
          0.0005275749135762453,
          0.0008000264642760158
        ],
        [
          0.00012151930422987789,
          2.043530548689887e-05,
          -3.436427505221218e-05,
          -6.737277726642787e-05
        ],
        [
          -0.002934389980509877,
          -0.030168548226356506,
          -0.0255159679800272,
          0.03185129538178444
        ],
        [
          0.0002791345468722284,
          -0.00023418536875396967,
          -0.000265135255176574,
          -0.0007244027219712734
        ],
        [
          0.0005833968170918524,
          0.0006514909910038114,
          5.0518839998403564e-05,
          -0.0012623814400285482
        ],
        [
          -0.31201061606407166,
          0.2570054829120636,
          -0.007604502607136965,
          0.06670529395341873
        ],
        [
          1.8094875713359215e-06,
          -2.856297669495689e-07,
          -1.2165339740022318e-06,
          -1.4478742116352805e-07
        ],
        [
          -0.0016022954368963838,
          0.0006566043593920767,
          0.0004403149359859526,
          0.000824727991130203
        ],
        [
          -0.0016254127258434892,
          0.0005328261177055538,
          9.844882879406214e-05,
          0.0005157996201887727
        ],
        [
          0.00011017471115337685,
          -3.624327655415982e-05,
          -8.77597340149805e-05,
          -0.00038907263660803437
        ],
        [
          -0.002318086801096797,
          -0.0027527182828634977,
          -0.0022752631921321154,
          -0.0024116740096360445
        ],
        [
          0.0010819724993780255,
          -9.887126361718401e-05,
          8.349029667442665e-05,
          -5.08684606757015e-05
        ],
        [
          0.0013143575051799417,
          -0.0012054203543812037,
          -0.0011821631342172623,
          -0.002294352278113365
        ],
        [
          -0.0010597476502880454,
          0.0004638734390027821,
          0.0007009739056229591,
          0.0012090095551684499
        ]
      ],
      "spline_order": 3
    },
    {
      "grid": [
        [
          -1.600000023841858,
          -1.399999976158142,
          -1.2000000476837158,
          -1.0,
          -0.800000011920929,
          -0.6000000238418579,
          -0.3999999761581421,
          -0.19999998807907104,
          0.0,
          0.20000004768371582,
          0.3999999761581421,
          0.6000000238418579,
          0.8000000715255737,
          1.0,
          1.2000000476837158,
          1.4000000953674316,
          1.6000001430511475
        ],
        [
          -1.600000023841858,
          -1.399999976158142,
          -1.2000000476837158,
          -1.0,
          -0.800000011920929,
          -0.6000000238418579,
          -0.3999999761581421,
          -0.19999998807907104,
          0.0,
          0.20000004768371582,
          0.3999999761581421,
          0.6000000238418579,
          0.8000000715255737,
          1.0,
          1.2000000476837158,
          1.4000000953674316,
          1.6000001430511475
        ],
        [
          -1.600000023841858,
          -1.399999976158142,
          -1.2000000476837158,
          -1.0,
          -0.800000011920929,
          -0.6000000238418579,
          -0.3999999761581421,
          -0.19999998807907104,
          0.0,
          0.20000004768371582,
          0.3999999761581421,
          0.6000000238418579,
          0.8000000715255737,
          1.0,
          1.2000000476837158,
          1.4000000953674316,
          1.6000001430511475
        ],
        [
          -1.600000023841858,
          -1.399999976158142,
          -1.2000000476837158,
          -1.0,
          -0.800000011920929,
          -0.6000000238418579,
          -0.3999999761581421,
          -0.19999998807907104,
          0.0,
          0.20000004768371582,
          0.3999999761581421,
          0.6000000238418579,
          0.8000000715255737,
          1.0,
          1.2000000476837158,
          1.4000000953674316,
          1.6000001430511475
        ],
        [
          -1.600000023841858,
          -1.399999976158142,
          -1.2000000476837158,
          -1.0,
          -0.800000011920929,
          -0.6000000238418579,
          -0.3999999761581421,
          -0.19999998807907104,
          0.0,
          0.20000004768371582,
          0.3999999761581421,
          0.6000000238418579,
          0.8000000715255737,
          1.0,
          1.2000000476837158,
          1.4000000953674316,
          1.6000001430511475
        ],
        [
          -1.600000023841858,
          -1.399999976158142,
          -1.2000000476837158,
          -1.0,
          -0.800000011920929,
          -0.6000000238418579,
          -0.3999999761581421,
          -0.19999998807907104,
          0.0,
          0.20000004768371582,
          0.3999999761581421,
          0.6000000238418579,
          0.8000000715255737,
          1.0,
          1.2000000476837158,
          1.4000000953674316,
          1.6000001430511475
        ],
        [
          -1.600000023841858,
          -1.399999976158142,
          -1.2000000476837158,
          -1.0,
          -0.800000011920929,
          -0.6000000238418579,
          -0.3999999761581421,
          -0.19999998807907104,
          0.0,
          0.20000004768371582,
          0.3999999761581421,
          0.6000000238418579,
          0.8000000715255737,
          1.0,
          1.2000000476837158,
          1.4000000953674316,
          1.6000001430511475
        ],
        [
          -1.600000023841858,
          -1.399999976158142,
          -1.2000000476837158,
          -1.0,
          -0.800000011920929,
          -0.6000000238418579,
          -0.3999999761581421,
          -0.19999998807907104,
          0.0,
          0.20000004768371582,
          0.3999999761581421,
          0.6000000238418579,
          0.8000000715255737,
          1.0,
          1.2000000476837158,
          1.4000000953674316,
          1.6000001430511475
        ],
        [
          -1.600000023841858,
          -1.399999976158142,
          -1.2000000476837158,
          -1.0,
          -0.800000011920929,
          -0.6000000238418579,
          -0.3999999761581421,
          -0.19999998807907104,
          0.0,
          0.20000004768371582,
          0.3999999761581421,
          0.6000000238418579,
          0.8000000715255737,
          1.0,
          1.2000000476837158,
          1.4000000953674316,
          1.6000001430511475
        ],
        [
          -1.600000023841858,
          -1.399999976158142,
          -1.2000000476837158,
          -1.0,
          -0.800000011920929,
          -0.6000000238418579,
          -0.3999999761581421,
          -0.19999998807907104,
          0.0,
          0.20000004768371582,
          0.3999999761581421,
          0.6000000238418579,
          0.8000000715255737,
          1.0,
          1.2000000476837158,
          1.4000000953674316,
          1.6000001430511475
        ],
        [
          -1.600000023841858,
          -1.399999976158142,
          -1.2000000476837158,
          -1.0,
          -0.800000011920929,
          -0.6000000238418579,
          -0.3999999761581421,
          -0.19999998807907104,
          0.0,
          0.20000004768371582,
          0.3999999761581421,
          0.6000000238418579,
          0.8000000715255737,
          1.0,
          1.2000000476837158,
          1.4000000953674316,
          1.6000001430511475
        ],
        [
          -1.600000023841858,
          -1.399999976158142,
          -1.2000000476837158,
          -1.0,
          -0.800000011920929,
          -0.6000000238418579,
          -0.3999999761581421,
          -0.19999998807907104,
          0.0,
          0.20000004768371582,
          0.3999999761581421,
          0.6000000238418579,
          0.8000000715255737,
          1.0,
          1.2000000476837158,
          1.4000000953674316,
          1.6000001430511475
        ],
        [
          -1.600000023841858,
          -1.399999976158142,
          -1.2000000476837158,
          -1.0,
          -0.800000011920929,
          -0.6000000238418579,
          -0.3999999761581421,
          -0.19999998807907104,
          0.0,
          0.20000004768371582,
          0.3999999761581421,
          0.6000000238418579,
          0.8000000715255737,
          1.0,
          1.2000000476837158,
          1.4000000953674316,
          1.6000001430511475
        ],
        [
          -1.600000023841858,
          -1.399999976158142,
          -1.2000000476837158,
          -1.0,
          -0.800000011920929,
          -0.6000000238418579,
          -0.3999999761581421,
          -0.19999998807907104,
          0.0,
          0.20000004768371582,
          0.3999999761581421,
          0.6000000238418579,
          0.8000000715255737,
          1.0,
          1.2000000476837158,
          1.4000000953674316,
          1.6000001430511475
        ],
        [
          -1.600000023841858,
          -1.399999976158142,
          -1.2000000476837158,
          -1.0,
          -0.800000011920929,
          -0.6000000238418579,
          -0.3999999761581421,
          -0.19999998807907104,
          0.0,
          0.20000004768371582,
          0.3999999761581421,
          0.6000000238418579,
          0.8000000715255737,
          1.0,
          1.2000000476837158,
          1.4000000953674316,
          1.6000001430511475
        ],
        [
          -1.600000023841858,
          -1.399999976158142,
          -1.2000000476837158,
          -1.0,
          -0.800000011920929,
          -0.6000000238418579,
          -0.3999999761581421,
          -0.19999998807907104,
          0.0,
          0.20000004768371582,
          0.3999999761581421,
          0.6000000238418579,
          0.8000000715255737,
          1.0,
          1.2000000476837158,
          1.4000000953674316,
          1.6000001430511475
        ]
      ],
      "scaled_spline_weight": [
        [
          [
            7.403023353267936e-39,
            7.066372607601613e-39,
            3.2743945034092995e-38,
            2.101528848376239e-38,
            -2.8374653737728295e-09,
            0.028258075937628746,
            0.09376958757638931,
            -0.03372152894735336,
            0.10723070055246353,
            0.0056196474470198154,
            1.9680382139378818e-39,
            2.1629882575932146e-40,
            1.9756311496668258e-38
          ],
          [
            -4.9480129035002156e-39,
            2.1735456402234378e-39,
            -2.7486077014161276e-39,
            -2.7085838146780822e-39,
            -2.566188595665153e-05,
            0.023126332089304924,
            0.05307002365589142,
            0.006383892614394426,
            -1.156572670879541e-05,
            -2.1623112903050993e-38,
            -2.7457249502153186e-38,
            -0.0,
            -0.0
          ],
          [
            -1.4335829796443965e-39,
            -4.795859916243827e-40,
            -1.187009941342416e-38,
            3.861894489771336e-40,
            2.9762809994338113e-09,
            0.005468226037919521,
            0.02245381660759449,
            0.00546210678294301,
            -3.638748191647778e-10,
            -7.121062484067282e-40,
            -1.0497341194922246e-38,
            0.0,
            0.0
          ],
          [
            2.1310013780674578e-38,
            2.455007647170792e-39,
            -5.7416635121429336e-39,
            -2.4517061879888426e-39,
            -2.737776368458289e-12,
            0.0037239762023091316,
            0.015370996668934822,
            0.0037256614305078983,
            -4.375924806971493e-13,
            -2.33795718644574e-39,
            1.784880657379228e-38,
            0.0,
            0.0
          ],
          [
            1.9261632119284633e-39,
            -2.7728529674458756e-39,
            5.122784249269271e-39,
            -2.5978672230117784e-40,
            -9.902328201860655e-06,
            0.0220969058573246,
            0.0451241172850132,
            0.0046053603291511536,
            2.026369429586339e-06,
            5.169448889429752e-39,
            -2.0740387356225004e-38,
            0.0,
            0.0
          ],
          [
            2.840000387259392e-39,
            -3.511883764546141e-39,
            2.951889865740336e-39,
            -2.1180906547962475e-39,
            1.1041545455725554e-09,
            0.006305039394646883,
            0.02584199421107769,
            0.006300260778516531,
            3.779422108607378e-09,
            1.0106753070065597e-39,
            2.4374227527419798e-39,
            0.0,
            0.0
          ],
          [
            -3.2784582689558415e-39,
            -2.1710709471354402e-39,
            1.7766810995450777e-39,
            -2.353051973503447e-39,
            -3.709552132136196e-08,
            0.008607150055468082,
            0.035160619765520096,
            0.008611917495727539,
            -1.5432708266871487e-07,
            3.145340520038841e-40,
            1.0936248893425744e-38,
            -0.0,
            -0.0
          ],
          [
            -7.549080131685126e-38,
            -2.2397345718873562e-39,
            1.7513007817592266e-38,
            -1.6667160242451913e-38,
            0.008164245635271072,
            0.08648904412984848,
            -0.0649683028459549,
            0.5832700729370117,
            0.11989261955022812,
            -3.427120827836916e-05,
            -6.666391579138595e-39,
            0.0,
            0.0
          ],
          [
            -3.1201647918287815e-39,
            3.5014805247469934e-40,
            -1.3216929406440671e-38,
            2.786578685903937e-39,
            -4.158534724324589e-16,
            0.004669736139476299,
            0.01922246254980564,
            0.004671069793403149,
            -3.5762406012456404e-17,
            -1.0590691494720173e-39,
            -1.698631577679114e-39,
            0.0,
            0.0
          ],
          [
            -3.8990569250452305e-40,
            -1.214604871221286e-39,
            1.6345740209794337e-39,
            9.436778261287259e-40,
            -1.4327061315100309e-08,
            0.00551350973546505,
            0.022647585719823837,
            0.005515006836503744,
            -2.2168196167626775e-09,
            -1.8457244761808258e-39,
            -1.729680147753159e-39,
            0.0,
            0.0
          ],
          [
            -3.021510577343386e-39,
            3.695445455581906e-39,
            5.853728152931918e-40,
            1.3208162883247855e-39,
            -2.047347535949484e-08,
            0.007190322037786245,
            0.029439376667141914,
            0.007192370016127825,
            -2.7489748255504765e-09,
            -5.617385153938894e-40,
            -5.270059316571345e-40,
            0.0,
            0.0
          ],
          [
            -2.2854533355844177e-39,
            -8.814853976850619e-40,
            -9.036630478306986e-39,
            1.4895634519957086e-39,
            1.8862165301891665e-11,
            0.0048484960570931435,
            0.019946133717894554,
            0.004846353083848953,
            -9.945045655046503e-12,
            3.403263515382467e-40,
            -1.4102973228030182e-38,
            0.0,
            0.0
          ],
          [
            -2.7278558724579414e-39,
            -6.9446670333780744e-40,
            5.50787367895191e-40,
            -8.56451200619899e-40,
            1.5587289792229342e-10,
            0.0011062812991440296,
            0.004654404241591692,
            0.0011061212280765176,
            -3.4682401395258466e-09,
            8.433518625753906e-40,
            -3.024142215859388e-39,
            0.0,
            0.0
          ],
          [
            -4.994138043751931e-39,
            -5.205893859889912e-40,
            -8.04711758070866e-39,
            -7.250805906282189e-39,
            -4.718448409768428e-10,
            0.0039932397194206715,
            0.016465824097394943,
            0.003993515856564045,
            -3.1277818113295552e-09,
            -9.728640705436832e-40,
            -2.3260517546928363e-39,
            0.0,
            0.0
          ],
          [
            -9.484676044096345e-39,
            6.162910646100545e-41,
            -8.357400093171782e-40,
            -5.991849938665022e-39,
            1.5967148714324253e-09,
            0.004429754335433245,
            0.018251385539770126,
            0.00443304143846035,
            -1.0225125635088261e-08,
            2.535004973902167e-39,
            -8.857929891643963e-40,
            -2.6554101431508127e-39,
            -0.0
          ],
          [
            2.1534748423189135e-39,
            -2.7424644089485276e-39,
            -1.1689113308965824e-39,
            -6.087997230197741e-40,
            -2.3193260645371083e-09,
            0.004668153822422028,
            0.019212394952774048,
            0.004666320979595184,
            -4.455588342722194e-09,
            -1.8533643554083247e-39,
            -7.737807569379778e-39,
            -0.0,
            -0.0
          ]
        ]
      ],
      "base_weight": [
        [
          0.14310307800769806,
          -0.022156646475195885,
          -0.0003969286335632205,
          8.676556899445131e-05,
          -0.025147954002022743,
          0.0002637465368025005,
          -0.0013508228585124016,
          0.14452143013477325,
          -1.8547314084571553e-06,
          -9.19828744372353e-06,
          0.00010122728417627513,
          0.0001568793668411672,
          -0.001171389827504754,
          -0.0003272636968176812,
          0.0015407486353069544,
          -0.0010119157377630472
        ]
      ],
      "spline_order": 3
    }
  ],
  "norm": {
    "V_min": 2.524099898338318,
    "V_max": 4.8149000883102415,
    "I_abs_max": 5.526000022888184,
    "T_min": 14.349410438537598,
    "T_max": 49.52249011993408,
    "headroom": 0.2
  },
  "ocv_coefs": [
    -11.121092801059188,
    11.93025672150961,
    3.0139234669540373,
    -6.310094275620538,
    2.2867393954089983,
    3.5224513281394403
  ],
  "hp": {
    "inputs": [
      "I",
      "SoC",
      "T",
      "dI"
    ],
    "output": "V",
    "hidden": 16,
    "grid_size": 10,
    "spline_order": 3,
    "lr": 0.0003,
    "weight_decay": 0.0001,
    "batch_size": 256,
    "n_epochs": 500,
    "lr_patience": 30,
    "lr_factor": 0.5,
    "lr_min": 1e-06,
    "es_patience": 80,
    "headroom": 0.2,
    "val_split": 0.1
  }
}