{
  "layers": [
    {
      "grid": [
        [
          -1.600000023841858,
          -1.399999976158142,
          -1.2000000476837158,
          -1.0,
          -0.800000011920929,
          -0.6000000238418579,
          -0.3999999761581421,
          -0.19999998807907104,
          0.0,
          0.20000004768371582,
          0.3999999761581421,
          0.6000000238418579,
          0.8000000715255737,
          1.0,
          1.2000000476837158,
          1.4000000953674316,
          1.6000001430511475
        ],
        [
          -1.600000023841858,
          -1.399999976158142,
          -1.2000000476837158,
          -1.0,
          -0.800000011920929,
          -0.6000000238418579,
          -0.3999999761581421,
          -0.19999998807907104,
          0.0,
          0.20000004768371582,
          0.3999999761581421,
          0.6000000238418579,
          0.8000000715255737,
          1.0,
          1.2000000476837158,
          1.4000000953674316,
          1.6000001430511475
        ],
        [
          -1.600000023841858,
          -1.399999976158142,
          -1.2000000476837158,
          -1.0,
          -0.800000011920929,
          -0.6000000238418579,
          -0.3999999761581421,
          -0.19999998807907104,
          0.0,
          0.20000004768371582,
          0.3999999761581421,
          0.6000000238418579,
          0.8000000715255737,
          1.0,
          1.2000000476837158,
          1.4000000953674316,
          1.6000001430511475
        ],
        [
          -1.600000023841858,
          -1.399999976158142,
          -1.2000000476837158,
          -1.0,
          -0.800000011920929,
          -0.6000000238418579,
          -0.3999999761581421,
          -0.19999998807907104,
          0.0,
          0.20000004768371582,
          0.3999999761581421,
          0.6000000238418579,
          0.8000000715255737,
          1.0,
          1.2000000476837158,
          1.4000000953674316,
          1.6000001430511475
        ]
      ],
      "scaled_spline_weight": [
        [
          [
            0.0,
            0.0,
            -0.0,
            0.0,
            -0.0,
            -0.0,
            0.0,
            -0.0,
            0.0,
            -0.0,
            0.0,
            -0.0,
            -0.0
          ],
          [
            0.0,
            -0.0,
            -0.0,
            -0.0,
            -0.0,
            -0.0,
            0.0,
            0.0,
            -0.0,
            -0.0,
            -0.0,
            0.0,
            0.0
          ],
          [
            0.0,
            -0.0,
            -0.0,
            -0.0,
            0.0,
            0.0,
            -0.0,
            -0.0,
            -0.0,
            0.0,
            -0.0,
            -0.0,
            0.0
          ],
          [
            0.0,
            -0.0,
            0.0,
            -0.0,
            0.0,
            0.0,
            -0.0,
            0.0,
            0.0,
            0.0,
            0.0,
            -0.0,
            0.0
          ]
        ],
        [
          [
            -0.0,
            -0.0,
            0.0,
            -0.0,
            -0.0,
            -0.0,
            0.0,
            -0.0,
            0.0,
            0.0,
            -0.0,
            0.0,
            -0.0
          ],
          [
            0.0,
            -0.0,
            -0.0,
            0.0,
            -0.0,
            -0.0,
            0.0,
            0.0,
            -0.0,
            -0.0,
            -0.0,
            -0.0,
            -0.0
          ],
          [
            0.0,
            0.0,
            0.0,
            0.0,
            0.0,
            0.0,
            -0.0,
            -0.0,
            0.0,
            0.0,
            -0.0,
            -0.0,
            -0.0
          ],
          [
            -0.0,
            -0.0,
            0.0,
            0.0,
            0.0,
            0.0,
            0.0,
            -0.0,
            0.0,
            -0.0,
            -0.0,
            -0.0,
            0.0
          ]
        ],
        [
          [
            0.0,
            0.0,
            -0.0,
            0.0,
            0.0,
            -0.0,
            0.0,
            0.0,
            -0.0,
            0.0,
            -0.0,
            -0.0,
            -0.0
          ],
          [
            0.0,
            0.0,
            -0.0,
            -0.0,
            -0.0,
            -0.0,
            0.0,
            -0.0,
            -0.0,
            0.0,
            -0.0,
            -0.0,
            -0.0
          ],
          [
            -0.0,
            0.0,
            0.0,
            -0.0,
            0.0,
            -0.0,
            -0.0,
            0.0,
            0.0,
            -0.0,
            -0.0,
            0.0,
            -0.0
          ],
          [
            -0.0,
            0.0,
            -0.0,
            -0.0,
            -0.0,
            -0.0,
            0.0,
            0.0,
            -0.0,
            0.0,
            0.0,
            -0.0,
            -0.0
          ]
        ],
        [
          [
            0.0,
            0.0,
            -0.0,
            -0.0,
            -0.0,
            0.0,
            0.0,
            0.0,
            -0.0,
            -0.0,
            -0.0,
            -0.0,
            -0.0
          ],
          [
            -0.0,
            -0.0,
            -0.0,
            -0.0,
            -0.0,
            0.0,
            -0.0,
            0.0,
            -0.0,
            0.0,
            -0.0,
            -0.0,
            0.0
          ],
          [
            0.0,
            0.0,
            0.0,
            0.0,
            0.0,
            0.0,
            0.0,
            0.0,
            -0.0,
            0.0,
            -0.0,
            0.0,
            -0.0
          ],
          [
            0.0,
            0.0,
            0.0,
            -0.0,
            -0.0,
            -0.0,
            -0.0,
            0.0,
            -0.0,
            -0.0,
            -0.0,
            0.0,
            0.0
          ]
        ],
        [
          [
            0.0,
            -0.0,
            0.0,
            0.0,
            -0.0,
            0.0,
            0.0,
            -0.0,
            -0.0,
            0.0,
            -0.0,
            -0.0,
            -0.0
          ],
          [
            -0.0,
            0.0,
            0.0,
            -0.0,
            -0.0,
            0.0,
            0.0,
            0.0,
            -0.0,
            0.0,
            0.0,
            -0.0,
            -0.0
          ],
          [
            0.0,
            0.0,
            0.0,
            0.0,
            -0.0,
            -0.0,
            -0.0,
            -0.0,
            0.0,
            0.0,
            0.0,
            -0.0,
            0.0
          ],
          [
            0.0,
            -0.0,
            -0.0,
            -0.0,
            0.0,
            -0.0,
            0.0,
            -0.0,
            0.0,
            -0.0,
            -0.0,
            0.0,
            -0.0
          ]
        ],
        [
          [
            0.0,
            -0.0,
            0.0,
            0.0,
            -0.0,
            -0.0,
            0.0,
            0.0,
            -0.0,
            0.0,
            -0.0,
            0.0,
            0.0
          ],
          [
            0.0,
            -0.0,
            -0.0,
            -0.0,
            0.0,
            -0.0,
            -0.0,
            0.0,
            0.0,
            0.0,
            0.0,
            -0.0,
            -0.0
          ],
          [
            0.0,
            -0.0,
            -0.0,
            -0.0,
            0.0,
            -0.0,
            -0.0,
            -0.0,
            -0.0,
            0.0,
            -0.0,
            0.0,
            0.0
          ],
          [
            0.0,
            -0.0,
            0.0,
            -0.0,
            0.0,
            -0.0,
            0.0,
            -0.0,
            0.0,
            -0.0,
            0.0,
            -0.0,
            0.0
          ]
        ],
        [
          [
            0.0,
            -0.0,
            -0.0,
            -0.0,
            0.0,
            0.0,
            -0.0,
            0.0,
            -0.0,
            0.0,
            0.0,
            -0.0,
            0.0
          ],
          [
            0.0,
            -0.0,
            -0.0,
            0.0,
            0.0,
            -0.0,
            -0.0,
            -0.0,
            -0.0,
            0.0,
            0.0,
            -0.0,
            -0.0
          ],
          [
            0.0,
            0.0,
            -0.0,
            0.0,
            -0.0,
            -0.0,
            0.0,
            0.0,
            0.0,
            -0.0,
            0.0,
            0.0,
            0.0
          ],
          [
            0.0,
            0.0,
            0.0,
            -0.0,
            0.0,
            -0.0,
            -0.0,
            0.0,
            -0.0,
            -0.0,
            0.0,
            -0.0,
            0.0
          ]
        ],
        [
          [
            3.146963081235299e-07,
            0.0013755823019891977,
            0.006783978082239628,
            -0.002080298261716962,
            -0.010934421792626381,
            -0.001183167565613985,
            0.009685450233519077,
            0.019151028245687485,
            0.000443243799963966,
            -0.005481306463479996,
            8.172803791239858e-05,
            0.0010528708808124065,
            2.37164567806758e-06
          ],
          [
            2.0467183201127916e-39,
            -6.240822840717005e-41,
            -3.3388738509467416e-41,
            3.157510797201502e-39,
            -1.4340482107345524e-38,
            0.004509215243160725,
            -0.03851170092821121,
            0.046226490288972855,
            0.039016466587781906,
            0.004422289319336414,
            -0.001686482923105359,
            -0.001021515461616218,
            1.1255474419158418e-05
          ],
          [
            -4.674490653651726e-39,
            -2.1204728621855997e-39,
            8.501579692166162e-40,
            -1.3027045056733873e-39,
            1.5990808124362433e-38,
            1.8465512452436883e-09,
            0.006618274841457605,
            0.028451666235923767,
            -0.03529537841677666,
            0.026085713878273964,
            0.012672735378146172,
            0.00220016879029572,
            5.351130312192254e-07
          ],
          [
            9.716153215322265e-09,
            2.2555486367537014e-09,
            -1.0158907493007518e-08,
            5.584548379289345e-09,
            2.9787868172093113e-08,
            2.4465251158289902e-08,
            3.047776786502254e-08,
            1.521934045456419e-08,
            -1.732031229551012e-08,
            -1.9680204133010193e-09,
            -4.0479863905318325e-09,
            1.2708425423113567e-08,
            5.55115287070862e-09
          ]
        ],
        [
          [
            0.0,
            0.0,
            -0.0,
            0.0,
            0.0,
            0.0,
            -0.0,
            -0.0,
            0.0,
            0.0,
            0.0,
            -0.0,
            -0.0
          ],
          [
            -0.0,
            0.0,
            -0.0,
            -0.0,
            0.0,
            0.0,
            0.0,
            -0.0,
            0.0,
            0.0,
            -0.0,
            -0.0,
            -0.0
          ],
          [
            0.0,
            -0.0,
            -0.0,
            0.0,
            -0.0,
            0.0,
            0.0,
            -0.0,
            0.0,
            -0.0,
            -0.0,
            -0.0,
            -0.0
          ],
          [
            -0.0,
            0.0,
            -0.0,
            -0.0,
            -0.0,
            0.0,
            -0.0,
            0.0,
            -0.0,
            0.0,
            0.0,
            0.0,
            0.0
          ]
        ],
        [
          [
            6.723555088683497e-06,
            0.010893331840634346,
            0.06520524621009827,
            0.06360331177711487,
            0.04116525128483772,
            0.021008851006627083,
            -0.000707868195604533,
            -0.007315483875572681,
            -0.0459015779197216,
            -0.016845308244228363,
            0.0069428374990820885,
            0.00203029066324234,
            7.204371286206879e-06
          ],
          [
            -1.245564038453307e-38,
            3.3841456004336835e-39,
            -7.39142480587872e-39,
            5.3746746547239786e-39,
            -1.634075158726134e-39,
            -0.05350736156105995,
            0.1194993108510971,
            0.03161583095788956,
            0.053605563938617706,
            0.005093516781926155,
            0.01780638098716736,
            0.006549016572535038,
            2.1236743123154156e-05
          ],
          [
            -6.131869082518822e-39,
            -2.617088834046922e-39,
            -1.858161840830787e-38,
            4.952034630092828e-40,
            1.071514081133686e-39,
            3.242994539576216e-09,
            0.004878982901573181,
            0.007611420471221209,
            0.03131556138396263,
            0.035314466804265976,
            -0.017461203038692474,
            0.000734867004211992,
            -2.33988458830936e-07
          ],
          [
            -0.0014733278658241034,
            -0.005854068789631128,
            -0.014110913500189781,
            -0.010132699273526669,
            0.007253086194396019,
            0.027807123959064484,
            0.04823175072669983,
            0.07303924858570099,
            0.06328869611024857,
            -0.000993232475593686,
            -0.031190548092126846,
            -0.01693575270473957,
            0.00155556236859411
          ]
        ],
        [
          [
            0.0,
            0.0,
            0.0,
            0.0,
            -0.0,
            0.0,
            -0.0,
            0.0,
            -0.0,
            -0.0,
            -0.0,
            -0.0,
            0.0
          ],
          [
            0.0,
            -0.0,
            -0.0,
            0.0,
            0.0,
            -0.0,
            -0.0,
            0.0,
            -0.0,
            0.0,
            0.0,
            -0.0,
            0.0
          ],
          [
            -0.0,
            0.0,
            -0.0,
            0.0,
            -0.0,
            0.0,
            -0.0,
            0.0,
            0.0,
            0.0,
            0.0,
            0.0,
            0.0
          ],
          [
            -0.0,
            0.0,
            0.0,
            -0.0,
            -0.0,
            -0.0,
            -0.0,
            0.0,
            -0.0,
            -0.0,
            0.0,
            0.0,
            0.0
          ]
        ],
        [
          [
            2.284305992361624e-06,
            0.0012552934931591153,
            0.005484115798026323,
            -0.004525941330939531,
            0.008914489299058914,
            0.01667538471519947,
            -0.0019275748636573553,
            0.004668077919632196,
            -0.006147829350084066,
            -0.0007590465247631073,
            -0.003335250774398446,
            0.0003365414449945092,
            9.81387529463973e-07
          ],
          [
            -1.932758703410501e-38,
            -5.0355324003880863e-39,
            4.3185342190424e-39,
            4.401800775091045e-40,
            7.043360484220471e-39,
            -0.09581559896469116,
            0.10794708877801895,
            0.061043184250593185,
            0.045720528811216354,
            0.03853495046496391,
            0.001412558020092547,
            0.007147361058741808,
            0.0001417170715285465
          ],
          [
            -1.6106762769688383e-39,
            -6.090897918018893e-40,
            -1.0580627369149392e-38,
            -2.7718075987914893e-39,
            -1.0539843978643682e-38,
            1.328268828260093e-09,
            0.007551262620836496,
            0.03051978535950184,
            0.03434549644589424,
            -0.01349568646401167,
            -0.005680395290255547,
            -0.005119992885738611,
            -3.0969909857958555e-05
          ],
          [
            0.0003578159667085856,
            0.0020778202451765537,
            0.007141676265746355,
            0.0027610650286078453,
            -0.006701362319290638,
            -0.01608697883784771,
            0.0025908551178872585,
            0.008415468968451023,
            0.017989937216043472,
            0.01569872535765171,
            0.009909354150295258,
            0.004164350219070911,
            -0.003983784932643175
          ]
        ],
        [
          [
            0.0,
            -0.0,
            0.0,
            -0.0,
            -0.0,
            0.0,
            0.0,
            -0.0,
            -0.0,
            0.0,
            -0.0,
            -0.0,
            -0.0
          ],
          [
            0.0,
            -0.0,
            -0.0,
            0.0,
            -0.0,
            0.0,
            0.0,
            -0.0,
            0.0,
            0.0,
            -0.0,
            0.0,
            0.0
          ],
          [
            -0.0,
            0.0,
            0.0,
            -0.0,
            -0.0,
            -0.0,
            -0.0,
            -0.0,
            -0.0,
            -0.0,
            -0.0,
            0.0,
            -0.0
          ],
          [
            -0.0,
            -0.0,
            0.0,
            0.0,
            -0.0,
            0.0,
            -0.0,
            0.0,
            0.0,
            0.0,
            0.0,
            -0.0,
            0.0
          ]
        ],
        [
          [
            -0.0,
            0.0,
            -0.0,
            -0.0,
            0.0,
            0.0,
            -0.0,
            0.0,
            -0.0,
            -0.0,
            -0.0,
            0.0,
            -0.0
          ],
          [
            -0.0,
            0.0,
            -0.0,
            -0.0,
            0.0,
            -0.0,
            -0.0,
            0.0,
            0.0,
            0.0,
            -0.0,
            0.0,
            -0.0
          ],
          [
            0.0,
            0.0,
            0.0,
            0.0,
            -0.0,
            -0.0,
            -0.0,
            -0.0,
            0.0,
            0.0,
            -0.0,
            0.0,
            0.0
          ],
          [
            -0.0,
            -0.0,
            0.0,
            0.0,
            0.0,
            0.0,
            0.0,
            -0.0,
            -0.0,
            0.0,
            0.0,
            -0.0,
            -0.0
          ]
        ],
        [
          [
            -0.0,
            -0.0,
            0.0,
            -0.0,
            -0.0,
            0.0,
            -0.0,
            -0.0,
            0.0,
            -0.0,
            -0.0,
            -0.0,
            0.0
          ],
          [
            0.0,
            0.0,
            0.0,
            -0.0,
            -0.0,
            0.0,
            0.0,
            -0.0,
            -0.0,
            -0.0,
            0.0,
            -0.0,
            -0.0
          ],
          [
            0.0,
            -0.0,
            -0.0,
            0.0,
            -0.0,
            -0.0,
            -0.0,
            -0.0,
            0.0,
            0.0,
            -0.0,
            0.0,
            0.0
          ],
          [
            0.0,
            -0.0,
            -0.0,
            -0.0,
            0.0,
            0.0,
            -0.0,
            0.0,
            0.0,
            -0.0,
            0.0,
            -0.0,
            0.0
          ]
        ],
        [
          [
            -0.0,
            0.0,
            0.0,
            -0.0,
            0.0,
            0.0,
            -0.0,
            -0.0,
            0.0,
            0.0,
            -0.0,
            -0.0,
            -0.0
          ],
          [
            -0.0,
            0.0,
            0.0,
            -0.0,
            0.0,
            -0.0,
            0.0,
            -0.0,
            -0.0,
            -0.0,
            0.0,
            0.0,
            0.0
          ],
          [
            0.0,
            0.0,
            0.0,
            -0.0,
            0.0,
            -0.0,
            0.0,
            0.0,
            0.0,
            -0.0,
            -0.0,
            -0.0,
            0.0
          ],
          [
            0.0,
            0.0,
            0.0,
            0.0,
            0.0,
            -0.0,
            0.0,
            0.0,
            -0.0,
            0.0,
            -0.0,
            0.0,
            0.0
          ]
        ]
      ],
      "base_weight": [
        [
          -0.002575879916548729,
          0.0025388547219336033,
          0.0007604949059896171,
          -0.000768176862038672
        ],
        [
          -0.0012793380301445723,
          -0.00010338188440073282,
          -0.0002606042835395783,
          0.000579154584556818
        ],
        [
          -3.1600004730958364e-13,
          -2.319561914505136e-13,
          -2.425917268716188e-13,
          2.07203462829382e-13
        ],
        [
          -0.0010265348246321082,
          -0.00018247976549901068,
          -0.0005488382303155959,
          0.00025539554189890623
        ],
        [
          4.703510057879612e-05,
          -2.2022213670425117e-06,
          1.0215134352620225e-05,
          -2.485783988959156e-05
        ],
        [
          -2.3543653071556037e-07,
          -3.985984875498616e-08,
          -7.562358916857193e-08,
          1.4958754945837427e-07
        ],
        [
          -0.00015152043488342315,
          6.0634203691734e-05,
          7.371901119768154e-06,
          -4.024637382826768e-05
        ],
        [
          0.02150414139032364,
          0.20582610368728638,
          0.2518947422504425,
          -0.03219592943787575
        ],
        [
          -0.001619489281438291,
          -0.00014950637705624104,
          -0.00017883669352158904,
          0.0006198805058375001
        ],
        [
          -0.4800908863544464,
          0.25566545128822327,
          0.26669394969940186,
          0.07921518385410309
        ],
        [
          2.2940739585752823e-10,
          -3.189882386012144e-11,
          8.712770088736832e-12,
          -1.2444308084003097e-10
        ],
        [
          -0.34976306557655334,
          0.2823851704597473,
          -0.00753859942778945,
          0.07574614882469177
        ],
        [
          -6.408798071788624e-06,
          -4.8440861064591445e-06,
          -7.339634066738654e-06,
          4.5047036110190675e-06
        ],
        [
          2.6904062311317034e-10,
          -9.471907286284775e-11,
          -1.322194784214581e-11,
          -1.0831744529093967e-10
        ],
        [
          3.378234150752668e-11,
          -9.040216492062214e-12,
          2.0778001715016092e-12,
          5.842242054715507e-12
        ],
        [
          -0.0012423325097188354,
          0.00078599649714306,
          0.00033322846866212785,
          0.00017328516696579754
        ]
      ],
      "spline_order": 3
    },
    {
      "grid": [
        [
          -1.600000023841858,
          -1.399999976158142,
          -1.2000000476837158,
          -1.0,
          -0.800000011920929,
          -0.6000000238418579,
          -0.3999999761581421,
          -0.19999998807907104,
          0.0,
          0.20000004768371582,
          0.3999999761581421,
          0.6000000238418579,
          0.8000000715255737,
          1.0,
          1.2000000476837158,
          1.4000000953674316,
          1.6000001430511475
        ],
        [
          -1.600000023841858,
          -1.399999976158142,
          -1.2000000476837158,
          -1.0,
          -0.800000011920929,
          -0.6000000238418579,
          -0.3999999761581421,
          -0.19999998807907104,
          0.0,
          0.20000004768371582,
          0.3999999761581421,
          0.6000000238418579,
          0.8000000715255737,
          1.0,
          1.2000000476837158,
          1.4000000953674316,
          1.6000001430511475
        ],
        [
          -1.600000023841858,
          -1.399999976158142,
          -1.2000000476837158,
          -1.0,
          -0.800000011920929,
          -0.6000000238418579,
          -0.3999999761581421,
          -0.19999998807907104,
          0.0,
          0.20000004768371582,
          0.3999999761581421,
          0.6000000238418579,
          0.8000000715255737,
          1.0,
          1.2000000476837158,
          1.4000000953674316,
          1.6000001430511475
        ],
        [
          -1.600000023841858,
          -1.399999976158142,
          -1.2000000476837158,
          -1.0,
          -0.800000011920929,
          -0.6000000238418579,
          -0.3999999761581421,
          -0.19999998807907104,
          0.0,
          0.20000004768371582,
          0.3999999761581421,
          0.6000000238418579,
          0.8000000715255737,
          1.0,
          1.2000000476837158,
          1.4000000953674316,
          1.6000001430511475
        ],
        [
          -1.600000023841858,
          -1.399999976158142,
          -1.2000000476837158,
          -1.0,
          -0.800000011920929,
          -0.6000000238418579,
          -0.3999999761581421,
          -0.19999998807907104,
          0.0,
          0.20000004768371582,
          0.3999999761581421,
          0.6000000238418579,
          0.8000000715255737,
          1.0,
          1.2000000476837158,
          1.4000000953674316,
          1.6000001430511475
        ],
        [
          -1.600000023841858,
          -1.399999976158142,
          -1.2000000476837158,
          -1.0,
          -0.800000011920929,
          -0.6000000238418579,
          -0.3999999761581421,
          -0.19999998807907104,
          0.0,
          0.20000004768371582,
          0.3999999761581421,
          0.6000000238418579,
          0.8000000715255737,
          1.0,
          1.2000000476837158,
          1.4000000953674316,
          1.6000001430511475
        ],
        [
          -1.600000023841858,
          -1.399999976158142,
          -1.2000000476837158,
          -1.0,
          -0.800000011920929,
          -0.6000000238418579,
          -0.3999999761581421,
          -0.19999998807907104,
          0.0,
          0.20000004768371582,
          0.3999999761581421,
          0.6000000238418579,
          0.8000000715255737,
          1.0,
          1.2000000476837158,
          1.4000000953674316,
          1.6000001430511475
        ],
        [
          -1.600000023841858,
          -1.399999976158142,
          -1.2000000476837158,
          -1.0,
          -0.800000011920929,
          -0.6000000238418579,
          -0.3999999761581421,
          -0.19999998807907104,
          0.0,
          0.20000004768371582,
          0.3999999761581421,
          0.6000000238418579,
          0.8000000715255737,
          1.0,
          1.2000000476837158,
          1.4000000953674316,
          1.6000001430511475
        ],
        [
          -1.600000023841858,
          -1.399999976158142,
          -1.2000000476837158,
          -1.0,
          -0.800000011920929,
          -0.6000000238418579,
          -0.3999999761581421,
          -0.19999998807907104,
          0.0,
          0.20000004768371582,
          0.3999999761581421,
          0.6000000238418579,
          0.8000000715255737,
          1.0,
          1.2000000476837158,
          1.4000000953674316,
          1.6000001430511475
        ],
        [
          -1.600000023841858,
          -1.399999976158142,
          -1.2000000476837158,
          -1.0,
          -0.800000011920929,
          -0.6000000238418579,
          -0.3999999761581421,
          -0.19999998807907104,
          0.0,
          0.20000004768371582,
          0.3999999761581421,
          0.6000000238418579,
          0.8000000715255737,
          1.0,
          1.2000000476837158,
          1.4000000953674316,
          1.6000001430511475
        ],
        [
          -1.600000023841858,
          -1.399999976158142,
          -1.2000000476837158,
          -1.0,
          -0.800000011920929,
          -0.6000000238418579,
          -0.3999999761581421,
          -0.19999998807907104,
          0.0,
          0.20000004768371582,
          0.3999999761581421,
          0.6000000238418579,
          0.8000000715255737,
          1.0,
          1.2000000476837158,
          1.4000000953674316,
          1.6000001430511475
        ],
        [
          -1.600000023841858,
          -1.399999976158142,
          -1.2000000476837158,
          -1.0,
          -0.800000011920929,
          -0.6000000238418579,
          -0.3999999761581421,
          -0.19999998807907104,
          0.0,
          0.20000004768371582,
          0.3999999761581421,
          0.6000000238418579,
          0.8000000715255737,
          1.0,
          1.2000000476837158,
          1.4000000953674316,
          1.6000001430511475
        ],
        [
          -1.600000023841858,
          -1.399999976158142,
          -1.2000000476837158,
          -1.0,
          -0.800000011920929,
          -0.6000000238418579,
          -0.3999999761581421,
          -0.19999998807907104,
          0.0,
          0.20000004768371582,
          0.3999999761581421,
          0.6000000238418579,
          0.8000000715255737,
          1.0,
          1.2000000476837158,
          1.4000000953674316,
          1.6000001430511475
        ],
        [
          -1.600000023841858,
          -1.399999976158142,
          -1.2000000476837158,
          -1.0,
          -0.800000011920929,
          -0.6000000238418579,
          -0.3999999761581421,
          -0.19999998807907104,
          0.0,
          0.20000004768371582,
          0.3999999761581421,
          0.6000000238418579,
          0.8000000715255737,
          1.0,
          1.2000000476837158,
          1.4000000953674316,
          1.6000001430511475
        ],
        [
          -1.600000023841858,
          -1.399999976158142,
          -1.2000000476837158,
          -1.0,
          -0.800000011920929,
          -0.6000000238418579,
          -0.3999999761581421,
          -0.19999998807907104,
          0.0,
          0.20000004768371582,
          0.3999999761581421,
          0.6000000238418579,
          0.8000000715255737,
          1.0,
          1.2000000476837158,
          1.4000000953674316,
          1.6000001430511475
        ],
        [
          -1.600000023841858,
          -1.399999976158142,
          -1.2000000476837158,
          -1.0,
          -0.800000011920929,
          -0.6000000238418579,
          -0.3999999761581421,
          -0.19999998807907104,
          0.0,
          0.20000004768371582,
          0.3999999761581421,
          0.6000000238418579,
          0.8000000715255737,
          1.0,
          1.2000000476837158,
          1.4000000953674316,
          1.6000001430511475
        ]
      ],
      "scaled_spline_weight": [
        [
          [
            -0.0,
            0.0,
            0.0,
            0.0,
            7.48283872408706e-26,
            7.345497125409432e-21,
            2.716889908449478e-20,
            7.864209647520505e-21,
            3.344256554102323e-26,
            -0.0,
            -0.0,
            0.0,
            -0.0
          ],
          [
            5.605193857299268e-45,
            -0.0,
            1.401298464324817e-45,
            0.0,
            -8.574186481703333e-22,
            6.541639517403108e-14,
            5.517863997748368e-14,
            6.62220522558779e-14,
            -8.999873698593259e-21,
            4.203895392974451e-45,
            -4.203895392974451e-45,
            -0.0,
            -0.0
          ],
          [
            0.0,
            -4.652310901558393e-43,
            -8.323712878089413e-43,
            -4.360840820978831e-42,
            -1.900160717624452e-42,
            8.692064845661207e-09,
            8.11287037549846e-09,
            8.69208438558644e-09,
            -9.739024327057479e-43,
            -2.107552890344525e-42,
            4.414090162623174e-43,
            -0.0,
            -0.0
          ],
          [
            2.802596928649634e-45,
            -5.605193857299268e-45,
            -1.401298464324817e-45,
            -4.203895392974451e-45,
            -2.7795065922468185e-21,
            -9.473418143696177e-13,
            6.332904578347509e-13,
            -9.534212612113957e-13,
            -2.950834680255374e-20,
            -2.802596928649634e-45,
            2.1019476964872256e-44,
            -0.0,
            -0.0
          ],
          [
            1.1070257868166055e-43,
            1.363463405788047e-42,
            5.254869241218064e-43,
            -1.3452465257518244e-42,
            -4.6550942833439834e-20,
            1.0174016296105037e-08,
            9.318359417420652e-09,
            1.016991912905496e-08,
            -2.9452797666232324e-21,
            -8.800154355959851e-43,
            8.96831017167883e-43,
            0.0,
            0.0
          ],
          [
            4.506575861268612e-42,
            4.842887492706568e-42,
            -2.1509931427385942e-42,
            -8.365751832019158e-42,
            -9.61845313561149e-27,
            1.4708157891618612e-07,
            1.3537740528590803e-07,
            1.4708336948388023e-07,
            -6.798105609462475e-26,
            -5.655640602014962e-42,
            -2.4469473784039956e-41,
            0.0,
            0.0
          ],
          [
            -3.2634839935660665e-41,
            7.88931035414872e-42,
            1.5024722134490689e-41,
            7.756187000037862e-42,
            2.836106653006181e-16,
            -7.944282174321415e-07,
            -3.307773113192525e-07,
            -7.994150905688002e-07,
            -1.5630652347241287e-16,
            -2.2925242876354007e-42,
            1.8651282560163315e-42,
            9.276595833830289e-43,
            0.0
          ],
          [
            1.980708474392614e-38,
            1.9807411246468327e-38,
            -1.446605246273367e-39,
            -5.118706470738086e-39,
            3.574642093440161e-08,
            -0.02602175623178482,
            0.1364275962114334,
            0.279695987701416,
            -0.04159347712993622,
            0.00020393611339386553,
            1.1593450866701762e-38,
            0.0,
            0.0
          ],
          [
            0.0,
            0.0,
            0.0,
            -0.0,
            2.5729367220329755e-39,
            1.006554580242413e-32,
            1.9176566682093547e-32,
            1.0224593861510232e-32,
            -4.25596063741644e-39,
            -0.0,
            0.0,
            0.0,
            0.0
          ],
          [
            -9.244567756129681e-39,
            -6.09048873886731e-39,
            3.508828933893913e-39,
            -2.7941120664481474e-39,
            0.00019707548199221492,
            0.028722451999783516,
            0.13879962265491486,
            -0.0650038942694664,
            0.22947341203689575,
            -0.025167543441057205,
            0.0002696742594707757,
            -4.6107399813157327e-39,
            0.0
          ],
          [
            -0.0,
            -0.0,
            0.0,
            0.0,
            -0.0,
            1.063987623148813e-19,
            9.552200288170815e-20,
            1.0639824532699846e-19,
            -0.0,
            0.0,
            0.0,
            0.0,
            0.0
          ],
          [
            -7.935848877447412e-39,
            5.982986725878168e-39,
            1.685837582569982e-38,
            -2.8252601287131594e-39,
            0.0011930066393688321,
            0.011228043586015701,
            0.004177700262516737,
            0.5242083072662354,
            0.04128774255514145,
            0.0001693369122222066,
            -2.8540456017673198e-39,
            -0.0,
            -0.0
          ],
          [
            0.0,
            0.0,
            0.0,
            0.0,
            1.3944321018496255e-41,
            -1.7159153728575742e-27,
            -1.7492782572841943e-27,
            -1.6958367828153595e-27,
            -2.1277315882308022e-41,
            -0.0,
            0.0,
            0.0,
            0.0
          ],
          [
            -0.0,
            0.0,
            0.0,
            0.0,
            4.9591952652455276e-42,
            -2.284870051729495e-16,
            1.6469811858553062e-16,
            -2.285088692109005e-16,
            4.1800733190809293e-42,
            0.0,
            0.0,
            0.0,
            -0.0
          ],
          [
            -3.533233947948594e-41,
            -2.2350710505980832e-42,
            1.80066852665739e-42,
            -3.699427945817517e-42,
            -2.5562894644326124e-36,
            2.869850845854671e-07,
            1.3885193084206549e-07,
            2.8698531195914256e-07,
            1.4181179022700887e-36,
            -8.940284202392333e-43,
            -2.230026376126514e-41,
            0.0,
            0.0
          ],
          [
            2.8600501656869516e-42,
            1.0092151540067333e-41,
            -5.468847516720464e-41,
            1.210161353790912e-41,
            1.7873175812629927e-13,
            -8.539431064491509e-07,
            -3.560929542345548e-07,
            -8.6074425098559e-07,
            -9.245604329604761e-15,
            2.780176153220437e-42,
            -2.1011069174086307e-41,
            0.0,
            0.0
          ]
        ]
      ],
      "base_weight": [
        [
          0.0003552014532033354,
          -0.0011941153788939118,
          -3.696513310291055e-13,
          -0.000937557895667851,
          4.353520489530638e-05,
          -2.3111923042051785e-07,
          1.377512944600312e-05,
          0.07020507752895355,
          -0.0014457452343776822,
          0.12480435520410538,
          1.9230336767428469e-10,
          0.1238522008061409,
          -6.853019385744119e-06,
          1.9180479426950114e-10,
          6.75490826468339e-12,
          -0.000544862006790936
        ]
      ],
      "spline_order": 3
    }
  ],
  "norm": {
    "V_min": 2.636099934577942,
    "V_max": 4.686899781227112,
    "I_abs_max": 5.526000022888184,
    "T_min": 14.349410438537598,
    "T_max": 49.52249011993408,
    "headroom": 0.2
  },
  "ocv_coefs": [
    -11.66265948752499,
    12.154540678388376,
    3.0098422215754863,
    -6.035489142972655,
    2.1551267080262777,
    3.532054826372431
  ],
  "hp": {
    "inputs": [
      "I",
      "SoC",
      "T",
      "dI"
    ],
    "output": "V",
    "hidden": 16,
    "grid_size": 10,
    "spline_order": 3,
    "lr": 0.0003,
    "weight_decay": 0.0001,
    "batch_size": 128,
    "n_epochs": 500,
    "lr_patience": 30,
    "lr_factor": 0.5,
    "lr_min": 1e-06,
    "es_patience": 80,
    "headroom": 0.2,
    "val_split": 0.1
  }
}