{
  "layers": [
    {
      "grid": [
        [
          -1.600000023841858,
          -1.399999976158142,
          -1.2000000476837158,
          -1.0,
          -0.800000011920929,
          -0.6000000238418579,
          -0.3999999761581421,
          -0.19999998807907104,
          0.0,
          0.20000004768371582,
          0.3999999761581421,
          0.6000000238418579,
          0.8000000715255737,
          1.0,
          1.2000000476837158,
          1.4000000953674316,
          1.6000001430511475
        ],
        [
          -1.600000023841858,
          -1.399999976158142,
          -1.2000000476837158,
          -1.0,
          -0.800000011920929,
          -0.6000000238418579,
          -0.3999999761581421,
          -0.19999998807907104,
          0.0,
          0.20000004768371582,
          0.3999999761581421,
          0.6000000238418579,
          0.8000000715255737,
          1.0,
          1.2000000476837158,
          1.4000000953674316,
          1.6000001430511475
        ],
        [
          -1.600000023841858,
          -1.399999976158142,
          -1.2000000476837158,
          -1.0,
          -0.800000011920929,
          -0.6000000238418579,
          -0.3999999761581421,
          -0.19999998807907104,
          0.0,
          0.20000004768371582,
          0.3999999761581421,
          0.6000000238418579,
          0.8000000715255737,
          1.0,
          1.2000000476837158,
          1.4000000953674316,
          1.6000001430511475
        ],
        [
          -1.600000023841858,
          -1.399999976158142,
          -1.2000000476837158,
          -1.0,
          -0.800000011920929,
          -0.6000000238418579,
          -0.3999999761581421,
          -0.19999998807907104,
          0.0,
          0.20000004768371582,
          0.3999999761581421,
          0.6000000238418579,
          0.8000000715255737,
          1.0,
          1.2000000476837158,
          1.4000000953674316,
          1.6000001430511475
        ]
      ],
      "scaled_spline_weight": [
        [
          [
            4.031926891912008e-06,
            0.0026574907824397087,
            0.010609136894345284,
            0.00783260352909565,
            0.02645408734679222,
            0.03738715872168541,
            0.0018820507684722543,
            -0.02661506086587906,
            -0.015917154029011726,
            0.003529435023665428,
            0.004632404074072838,
            0.0012945347698405385,
            1.3443639090837678e-07
          ],
          [
            -1.566602637668894e-39,
            8.573298147570307e-40,
            -5.34380965474876e-40,
            -5.148945090299751e-40,
            5.8790636291669105e-40,
            -0.0024165883660316467,
            0.014199882745742798,
            0.008135218173265457,
            -0.0031831874512135983,
            -2.491104169166647e-05,
            -0.000352806702721864,
            3.4699769457802176e-05,
            1.946621068782406e-06
          ],
          [
            1.9233550098059563e-39,
            9.090195112105802e-40,
            2.3855705056665686e-40,
            -1.912029715617283e-39,
            1.3688093594294462e-39,
            -8.84040036908118e-06,
            0.0010033126454800367,
            0.005402140785008669,
            -0.0005918121314607561,
            0.005853257607668638,
            0.0018766290741041303,
            0.00032938222284428775,
            -6.7067394411424175e-06
          ],
          [
            0.00041614199290052056,
            2.821095949911978e-05,
            -0.00031886695069260895,
            -0.00038592101191170514,
            -0.00034490088000893593,
            8.829579019220546e-05,
            0.0055784182623028755,
            0.0030665199737995863,
            9.601868805475533e-05,
            -0.00024412045604549348,
            -0.0001761625608196482,
            -2.6578309189062566e-05,
            -6.141532503534108e-05
          ]
        ],
        [
          [
            4.097083561305226e-08,
            2.464082535880152e-05,
            0.00011992103100055829,
            0.0002188264625146985,
            0.0009971559047698975,
            0.0010815523564815521,
            9.179796325042844e-05,
            -0.0003144459624309093,
            -0.00041271341615356505,
            -3.908614598913118e-05,
            0.00016065714589785784,
            6.730602035531774e-05,
            2.1092873225825315e-08
          ],
          [
            -6.3319072408981184e-40,
            2.9226461680883412e-40,
            1.3345826444383125e-40,
            3.3707814169794177e-40,
            -1.7234709942577358e-40,
            -4.62258503830526e-05,
            0.00011662455654004589,
            0.0003819339326582849,
            3.924694283341523e-06,
            1.836324554460589e-05,
            1.6551094859096338e-06,
            1.5107358422028483e-06,
            1.636192195064723e-07
          ],
          [
            -1.7961927793623365e-39,
            1.7186505275404584e-40,
            8.686873388103833e-40,
            -4.3111367644492295e-40,
            -2.6991895097732486e-39,
            -3.89719116355991e-06,
            0.00019728874030988663,
            0.0014613469829782844,
            0.0020977468229830265,
            0.0011140056885778904,
            -0.0004888159455731511,
            2.528876211727038e-05,
            2.6333256641919434e-07
          ],
          [
            2.854175590982777e-06,
            -1.116052089855657e-06,
            -4.395385531097418e-06,
            -1.1049977501897956e-06,
            2.064231694021146e-06,
            -1.0623299203871284e-05,
            0.00022154134057927877,
            2.0111512640141882e-05,
            2.14004353438213e-06,
            7.127602657419629e-06,
            6.282965387072181e-06,
            5.75742160435766e-06,
            2.0180671072012046e-06
          ]
        ],
        [
          [
            -2.9421565628240387e-08,
            -1.7725607904139906e-05,
            -0.00010583803668851033,
            -0.00040392891969531775,
            -0.0008781672222539783,
            -0.0003719943342730403,
            -0.00010686377208912745,
            -0.0004110565932933241,
            -3.64779839401308e-06,
            5.2724364650202915e-05,
            -9.506439528195187e-05,
            -4.3741758418036625e-05,
            -4.309339374231058e-08
          ],
          [
            -2.8355961061860193e-39,
            5.422674732320961e-40,
            1.4440170480097591e-39,
            1.4783418538933955e-40,
            5.469548165952626e-41,
            0.00012715920456685126,
            0.0003505208878777921,
            -0.0004975012852810323,
            -0.0004217392997816205,
            -8.648122457088903e-05,
            1.0854416359507013e-05,
            3.376297854629229e-06,
            -1.0277326367713613e-07
          ],
          [
            1.5895474987237487e-39,
            -1.7087153214283954e-39,
            4.555341047827115e-40,
            1.83522454678764e-40,
            5.098904722138712e-40,
            2.4115990981954383e-06,
            -7.393385021714494e-05,
            -0.0003247683052904904,
            -0.00021744761033914983,
            -0.0004859997716266662,
            -6.616012251470238e-05,
            -8.952383723226376e-06,
            1.1104281938401073e-08
          ],
          [
            -1.0119166518052225e-06,
            5.592613888438791e-06,
            1.9493581930873916e-06,
            -8.254296517407056e-06,
            -1.3684587429452222e-05,
            -2.2975436877459288e-06,
            -0.0004082537197973579,
            -4.0625061956234276e-05,
            4.6155268051961684e-08,
            -1.7338288671453483e-05,
            -1.9004659407073632e-05,
            -2.0932709958287887e-05,
            -9.344566024083178e-06
          ]
        ],
        [
          [
            -1.244296470304107e-07,
            -8.693906420376152e-05,
            -0.0004950379370711744,
            -0.001631742576137185,
            -0.003983690403401852,
            -0.003922501113265753,
            -0.0010763057507574558,
            -4.333970355219208e-05,
            0.001290212501771748,
            0.00033477944089099765,
            -0.0005059284158051014,
            -0.0001920756621984765,
            -1.1287509238400162e-07
          ],
          [
            -1.6017261836771957e-39,
            2.8218647825341004e-39,
            5.981120196323687e-40,
            -2.1187632780591234e-41,
            1.9399575940112768e-41,
            0.00019795859407167882,
            -0.0011222149478271604,
            -0.002149847336113453,
            -0.0006310425233095884,
            -4.5408181904349476e-05,
            1.8901195289799944e-05,
            -3.983213446190348e-06,
            -7.355342859227676e-07
          ],
          [
            -4.4236189921805825e-41,
            6.75952748027148e-40,
            -3.910435468575548e-40,
            1.349520486068015e-40,
            7.221451506051512e-41,
            3.882418241119012e-06,
            -0.00016719431732781231,
            -0.0012266996782273054,
            -0.0023318526800721884,
            -0.0006693506729789078,
            0.000578778563067317,
            -1.219431942445226e-05,
            -2.1264898464323778e-07
          ],
          [
            -3.5683791793417186e-05,
            -6.0028410189261194e-06,
            1.846247869252693e-05,
            5.7322295106132515e-06,
            -1.0220638614555355e-05,
            -0.00010530967119848356,
            -0.0017889307346194983,
            -0.0007303906022571027,
            -5.4230749810812995e-05,
            -7.13576955604367e-05,
            -7.080532668624073e-05,
            -5.2063514885958284e-05,
            -7.023839316389058e-06
          ]
        ],
        [
          [
            -1.4962162140363944e-06,
            -0.0010080173378810287,
            -0.004385693464428186,
            -0.006275085732340813,
            -0.010121233761310577,
            -0.008195617236196995,
            -0.0014342780923470855,
            0.0013293777592480183,
            0.007300372235476971,
            0.0022176664788275957,
            -0.004972430411726236,
            -0.0018919684225693345,
            -2.471059588060598e-06
          ],
          [
            -9.166770467987296e-39,
            4.401939503639013e-39,
            1.1107354442412126e-38,
            -5.239136863359089e-39,
            -1.8642608522669145e-39,
            0.002742429031059146,
            -0.004462693817913532,
            -0.0063211796805262566,
            -0.0029931056778877974,
            -0.0007434614817611873,
            0.00046656967606395483,
            -3.830445712083019e-05,
            -3.6372280192153994e-06
          ],
          [
            1.0025076987773961e-38,
            1.1403206383289631e-40,
            -1.0126749599151512e-39,
            -2.6778070965061162e-39,
            -6.32867724793785e-39,
            -6.496863352367654e-05,
            -0.003036981448531151,
            -0.007422513794153929,
            -0.008191168308258057,
            -0.0032686947379261255,
            0.006180929951369762,
            -0.00019565662660170346,
            3.961779384553665e-06
          ],
          [
            -1.0331604244129267e-05,
            1.7703537196211983e-06,
            1.1845030712720472e-05,
            4.177643859293312e-06,
            -6.581276466022246e-06,
            1.961657289939467e-05,
            -0.00018672167789191008,
            -4.173377237748355e-05,
            -1.03152569863596e-05,
            -2.3463400793843903e-05,
            -2.2634814740740694e-05,
            -1.902587064250838e-05,
            -5.82861457587569e-06
          ]
        ],
        [
          [
            -4.7549757908882384e-08,
            -3.078595909755677e-05,
            -0.00015293486649170518,
            -0.00036695643211714923,
            -0.0020585341844707727,
            -0.002425888553261757,
            -0.00024687303812243044,
            0.0008244437631219625,
            0.0007722015143372118,
            0.00016290679923258722,
            -0.0002360387152293697,
            -0.00010735978139564395,
            -7.102662635816159e-08
          ],
          [
            -2.9033558934284458e-39,
            -1.2316012202950817e-40,
            -6.702957061266687e-40,
            2.53234250681995e-40,
            1.6354414247288508e-40,
            6.416712858481333e-05,
            -0.0006622882792726159,
            -0.001054049702361226,
            -6.558024324476719e-05,
            -2.673074595804792e-05,
            3.4297261208848795e-06,
            -1.7486552223999752e-06,
            -3.413295530663163e-07
          ],
          [
            -2.409532709406523e-40,
            3.786378515528872e-40,
            2.871638903986918e-40,
            -8.602515220551479e-40,
            1.2327811136020432e-39,
            8.978295227279887e-07,
            -1.7713746274239384e-05,
            -0.0002071271592285484,
            -0.0004007139359600842,
            -0.0003440500586293638,
            4.359220474725589e-05,
            -1.5988383665899164e-06,
            -2.206232174728484e-08
          ],
          [
            -1.041899793108314e-07,
            2.089269912630698e-07,
            4.1794180560827954e-07,
            1.4421139837850205e-08,
            -2.362258157972974e-07,
            4.788021215063054e-07,
            -1.5457533663720824e-05,
            -5.456489589050761e-07,
            2.4561322220506554e-07,
            -5.893850811844459e-07,
            -8.045899448916316e-07,
            -1.057014401339984e-06,
            -6.242208314688469e-07
          ]
        ],
        [
          [
            1.074076180884731e-06,
            0.0007450105040334165,
            0.0029919573571532965,
            0.0038653509691357613,
            0.006857530679553747,
            0.0033347741700708866,
            0.0013921450590714812,
            0.0020317453891038895,
            -0.00479732034727931,
            -0.002821784233674407,
            0.0029009042773395777,
            0.0012895048130303621,
            1.6996903013932751e-06
          ],
          [
            9.558933652317846e-39,
            8.790273800487897e-39,
            -1.4268924801264777e-38,
            -8.988134341053632e-39,
            -9.235215490178777e-40,
            -0.009387544356286526,
            0.010002102702856064,
            0.01704408787190914,
            0.012821566313505173,
            0.003201577113941312,
            -0.0023985488805919886,
            5.5671025620540604e-05,
            1.0428896530356724e-05
          ],
          [
            1.262853399035993e-38,
            -2.606618331921487e-39,
            4.6871892203354374e-39,
            1.2702027890918375e-39,
            -2.5597659177667866e-40,
            0.0004263369191903621,
            0.017444763332605362,
            0.035963866859674454,
            0.031021587550640106,
            0.009409467689692974,
            -0.03581980615854263,
            0.0003188351693097502,
            -2.551934085204266e-05
          ],
          [
            0.00020661845337599516,
            2.7769317966885865e-05,
            -5.6553199101472273e-05,
            5.2668874559458345e-06,
            8.557375258533284e-05,
            -0.00041417169268243015,
            0.0026099449023604393,
            0.0013196088839322329,
            0.00042826091521419585,
            0.000441401032730937,
            0.00047011685092002153,
            0.00036078449920751154,
            3.107100565102883e-05
          ]
        ],
        [
          [
            3.0883003887538507e-07,
            0.00018792209448292851,
            0.0006393944495357573,
            0.00010481595381861553,
            0.00247464282438159,
            0.0047952355816960335,
            0.000351206079358235,
            -0.002186692552641034,
            -0.0018604738870635629,
            -0.0005735064623877406,
            0.0008830956066958606,
            0.00044191518099978566,
            3.895626718986023e-07
          ],
          [
            2.513935050192579e-39,
            -1.1032450835598571e-39,
            7.743342698313861e-39,
            1.415541121786368e-38,
            -2.4734024921119838e-39,
            -0.002544327173382044,
            0.011282311752438545,
            0.009967870078980923,
            0.000578204111661762,
            0.0006630384596064687,
            -0.00048162363236770034,
            1.591786349308677e-05,
            7.90857939136913e-06
          ],
          [
            -3.4242535650795884e-39,
            -2.7356344802334084e-39,
            3.48774779979661e-40,
            -8.621250581019502e-40,
            -3.5463921405286038e-40,
            -2.9691539111809107e-06,
            0.00039110289071686566,
            0.0025698344688862562,
            0.0029864581301808357,
            0.002729896456003189,
            -0.00014175054093357176,
            0.00010954342724289745,
            -1.9889282611984527e-06
          ],
          [
            0.0001845617516664788,
            5.1631101086968556e-05,
            -6.198966002557427e-05,
            -4.7234661906259134e-05,
            -6.587945244973525e-05,
            0.0002829871082212776,
            0.002938459161669016,
            0.0020397682674229145,
            0.0001825218350859359,
            0.0001764281332725659,
            0.00020522208069451153,
            0.00019718968542292714,
            4.892465585726313e-05
          ]
        ],
        [
          [
            -1.1365257250872673e-06,
            -0.0007380538154393435,
            -0.0026760536711663008,
            -0.0025198026560246944,
            -0.006399971432983875,
            -0.0065271188504993916,
            -5.950310151092708e-05,
            0.00434658769518137,
            0.006377299316227436,
            0.001055869273841381,
            -0.0038797243032604456,
            -0.0015153717249631882,
            -1.6051272950790008e-06
          ],
          [
            -2.2428734804474438e-39,
            2.2532528981726977e-39,
            -5.8926702372555045e-40,
            -3.484230540651155e-40,
            2.318828061109242e-39,
            0.003360783914104104,
            -0.004069479648023844,
            -0.00783743616193533,
            0.00011376534530427307,
            -0.0005007662111893296,
            0.0004697789845522493,
            -3.2688036299077794e-05,
            -5.894453352084383e-06
          ],
          [
            6.234289987276323e-39,
            1.7510639623187557e-39,
            5.225441973467243e-41,
            -3.253481525127716e-39,
            1.2469696809428713e-38,
            -0.0002058159006992355,
            -0.007615653332322836,
            -0.01733577623963356,
            -0.018462931737303734,
            -0.004074800759553909,
            0.014648186042904854,
            -0.0008131946669891477,
            2.4331828171852976e-05
          ],
          [
            -0.00032819542684592307,
            -6.798132380936295e-05,
            6.456642950070091e-06,
            -3.9318547351285815e-05,
            0.0001076749394997023,
            0.0008131824433803558,
            -0.0031419401057064533,
            -0.0024260184727609158,
            -0.0008722578641027212,
            -0.0007819333695806563,
            -0.0007827891386114061,
            -0.0005520351696759462,
            4.8569494538242e-05
          ]
        ],
        [
          [
            -4.159160837957643e-08,
            -2.532155667722691e-05,
            -0.00012007738405372947,
            -0.00012746534775942564,
            -0.0006075378623791039,
            -0.0006320644752122462,
            1.1254065611865371e-05,
            0.00029710258240811527,
            0.00043041130993515253,
            6.924379704287276e-05,
            -0.0001586355792824179,
            -6.743745325366035e-05,
            -2.416173217056894e-08
          ],
          [
            -5.526903312097441e-40,
            -2.3895039504559283e-39,
            -6.475792567214991e-40,
            -9.238060126061357e-41,
            4.2389278545825716e-41,
            0.00014552926586475223,
            -0.0003310849133413285,
            -0.0008228436345234513,
            4.3466893657750916e-06,
            -4.632631316781044e-05,
            6.634906185354339e-06,
            -4.852558959100861e-06,
            -5.275561534290318e-07
          ],
          [
            -2.386526191219238e-39,
            1.133150194087013e-39,
            4.1800733190809293e-42,
            1.1246246942300609e-39,
            1.2943723850045119e-39,
            -1.170499558611482e-06,
            -0.0007069417624734342,
            -0.003209589049220085,
            -0.004716009367257357,
            -0.0010169093729928136,
            0.0019850400276482105,
            -8.585563045926392e-05,
            1.3086264516459778e-07
          ],
          [
            -2.6080446332343854e-05,
            -4.919098955724621e-06,
            1.4333275430544745e-05,
            5.507085006684065e-06,
            -4.601246473612264e-06,
            7.571699825348333e-05,
            -0.0008866118732839823,
            -0.00018115666171070188,
            -3.577937604859471e-05,
            -4.6927278162911534e-05,
            -4.438237374415621e-05,
            -3.247379572712816e-05,
            -4.418688604346244e-06
          ]
        ],
        [
          [
            3.9125450712163e-05,
            0.030865350738167763,
            0.12996135652065277,
            0.10284753143787384,
            0.08682108670473099,
            0.07173636555671692,
            0.026433907449245453,
            -0.019156575202941895,
            -0.05453772470355034,
            -0.014621241949498653,
            0.026664042845368385,
            0.015608743764460087,
            5.7459263189230114e-05
          ],
          [
            -3.215872355903395e-38,
            -5.740266417574002e-39,
            -7.348375515756197e-39,
            4.0074753872300416e-39,
            2.5491984457876203e-38,
            -0.06706922501325607,
            0.0594097375869751,
            0.05239315703511238,
            0.021566934883594513,
            0.014839108102023602,
            -0.006238827481865883,
            0.0023653917014598846,
            2.2912388885742985e-05
          ],
          [
            -5.2765066908057035e-39,
            -8.119473626914071e-39,
            5.05044782124236e-39,
            -2.5947605443163702e-39,
            -7.372903844075739e-40,
            0.0010534392204135656,
            0.0836288258433342,
            0.08856870979070663,
            0.017133522778749466,
            0.050449393689632416,
            -0.01785038597881794,
            0.0077918656170368195,
            -0.0001108725045924075
          ],
          [
            0.0065986220724880695,
            -0.0026206020265817642,
            -0.0039406404830515385,
            -0.008493557572364807,
            -0.014605702832341194,
            -0.00787645485252142,
            0.02944009378552437,
            0.05340273305773735,
            0.06487806141376495,
            0.0347672738134861,
            0.014248602092266083,
            0.006580631714314222,
            -0.010437929071485996
          ]
        ],
        [
          [
            -4.993328730051871e-06,
            -0.0030275124590843916,
            -0.012185810133814812,
            -0.013525595888495445,
            -0.021716320887207985,
            -0.01977033168077469,
            -0.004629818722605705,
            0.0028113466687500477,
            0.010111374780535698,
            0.0026901818346232176,
            -0.002292295452207327,
            -0.0017121054697781801,
            -5.420717570814304e-06
          ],
          [
            -4.103870708590946e-40,
            6.238622802128015e-40,
            -8.465901231965988e-39,
            3.643758561725285e-39,
            2.9393944873339514e-39,
            0.020257750526070595,
            -0.015132884494960308,
            -0.025963054969906807,
            -0.00851333886384964,
            -0.009500836953520775,
            0.0004602806584443897,
            -0.0005889541935175657,
            -1.8257891497341916e-05
          ],
          [
            1.902865223660599e-39,
            3.150490291895235e-39,
            4.1384729715705185e-39,
            -1.2783692762822296e-38,
            -1.363214535180783e-38,
            -0.0005988822667859495,
            -0.02380526252090931,
            -0.043854642659425735,
            -0.044639620929956436,
            -0.00829778891056776,
            0.03335961699485779,
            -0.0016349747311323881,
            6.914936238899827e-05
          ],
          [
            -0.0009456339757889509,
            -7.117542554624379e-05,
            0.0002882201224565506,
            0.000913518771994859,
            0.002157198963686824,
            0.002572704805061221,
            -0.00612845690920949,
            -0.006419255398213863,
            -0.0045660920441150665,
            -0.0043091014958918095,
            -0.003671341110020876,
            -0.0021945717744529247,
            0.00015857932157814503
          ]
        ],
        [
          [
            6.070866675145226e-06,
            0.004057698417454958,
            0.014168456196784973,
            0.0067621259950101376,
            0.028110049664974213,
            0.05018232762813568,
            0.0017516958760097623,
            -0.028687061741948128,
            -0.016167761757969856,
            -0.005846564657986164,
            0.005769025534391403,
            0.0029027273412793875,
            6.792552539991448e-06
          ],
          [
            -1.0010824381093313e-38,
            3.378760410435283e-39,
            -1.9260987521991043e-40,
            5.039887636015208e-39,
            -2.2261629962603704e-39,
            0.00026322886697016656,
            0.04871511831879616,
            0.009970054030418396,
            0.0021381822880357504,
            -0.0005766802933067083,
            -0.0026559385005384684,
            -0.00024241121718659997,
            -1.973840682012451e-07
          ],
          [
            9.949401265506563e-40,
            -3.755830209006591e-40,
            -1.3771526904860361e-39,
            -1.0160184580510302e-39,
            -3.395868863386225e-39,
            1.1414582331781276e-05,
            0.002107827691361308,
            0.01272136252373457,
            -0.0067522539757192135,
            0.01896541193127632,
            0.006178616546094418,
            0.0007180507527664304,
            -1.8464919776306488e-05
          ],
          [
            0.00040827313205227256,
            3.054421176784672e-05,
            -0.0003736540675163269,
            -0.00045611755922436714,
            -0.00032583335996605456,
            0.0005353325395844877,
            0.005222789011895657,
            0.0016307772602885962,
            -0.0005131068755872548,
            -0.00046687465510331094,
            0.00013054181181360036,
            0.00048772053560242057,
            0.00022508790425490588
          ]
        ],
        [
          [
            2.248181418806894e-09,
            1.3212360272518708e-06,
            9.350966138299555e-06,
            4.914884630125016e-05,
            0.00022413137776311487,
            0.00018456012185197324,
            2.7455143936094828e-05,
            8.549831545678899e-05,
            -3.7184116763455677e-07,
            -8.006270945770666e-06,
            5.7309839576191735e-06,
            3.575148411982809e-06,
            2.3901569612405638e-09
          ],
          [
            4.070211519477864e-40,
            2.9749566397615866e-42,
            2.6570020182062856e-41,
            -7.588311444011749e-41,
            -2.9638723689087773e-40,
            -9.003226182358048e-07,
            -3.889860181516269e-06,
            6.944950200704625e-06,
            5.417469765234273e-06,
            1.0221111779173953e-06,
            -1.852992284057109e-07,
            6.668607710480501e-08,
            4.1528855909689355e-09
          ],
          [
            -9.784426397301603e-41,
            -8.069096947121594e-41,
            3.316312945671112e-41,
            1.7796490496925177e-43,
            -7.730122848601421e-41,
            -1.8895292441811762e-07,
            5.483092991198646e-06,
            5.145475370227359e-05,
            9.3704009486828e-05,
            0.000124666141346097,
            1.7294606777795707e-06,
            4.3642705804813886e-07,
            -1.223486312262878e-09
          ],
          [
            1.2275171457076794e-07,
            -7.902995662334433e-07,
            -5.840859671479848e-07,
            7.808232567185769e-07,
            1.611281504665385e-06,
            5.406282070907764e-06,
            0.00021926549379713833,
            1.5091802197275683e-05,
            -1.185489963972941e-06,
            1.2082435887350584e-06,
            1.661724809309817e-06,
            2.5947947506210767e-06,
            1.9498809251672355e-06
          ]
        ],
        [
          [
            8.553451280590707e-09,
            2.650418537086807e-06,
            2.1074951291666366e-05,
            -1.1204252587049268e-05,
            7.593857299070805e-05,
            0.00022901715419720858,
            4.105759217054583e-06,
            -0.0001814632269088179,
            -0.00013425118231680244,
            -1.2095480087737087e-05,
            7.069466664688662e-05,
            2.952033537440002e-05,
            5.0417545693903776e-09
          ],
          [
            -7.075296076222434e-41,
            3.252553865544333e-41,
            -4.953590071388228e-41,
            -1.7709609992137038e-41,
            2.205643782847262e-42,
            -1.1259025711751747e-07,
            3.153263889998925e-07,
            5.0318755029366e-07,
            -3.20194715186517e-07,
            8.026829334539798e-08,
            1.4457336661166664e-08,
            4.212965976080341e-09,
            6.837019839167624e-10
          ],
          [
            4.742456431768408e-40,
            4.224284285630377e-40,
            5.350073458884292e-40,
            2.302823831348188e-40,
            4.799377175389282e-40,
            -6.95473147516168e-07,
            2.7343932742951438e-05,
            -0.00010229262261418626,
            0.0005657215369865298,
            -0.0001515350741101429,
            -0.00017438923532608896,
            6.702829068672145e-06,
            1.454182694260453e-07
          ],
          [
            4.9200533425164394e-08,
            -1.9296619413466942e-08,
            -9.202536688235341e-08,
            -5.115084533713343e-08,
            3.758570787937288e-09,
            -1.1916100675080088e-06,
            2.4095579647109844e-05,
            3.50838831764122e-06,
            1.2952753536410455e-07,
            1.9688454244715103e-07,
            1.8128011447515746e-07,
            1.3777660967662086e-07,
            3.621103061846043e-08
          ]
        ],
        [
          [
            -3.8509281807819207e-07,
            -0.00025079501210711896,
            -0.000926682201679796,
            -0.000865217880345881,
            -0.002296627964824438,
            -0.002528943819925189,
            -4.1617917304392904e-05,
            0.0013151514576748013,
            0.002126700012013316,
            0.000420257420046255,
            -0.0012870377395302057,
            -0.0005439979722723365,
            -3.6017368643115333e-07
          ],
          [
            -8.139252954738016e-39,
            2.2089382355368897e-39,
            2.115478634458746e-39,
            -8.951538030359326e-39,
            -5.673093774388127e-39,
            0.009449874982237816,
            -0.010283395648002625,
            -0.013806678354740143,
            -0.0034436893183737993,
            -0.0014467486180365086,
            0.0016581357922405005,
            -7.861275662435219e-05,
            -9.85574570222525e-06
          ],
          [
            5.4483465201873915e-40,
            -2.9122625464676943e-40,
            1.2423071405625233e-40,
            6.163667347271281e-40,
            7.949762369899693e-40,
            3.1890531317912973e-06,
            -0.00042798425420187414,
            -0.000535976723767817,
            -0.0015383920399472117,
            -0.00024429408949799836,
            0.0009181148489005864,
            -5.7326640671817586e-05,
            -3.969439603679348e-07
          ],
          [
            -5.606267586699687e-05,
            -1.1304815416224301e-05,
            2.7796244467026554e-05,
            1.1567212823138107e-05,
            -5.405503998190397e-06,
            0.00013319504796527326,
            -0.0006949586677365005,
            -0.0002660834579728544,
            -8.061254629865289e-05,
            -0.00010197701340075582,
            -9.908277570502833e-05,
            -7.249430200317875e-05,
            -8.112722753139678e-06
          ]
        ]
      ],
      "base_weight": [
        [
          -0.18569473922252655,
          -0.07094872742891312,
          0.3179120123386383,
          -0.023434868082404137
        ],
        [
          0.059231650084257126,
          0.16922296583652496,
          -0.004063306841999292,
          -0.006039696279913187
        ],
        [
          0.009521939791738987,
          -0.2628635764122009,
          -0.3742567300796509,
          0.04240534082055092
        ],
        [
          0.003223385661840439,
          0.14234961569309235,
          -0.15918053686618805,
          0.005213991738855839
        ],
        [
          -0.011418314650654793,
          -0.3399847447872162,
          0.249129518866539,
          0.004124570172280073
        ],
        [
          0.11439976096153259,
          -0.011019262485206127,
          -0.2656250298023224,
          0.005734438542276621
        ],
        [
          -0.015875766053795815,
          0.3007171154022217,
          -0.1776873767375946,
          -0.009158977307379246
        ],
        [
          -0.19527125358581543,
          -0.09168896824121475,
          0.39083269238471985,
          -0.0024051456712186337
        ],
        [
          0.12990348041057587,
          -0.04577936977148056,
          -0.010499279946088791,
          0.006321719381958246
        ],
        [
          0.08002324402332306,
          -0.15652059018611908,
          -0.025052595883607864,
          0.0021644658409059048
        ],
        [
          -0.37479156255722046,
          0.12110726535320282,
          0.24427878856658936,
          0.1378176361322403
        ],
        [
          0.40482568740844727,
          -0.17948339879512787,
          -0.12709809839725494,
          -0.1885361671447754
        ],
        [
          -0.3915576934814453,
          0.13260187208652496,
          0.4133117198944092,
          -0.08171539753675461
        ],
        [
          0.008422218263149261,
          0.12093696743249893,
          0.3029607832431793,
          0.006707513704895973
        ],
        [
          -0.11266729980707169,
          -0.0856468677520752,
          -0.2575651705265045,
          0.02877751551568508
        ],
        [
          0.07240474224090576,
          -0.12248294055461884,
          0.33077549934387207,
          -0.055045560002326965
        ]
      ],
      "spline_order": 3
    },
    {
      "grid": [
        [
          -1.600000023841858,
          -1.399999976158142,
          -1.2000000476837158,
          -1.0,
          -0.800000011920929,
          -0.6000000238418579,
          -0.3999999761581421,
          -0.19999998807907104,
          0.0,
          0.20000004768371582,
          0.3999999761581421,
          0.6000000238418579,
          0.8000000715255737,
          1.0,
          1.2000000476837158,
          1.4000000953674316,
          1.6000001430511475
        ],
        [
          -1.600000023841858,
          -1.399999976158142,
          -1.2000000476837158,
          -1.0,
          -0.800000011920929,
          -0.6000000238418579,
          -0.3999999761581421,
          -0.19999998807907104,
          0.0,
          0.20000004768371582,
          0.3999999761581421,
          0.6000000238418579,
          0.8000000715255737,
          1.0,
          1.2000000476837158,
          1.4000000953674316,
          1.6000001430511475
        ],
        [
          -1.600000023841858,
          -1.399999976158142,
          -1.2000000476837158,
          -1.0,
          -0.800000011920929,
          -0.6000000238418579,
          -0.3999999761581421,
          -0.19999998807907104,
          0.0,
          0.20000004768371582,
          0.3999999761581421,
          0.6000000238418579,
          0.8000000715255737,
          1.0,
          1.2000000476837158,
          1.4000000953674316,
          1.6000001430511475
        ],
        [
          -1.600000023841858,
          -1.399999976158142,
          -1.2000000476837158,
          -1.0,
          -0.800000011920929,
          -0.6000000238418579,
          -0.3999999761581421,
          -0.19999998807907104,
          0.0,
          0.20000004768371582,
          0.3999999761581421,
          0.6000000238418579,
          0.8000000715255737,
          1.0,
          1.2000000476837158,
          1.4000000953674316,
          1.6000001430511475
        ],
        [
          -1.600000023841858,
          -1.399999976158142,
          -1.2000000476837158,
          -1.0,
          -0.800000011920929,
          -0.6000000238418579,
          -0.3999999761581421,
          -0.19999998807907104,
          0.0,
          0.20000004768371582,
          0.3999999761581421,
          0.6000000238418579,
          0.8000000715255737,
          1.0,
          1.2000000476837158,
          1.4000000953674316,
          1.6000001430511475
        ],
        [
          -1.600000023841858,
          -1.399999976158142,
          -1.2000000476837158,
          -1.0,
          -0.800000011920929,
          -0.6000000238418579,
          -0.3999999761581421,
          -0.19999998807907104,
          0.0,
          0.20000004768371582,
          0.3999999761581421,
          0.6000000238418579,
          0.8000000715255737,
          1.0,
          1.2000000476837158,
          1.4000000953674316,
          1.6000001430511475
        ],
        [
          -1.600000023841858,
          -1.399999976158142,
          -1.2000000476837158,
          -1.0,
          -0.800000011920929,
          -0.6000000238418579,
          -0.3999999761581421,
          -0.19999998807907104,
          0.0,
          0.20000004768371582,
          0.3999999761581421,
          0.6000000238418579,
          0.8000000715255737,
          1.0,
          1.2000000476837158,
          1.4000000953674316,
          1.6000001430511475
        ],
        [
          -1.600000023841858,
          -1.399999976158142,
          -1.2000000476837158,
          -1.0,
          -0.800000011920929,
          -0.6000000238418579,
          -0.3999999761581421,
          -0.19999998807907104,
          0.0,
          0.20000004768371582,
          0.3999999761581421,
          0.6000000238418579,
          0.8000000715255737,
          1.0,
          1.2000000476837158,
          1.4000000953674316,
          1.6000001430511475
        ],
        [
          -1.600000023841858,
          -1.399999976158142,
          -1.2000000476837158,
          -1.0,
          -0.800000011920929,
          -0.6000000238418579,
          -0.3999999761581421,
          -0.19999998807907104,
          0.0,
          0.20000004768371582,
          0.3999999761581421,
          0.6000000238418579,
          0.8000000715255737,
          1.0,
          1.2000000476837158,
          1.4000000953674316,
          1.6000001430511475
        ],
        [
          -1.600000023841858,
          -1.399999976158142,
          -1.2000000476837158,
          -1.0,
          -0.800000011920929,
          -0.6000000238418579,
          -0.3999999761581421,
          -0.19999998807907104,
          0.0,
          0.20000004768371582,
          0.3999999761581421,
          0.6000000238418579,
          0.8000000715255737,
          1.0,
          1.2000000476837158,
          1.4000000953674316,
          1.6000001430511475
        ],
        [
          -1.600000023841858,
          -1.399999976158142,
          -1.2000000476837158,
          -1.0,
          -0.800000011920929,
          -0.6000000238418579,
          -0.3999999761581421,
          -0.19999998807907104,
          0.0,
          0.20000004768371582,
          0.3999999761581421,
          0.6000000238418579,
          0.8000000715255737,
          1.0,
          1.2000000476837158,
          1.4000000953674316,
          1.6000001430511475
        ],
        [
          -1.600000023841858,
          -1.399999976158142,
          -1.2000000476837158,
          -1.0,
          -0.800000011920929,
          -0.6000000238418579,
          -0.3999999761581421,
          -0.19999998807907104,
          0.0,
          0.20000004768371582,
          0.3999999761581421,
          0.6000000238418579,
          0.8000000715255737,
          1.0,
          1.2000000476837158,
          1.4000000953674316,
          1.6000001430511475
        ],
        [
          -1.600000023841858,
          -1.399999976158142,
          -1.2000000476837158,
          -1.0,
          -0.800000011920929,
          -0.6000000238418579,
          -0.3999999761581421,
          -0.19999998807907104,
          0.0,
          0.20000004768371582,
          0.3999999761581421,
          0.6000000238418579,
          0.8000000715255737,
          1.0,
          1.2000000476837158,
          1.4000000953674316,
          1.6000001430511475
        ],
        [
          -1.600000023841858,
          -1.399999976158142,
          -1.2000000476837158,
          -1.0,
          -0.800000011920929,
          -0.6000000238418579,
          -0.3999999761581421,
          -0.19999998807907104,
          0.0,
          0.20000004768371582,
          0.3999999761581421,
          0.6000000238418579,
          0.8000000715255737,
          1.0,
          1.2000000476837158,
          1.4000000953674316,
          1.6000001430511475
        ],
        [
          -1.600000023841858,
          -1.399999976158142,
          -1.2000000476837158,
          -1.0,
          -0.800000011920929,
          -0.6000000238418579,
          -0.3999999761581421,
          -0.19999998807907104,
          0.0,
          0.20000004768371582,
          0.3999999761581421,
          0.6000000238418579,
          0.8000000715255737,
          1.0,
          1.2000000476837158,
          1.4000000953674316,
          1.6000001430511475
        ],
        [
          -1.600000023841858,
          -1.399999976158142,
          -1.2000000476837158,
          -1.0,
          -0.800000011920929,
          -0.6000000238418579,
          -0.3999999761581421,
          -0.19999998807907104,
          0.0,
          0.20000004768371582,
          0.3999999761581421,
          0.6000000238418579,
          0.8000000715255737,
          1.0,
          1.2000000476837158,
          1.4000000953674316,
          1.6000001430511475
        ]
      ],
      "scaled_spline_weight": [
        [
          [
            1.4091031362517206e-38,
            1.6435507389418985e-39,
            -1.045068776514948e-39,
            7.063773198950291e-39,
            0.00040759838884696364,
            0.04020031541585922,
            0.022097637876868248,
            0.01927502453327179,
            0.07871901988983154,
            0.00010849450336536393,
            -2.050744670990336e-38,
            1.5202066264240245e-38,
            2.599987387588302e-38
          ],
          [
            6.879296460017322e-39,
            -3.215029895266643e-39,
            -2.6940425405137835e-39,
            4.003635829437792e-40,
            3.585304853004345e-07,
            0.009258083999156952,
            0.017971349880099297,
            0.021592481061816216,
            0.002903327578678727,
            -6.031069488882451e-20,
            2.673108542755235e-39,
            -0.0,
            -0.0
          ],
          [
            -1.538481800476363e-38,
            -7.486261883347295e-39,
            1.2890656677201138e-39,
            -0.0006566380034200847,
            -0.008005021139979362,
            0.03120933659374714,
            0.021918848156929016,
            -0.0009586982778273523,
            -2.2580015843074374e-15,
            4.0498828826559035e-39,
            8.507435718448576e-39,
            -0.0,
            -0.0
          ],
          [
            -2.492904923359378e-38,
            -1.9159841798836078e-39,
            -6.32233637238678e-40,
            -2.754804243225372e-39,
            0.01079068798571825,
            0.025291508063673973,
            0.027394354343414307,
            0.02782244235277176,
            4.918534978060052e-05,
            3.9817965928712893e-39,
            -2.2099653873112398e-39,
            0.0,
            0.0
          ],
          [
            2.0732907225022438e-38,
            -4.386977839935417e-39,
            1.5857536232614357e-38,
            -2.336325577445564e-13,
            0.0011578727280721068,
            0.05860576406121254,
            0.01852414198219776,
            0.008021434769034386,
            0.0058786943554878235,
            3.922060640635587e-39,
            -3.695277299766187e-39,
            0.0,
            0.0
          ],
          [
            1.238489863415856e-38,
            -3.125489725993216e-39,
            4.572135609922048e-39,
            -5.586177204944427e-15,
            0.03001365438103676,
            0.014283879660069942,
            0.025875292718410492,
            0.015190672129392624,
            -3.309259852812829e-07,
            -1.0980010043168144e-38,
            1.9979433244650377e-38,
            -0.0,
            -0.0
          ],
          [
            -5.468665347920101e-40,
            -1.3350759014977549e-39,
            -3.758999946132894e-39,
            -4.50902813358118e-39,
            0.002613811055198312,
            0.010131416842341423,
            0.009291295893490314,
            0.05448954179883003,
            0.008549385704100132,
            2.9928628477414454e-14,
            5.405381307972728e-39,
            -0.0,
            -0.0
          ],
          [
            2.0219352357324357e-38,
            2.320743636109974e-39,
            4.061510857312871e-39,
            2.465818664823058e-39,
            -1.8691151126404293e-05,
            0.010681637562811375,
            0.02996320277452469,
            0.007281607948243618,
            0.027328087016940117,
            5.4085783631308004e-05,
            -2.1910345457074437e-38,
            0.0,
            0.0
          ],
          [
            1.0391276914157501e-38,
            -6.867292937371915e-39,
            -1.4850118944537352e-38,
            -2.252754035919398e-39,
            0.0007637430680915713,
            0.05058082193136215,
            0.024430781602859497,
            0.0032330763060599566,
            0.0009272301685996354,
            -1.9927515136547142e-38,
            -1.793064240410885e-38,
            -0.0,
            -0.0
          ],
          [
            3.814334419892152e-40,
            3.035969174898289e-40,
            1.7527749477436963e-39,
            1.761958232208993e-15,
            0.016384420916438103,
            0.024510204792022705,
            0.009878082200884819,
            0.0031301267445087433,
            4.363423431641422e-05,
            4.381610866817053e-39,
            1.55437630856766e-39,
            -0.0,
            -0.0
          ],
          [
            -2.4061219489443563e-39,
            7.877175109447667e-40,
            7.744836482476831e-39,
            -2.5315053711173623e-38,
            7.75379958213307e-05,
            0.039861295372247696,
            0.007384230382740498,
            0.037318162620067596,
            0.17739135026931763,
            -0.00432452792301774,
            7.91453021520283e-06,
            0.0,
            0.0
          ],
          [
            -9.57193770206678e-39,
            2.941352101288613e-39,
            -2.2019990055415532e-38,
            -0.00013027929526288062,
            0.03630055859684944,
            0.0643901452422142,
            -0.01389092393219471,
            0.01361561194062233,
            0.009869750589132309,
            -2.566713835812602e-38,
            1.4130414855857055e-38,
            -0.0,
            -0.0
          ],
          [
            -5.47020397363393e-39,
            4.5871715424442536e-39,
            3.4659194933581297e-38,
            -2.744994844761095e-07,
            0.001468575093895197,
            0.020553546026349068,
            0.04505095258355141,
            0.00013405305799096823,
            0.05417391285300255,
            0.06508950889110565,
            1.4593781294536257e-08,
            5.026569695410265e-39,
            -0.0
          ],
          [
            -3.444541564246083e-39,
            -2.1103863158393897e-39,
            3.0364414124807666e-39,
            -1.311137519831694e-39,
            -1.2805191483861968e-39,
            0.005562694743275642,
            0.028878241777420044,
            0.025214307010173798,
            -0.00470450334250927,
            -9.194810263579711e-05,
            1.1254080200716184e-39,
            4.1449834042357716e-39,
            0.0
          ],
          [
            -8.115051128960662e-39,
            -1.545870286759362e-38,
            1.7924647649278467e-38,
            2.5970715000767086e-07,
            -0.02002781815826893,
            0.014890417456626892,
            0.04263915866613388,
            0.01715296320617199,
            -8.691545249921566e-36,
            2.2135811577387371e-38,
            -8.328185822787538e-39,
            -0.0,
            -0.0
          ],
          [
            -4.01607095201021e-39,
            -2.057475387774181e-38,
            3.806901932837373e-39,
            -2.0383539695792368e-39,
            4.761574928124901e-06,
            0.050938986241817474,
            0.036568090319633484,
            0.005949069280177355,
            -0.0005151084042154253,
            2.2692519863198868e-08,
            -3.6312407625434715e-40,
            -0.0,
            -0.0
          ]
        ]
      ],
      "base_weight": [
        [
          0.1697048395872116,
          0.13553185760974884,
          -0.25282636284828186,
          -0.16637608408927917,
          -0.21128076314926147,
          -0.17424634099006653,
          0.2491496503353119,
          0.2585574686527252,
          -0.23308056592941284,
          -0.12563495337963104,
          0.3763728439807892,
          -0.26508912444114685,
          0.15981797873973846,
          0.11757203936576843,
          0.06711235642433167,
          -0.200437530875206
        ]
      ],
      "spline_order": 3
    }
  ],
  "norm": {
    "V_min": 2.524099898338318,
    "V_max": 4.8149000883102415,
    "I_abs_max": 5.526000022888184,
    "T_min": 14.349410438537598,
    "T_max": 49.52249011993408,
    "headroom": 0.2
  },
  "ocv_coefs": [
    -11.12109280105917,
    11.93025672150974,
    3.0139234669540182,
    -6.310094275620638,
    2.2867393954090223,
    3.522451328139438
  ],
  "hp": {
    "inputs": [
      "I",
      "SoC",
      "T",
      "dI"
    ],
    "output": "V",
    "hidden": 16,
    "grid_size": 10,
    "spline_order": 3,
    "lr": 0.0003,
    "weight_decay": 0.0001,
    "batch_size": 256,
    "n_epochs": 500,
    "lr_patience": 30,
    "lr_factor": 0.5,
    "lr_min": 1e-06,
    "es_patience": 80,
    "headroom": 0.2,
    "val_split": 0.1
  }
}